SVM-light Version V6.02
0 # kernel type
3 # kernel parameter -d 
1 # kernel parameter -g 
1 # kernel parameter -s 
1 # kernel parameter -r 
empty# kernel parameter -u 
119 # highest feature index 
1605 # number of training documents 
658 # number of support vectors plus 1 
0.9772033 # threshold b, each following line is a SV (starting with alpha*y)
-0.072161653257215824 3:1 11:1 14:1 19:1 39:1 42:1 55:1 64:1 67:1 73:1 75:1 76:1 80:1 83:1 #
-0.023521780280874302 3:1 6:1 17:1 19:1 39:1 41:1 52:1 64:1 67:1 72:1 74:1 76:1 80:1 83:1 #
-0.072161653257215824 4:1 6:1 15:1 21:1 35:1 40:1 57:1 63:1 67:1 73:1 74:1 77:1 80:1 83:1 #
-0.072161653257215824 4:1 10:1 15:1 29:1 39:1 41:1 52:1 64:1 67:1 72:1 74:1 76:1 78:1 83:1 #
-0.072161653257215824 2:1 6:1 16:1 22:1 36:1 40:1 54:1 63:1 67:1 73:1 75:1 76:1 80:1 83:1 #
0.072161653257215824 5:1 11:1 15:1 32:1 39:1 40:1 52:1 63:1 67:1 73:1 74:1 76:1 78:1 83:1 #
0.072161653257215824 5:1 18:1 19:1 39:1 40:1 63:1 67:1 73:1 74:1 76:1 80:1 83:1 #
0.072161653257215824 5:1 6:1 14:1 27:1 35:1 42:1 57:1 64:1 67:1 73:1 74:1 76:1 82:1 83:1 #
0.072161653257215824 3:1 6:1 17:1 19:1 39:1 42:1 50:1 64:1 70:1 72:1 74:1 76:1 82:1 83:1 #
0.072161653257215824 4:1 6:1 14:1 29:1 39:1 42:1 47:1 64:1 67:1 73:1 74:1 76:1 79:1 83:1 #
0.032537710564849075 5:1 11:1 17:1 32:1 39:1 40:1 52:1 63:1 67:1 73:1 74:1 76:1 82:1 112:1 #
-0.0051678424742395701 2:1 6:1 17:1 19:1 39:1 42:1 53:1 66:1 67:1 73:1 74:1 76:1 79:1 83:1 #
-0.072161653257215824 2:1 11:1 16:1 29:1 39:1 40:1 52:1 63:1 67:1 73:1 74:1 76:1 78:1 83:1 #
-0.02897347793487929 5:1 11:1 14:1 29:1 39:1 41:1 52:1 64:1 67:1 72:1 74:1 76:1 79:1 83:1 #
-0.072161653257215824 4:1 10:1 16:1 19:1 39:1 41:1 52:1 66:1 71:1 72:1 74:1 76:1 78:1 83:1 #
0.072161653257215824 2:1 7:1 16:1 22:1 36:1 40:1 57:1 63:1 67:1 73:1 75:1 76:1 80:1 83:1 #
0.072161653257215824 3:1 6:1 17:1 22:1 36:1 40:1 48:1 63:1 67:1 73:1 75:1 76:1 80:1 83:1 #
0.072161653257215824 1:1 6:1 15:1 21:1 35:1 40:1 57:1 63:1 67:1 73:1 75:1 76:1 80:1 100:1 #
0.072161653257215824 3:1 6:1 15:1 22:1 36:1 40:1 54:1 63:1 68:1 73:1 74:1 76:1 80:1 #
0.072161653257215824 2:1 6:1 16:1 21:1 35:1 40:1 53:1 63:1 67:1 73:1 75:1 76:1 80:1 83:1 #
-0.072161653257215824 3:1 6:1 16:1 22:1 36:1 40:1 57:1 63:1 67:1 73:1 75:1 76:1 80:1 83:1 #
-0.072161653257215824 5:1 6:1 17:1 22:1 36:1 40:1 53:1 63:1 71:1 73:1 74:1 76:1 80:1 #
-0.072161653257215824 4:1 6:1 16:1 22:1 36:1 40:1 48:1 63:1 68:1 73:1 74:1 76:1 80:1 110:1 #
-0.072161653257215824 5:1 6:1 15:1 22:1 36:1 40:1 54:1 63:1 67:1 73:1 75:1 76:1 80:1 83:1 #
-0.072161653257215824 5:1 6:1 18:1 26:1 35:1 40:1 54:1 63:1 71:1 73:1 75:1 76:1 80:1 83:1 #
0.072161653257215824 2:1 6:1 18:1 19:1 39:1 41:1 51:1 64:1 67:1 72:1 74:1 76:1 82:1 83:1 #
0.072161653257215824 1:1 6:1 14:1 19:1 39:1 42:1 52:1 62:1 67:1 72:1 74:1 77:1 80:1 83:1 #
0.072161653257215824 3:1 6:1 14:1 19:1 39:1 41:1 51:1 66:1 67:1 72:1 74:1 76:1 82:1 83:1 #
0.072161653257215824 2:1 6:1 16:1 19:1 39:1 42:1 51:1 64:1 67:1 72:1 74:1 76:1 81:1 83:1 #
0.072161653257215824 2:1 6:1 16:1 19:1 39:1 42:1 52:1 62:1 67:1 72:1 74:1 77:1 80:1 83:1 #
0.072161653257215824 3:1 6:1 18:1 22:1 36:1 40:1 51:1 63:1 67:1 73:1 75:1 76:1 82:1 83:1 #
-0.034867378695223661 2:1 6:1 16:1 19:1 39:1 42:1 51:1 62:1 68:1 72:1 74:1 76:1 82:1 110:1 #
-0.072161653257215824 2:1 7:1 16:1 25:1 38:1 40:1 56:1 63:1 67:1 73:1 74:1 76:1 82:1 83:1 #
-0.072161653257215824 3:1 6:1 18:1 29:1 39:1 42:1 51:1 66:1 67:1 73:1 74:1 76:1 80:1 83:1 #
-0.072161653257215824 4:1 6:1 14:1 19:1 39:1 42:1 55:1 62:1 67:1 72:1 74:1 76:1 79:1 83:1 #
0.072161653257215824 2:1 8:1 17:1 22:1 36:1 40:1 50:1 63:1 71:1 73:1 75:1 76:1 80:1 83:1 #
0.072161653257215824 4:1 10:1 17:1 22:1 36:1 40:1 54:1 63:1 71:1 73:1 74:1 76:1 80:1 83:1 #
0.072161653257215824 4:1 6:1 16:1 22:1 36:1 41:1 48:1 64:1 71:1 73:1 75:1 76:1 81:1 83:1 #
0.072161653257215824 4:1 11:1 14:1 22:1 36:1 40:1 48:1 63:1 67:1 73:1 74:1 76:1 80:1 83:1 #
0.072161653257215824 3:1 11:1 14:1 22:1 36:1 40:1 54:1 63:1 67:1 73:1 74:1 76:1 80:1 83:1 #
-0.072161653257215824 3:1 8:1 14:1 22:1 36:1 40:1 51:1 63:1 67:1 73:1 74:1 76:1 80:1 83:1 #
-0.035828146357462703 3:1 7:1 17:1 22:1 36:1 40:1 48:1 63:1 67:1 73:1 74:1 76:1 82:1 83:1 #
-0.072161653257215824 4:1 10:1 17:1 22:1 36:1 40:1 57:1 63:1 71:1 73:1 74:1 76:1 80:1 83:1 #
-0.072161653257215824 3:1 6:1 14:1 22:1 36:1 40:1 48:1 63:1 67:1 73:1 74:1 77:1 80:1 83:1 #
-0.072161653257215824 3:1 7:1 18:1 22:1 36:1 40:1 51:1 63:1 67:1 73:1 74:1 76:1 82:1 83:1 #
0.072161653257215824 5:1 6:1 14:1 19:1 39:1 42:1 49:1 64:1 68:1 72:1 74:1 76:1 78:1 91:1 #
0.072161653257215824 5:1 6:1 15:1 19:1 39:1 42:1 55:1 64:1 67:1 72:1 75:1 76:1 80:1 83:1 #
0.072161653257215824 3:1 6:1 18:1 29:1 39:1 42:1 55:1 64:1 67:1 72:1 74:1 76:1 82:1 99:1 #
-0.072161653257215824 3:1 6:1 18:1 19:1 39:1 42:1 51:1 64:1 67:1 72:1 75:1 76:1 82:1 83:1 #
-0.072161653257215824 4:1 6:1 14:1 29:1 39:1 44:1 52:1 64:1 67:1 72:1 75:1 76:1 82:1 83:1 #
-0.072161653257215824 2:1 6:1 14:1 19:1 39:1 42:1 52:1 64:1 67:1 72:1 75:1 76:1 80:1 83:1 #
-0.02803145674935878 2:1 6:1 15:1 19:1 39:1 42:1 50:1 64:1 71:1 72:1 74:1 77:1 80:1 83:1 #
0.072161653257215824 3:1 6:1 16:1 19:1 39:1 40:1 51:1 63:1 67:1 73:1 74:1 76:1 82:1 83:1 #
0.072161653257215824 4:1 7:1 14:1 22:1 36:1 40:1 51:1 63:1 67:1 73:1 74:1 76:1 80:1 83:1 #
0.072161653257215824 2:1 7:1 17:1 22:1 36:1 40:1 48:1 63:1 67:1 73:1 74:1 76:1 80:1 83:1 #
0.072161653257215824 4:1 7:1 16:1 22:1 36:1 40:1 56:1 63:1 67:1 73:1 74:1 76:1 82:1 83:1 #
0.072161653257215824 2:1 7:1 14:1 22:1 36:1 40:1 56:1 63:1 67:1 73:1 74:1 76:1 82:1 83:1 #
0.072161653257215824 2:1 6:1 14:1 22:1 36:1 40:1 52:1 63:1 67:1 73:1 74:1 76:1 79:1 83:1 #
0.072161653257215824 4:1 11:1 17:1 32:1 39:1 40:1 52:1 63:1 67:1 73:1 74:1 76:1 80:1 83:1 #
-0.072161653257215824 4:1 7:1 16:1 22:1 36:1 40:1 48:1 63:1 67:1 73:1 74:1 76:1 82:1 85:1 #
-0.072161653257215824 5:1 7:1 17:1 22:1 36:1 40:1 48:1 63:1 67:1 73:1 74:1 76:1 82:1 83:1 #
-0.072161653257215824 5:1 7:1 14:1 22:1 36:1 40:1 56:1 63:1 67:1 73:1 74:1 76:1 82:1 83:1 #
-0.056160360242766834 5:1 6:1 14:1 29:1 39:1 41:1 52:1 64:1 67:1 72:1 74:1 76:1 80:1 83:1 #
0.072161653257215824 3:1 6:1 14:1 23:1 39:1 42:1 52:1 64:1 67:1 72:1 75:1 76:1 82:1 83:1 #
0.072161653257215824 3:1 6:1 18:1 29:1 39:1 42:1 51:1 64:1 71:1 72:1 74:1 76:1 80:1 83:1 #
0.072161653257215824 3:1 10:1 16:1 19:1 39:1 42:1 59:1 64:1 67:1 72:1 75:1 76:1 81:1 83:1 #
0.072161653257215824 3:1 9:1 16:1 23:1 39:1 42:1 52:1 64:1 67:1 72:1 74:1 76:1 82:1 83:1 #
-0.072161653257215824 3:1 6:1 18:1 22:1 36:1 40:1 48:1 63:1 67:1 73:1 74:1 76:1 81:1 83:1 #
-0.072161653257215824 3:1 9:1 18:1 29:1 39:1 42:1 47:1 64:1 67:1 72:1 74:1 76:1 80:1 83:1 #
-0.072161653257215824 5:1 6:1 17:1 19:1 39:1 43:1 55:1 66:1 67:1 72:1 74:1 76:1 80:1 83:1 #
0.072161653257215824 3:1 6:1 18:1 22:1 36:1 40:1 51:1 63:1 67:1 73:1 74:1 76:1 82:1 83:1 #
0.072161653257215824 5:1 7:1 14:1 22:1 36:1 40:1 56:1 63:1 67:1 73:1 74:1 76:1 82:1 83:1 #
0.072161653257215824 5:1 10:1 15:1 22:1 36:1 40:1 48:1 63:1 67:1 73:1 74:1 77:1 79:1 83:1 #
0.072161653257215824 2:1 6:1 17:1 22:1 36:1 40:1 57:1 63:1 67:1 73:1 74:1 76:1 82:1 83:1 #
-0.072161653257215824 5:1 7:1 14:1 22:1 36:1 40:1 56:1 63:1 67:1 73:1 74:1 77:1 82:1 83:1 #
-0.072161653257215824 2:1 6:1 15:1 22:1 36:1 40:1 51:1 63:1 67:1 73:1 74:1 76:1 82:1 83:1 #
-0.072161653257215824 4:1 10:1 15:1 22:1 36:1 40:1 59:1 63:1 67:1 73:1 74:1 76:1 82:1 83:1 #
-0.072161653257215824 5:1 6:1 14:1 22:1 36:1 40:1 51:1 63:1 67:1 73:1 74:1 76:1 82:1 83:1 #
-0.072161653257215824 5:1 10:1 14:1 22:1 36:1 40:1 51:1 63:1 69:1 73:1 74:1 76:1 82:1 83:1 #
0.072161653257215824 4:1 7:1 18:1 19:1 39:1 41:1 49:1 66:1 68:1 72:1 74:1 76:1 82:1 93:1 #
0.072161653257215824 3:1 6:1 18:1 32:1 39:1 42:1 52:1 64:1 67:1 73:1 74:1 76:1 80:1 110:1 #
0.072161653257215824 4:1 6:1 17:1 19:1 39:1 40:1 52:1 61:1 67:1 72:1 74:1 76:1 78:1 95:1 #
0.072161653257215824 3:1 18:1 19:1 39:1 40:1 61:1 67:1 72:1 74:1 76:1 78:1 83:1 #
0.072161653257215824 2:1 6:1 16:1 19:1 39:1 46:1 51:1 61:1 67:1 72:1 74:1 76:1 80:1 83:1 #
0.072161653257215824 5:1 6:1 17:1 22:1 36:1 40:1 51:1 63:1 67:1 73:1 74:1 76:1 82:1 83:1 #
-0.072161653257215824 3:1 6:1 16:1 19:1 39:1 40:1 49:1 61:1 67:1 72:1 74:1 76:1 80:1 83:1 #
-0.072161653257215824 3:1 6:1 18:1 19:1 39:1 40:1 50:1 61:1 67:1 72:1 74:1 76:1 78:1 83:1 #
-0.072161653257215824 4:1 11:1 15:1 22:1 36:1 40:1 59:1 63:1 67:1 73:1 74:1 76:1 80:1 83:1 #
0.072161653257215824 5:1 7:1 14:1 22:1 36:1 40:1 56:1 63:1 67:1 73:1 74:1 76:1 82:1 83:1 #
0.013233880021954969 5:1 8:1 14:1 22:1 36:1 40:1 51:1 63:1 67:1 73:1 75:1 76:1 82:1 83:1 #
0.072161653257215824 5:1 6:1 15:1 22:1 36:1 40:1 50:1 63:1 67:1 73:1 74:1 76:1 82:1 83:1 #
0.072161653257215824 5:1 11:1 15:1 22:1 36:1 40:1 51:1 63:1 67:1 73:1 74:1 77:1 80:1 83:1 #
-0.072161653257215824 5:1 7:1 14:1 22:1 36:1 40:1 56:1 63:1 67:1 73:1 75:1 76:1 80:1 83:1 #
-0.072161653257215824 5:1 7:1 15:1 22:1 36:1 40:1 50:1 63:1 68:1 73:1 74:1 76:1 82:1 93:1 #
-0.072161653257215824 5:1 7:1 15:1 22:1 36:1 40:1 57:1 63:1 67:1 73:1 74:1 76:1 82:1 83:1 #
0.072161653257215824 4:1 10:1 16:1 19:1 39:1 40:1 52:1 61:1 71:1 72:1 74:1 76:1 80:1 83:1 #
0.072161653257215824 1:1 6:1 16:1 19:1 39:1 40:1 51:1 61:1 67:1 72:1 74:1 76:1 78:1 83:1 #
0.072161653257215824 3:1 6:1 16:1 19:1 39:1 40:1 50:1 61:1 67:1 72:1 74:1 76:1 79:1 83:1 #
0.072161653257215824 4:1 10:1 16:1 19:1 39:1 40:1 52:1 61:1 67:1 72:1 74:1 76:1 80:1 83:1 #
-0.072161653257215824 3:1 6:1 14:1 19:1 39:1 40:1 51:1 61:1 67:1 72:1 74:1 76:1 80:1 83:1 #
-0.072161653257215824 3:1 6:1 18:1 19:1 39:1 40:1 51:1 61:1 67:1 72:1 74:1 76:1 82:1 88:1 #
-0.072161653257215824 2:1 6:1 18:1 31:1 35:1 40:1 51:1 61:1 67:1 72:1 74:1 76:1 79:1 83:1 #
-0.072161653257215824 2:1 6:1 15:1 32:1 39:1 40:1 52:1 61:1 67:1 72:1 74:1 76:1 82:1 83:1 #
-0.072161653257215824 4:1 10:1 14:1 19:1 39:1 40:1 52:1 61:1 67:1 72:1 74:1 76:1 81:1 83:1 #
0.072161653257215824 5:1 6:1 15:1 22:1 36:1 40:1 57:1 63:1 67:1 73:1 74:1 76:1 82:1 83:1 #
0.072161653257215824 5:1 6:1 15:1 22:1 36:1 40:1 48:1 63:1 67:1 73:1 74:1 76:1 82:1 83:1 #
0.072161653257215824 5:1 7:1 14:1 22:1 36:1 40:1 51:1 63:1 67:1 73:1 75:1 76:1 82:1 83:1 #
0.072161653257215824 5:1 9:1 14:1 22:1 36:1 40:1 55:1 63:1 67:1 73:1 74:1 76:1 80:1 83:1 #
-0.072161653257215824 5:1 16:1 22:1 36:1 40:1 63:1 67:1 73:1 75:1 76:1 78:1 83:1 #
-0.072161653257215824 5:1 6:1 16:1 22:1 36:1 40:1 52:1 63:1 67:1 73:1 75:1 76:1 80:1 83:1 #
-0.072161653257215824 5:1 6:1 16:1 22:1 36:1 40:1 54:1 63:1 67:1 73:1 75:1 76:1 81:1 83:1 #
-0.072161653257215824 5:1 16:1 22:1 36:1 40:1 63:1 67:1 73:1 74:1 76:1 80:1 83:1 #
0.072161653257215824 3:1 10:1 14:1 19:1 39:1 40:1 52:1 61:1 67:1 72:1 74:1 76:1 81:1 83:1 #
0.072161653257215824 2:1 6:1 15:1 19:1 39:1 40:1 52:1 61:1 67:1 72:1 74:1 77:1 78:1 83:1 #
-0.072161653257215824 5:1 9:1 14:1 19:1 39:1 40:1 51:1 63:1 67:1 73:1 74:1 76:1 80:1 83:1 #
-0.072161653257215824 4:1 10:1 16:1 19:1 39:1 40:1 52:1 63:1 67:1 73:1 74:1 76:1 82:1 83:1 #
-0.072161653257215824 5:1 6:1 14:1 23:1 39:1 45:1 52:1 66:1 67:1 73:1 74:1 76:1 82:1 83:1 #
-0.072161653257215824 5:1 8:1 16:1 19:1 39:1 40:1 51:1 63:1 67:1 73:1 74:1 76:1 80:1 83:1 #
-0.072161653257215824 5:1 8:1 14:1 19:1 39:1 40:1 50:1 63:1 67:1 73:1 74:1 76:1 82:1 83:1 #
0.072161653257215824 1:1 6:1 18:1 27:1 35:1 42:1 49:1 64:1 67:1 73:1 74:1 76:1 82:1 83:1 #
0.072161653257215824 3:1 7:1 14:1 22:1 36:1 41:1 56:1 64:1 67:1 73:1 75:1 76:1 80:1 83:1 #
0.072161653257215824 4:1 11:1 15:1 22:1 36:1 42:1 57:1 64:1 67:1 72:1 75:1 76:1 80:1 83:1 #
0.072161653257215824 3:1 6:1 17:1 22:1 36:1 41:1 52:1 62:1 67:1 72:1 74:1 76:1 80:1 83:1 #
0.072161653257215824 5:1 7:1 16:1 22:1 36:1 42:1 56:1 64:1 67:1 73:1 75:1 76:1 80:1 83:1 #
0.072161653257215824 3:1 6:1 17:1 19:1 39:1 40:1 55:1 63:1 67:1 73:1 74:1 76:1 82:1 83:1 #
-0.072161653257215824 5:1 6:1 16:1 22:1 36:1 40:1 57:1 63:1 67:1 73:1 74:1 76:1 82:1 83:1 #
0.072161653257215824 3:1 6:1 16:1 25:1 38:1 40:1 48:1 63:1 67:1 73:1 75:1 76:1 80:1 83:1 #
0.072161653257215824 2:1 6:1 16:1 29:1 39:1 40:1 52:1 63:1 67:1 73:1 74:1 77:1 80:1 83:1 #
-0.072161653257215824 2:1 6:1 17:1 22:1 36:1 40:1 50:1 63:1 67:1 73:1 74:1 76:1 80:1 83:1 #
-0.072161653257215824 3:1 6:1 16:1 19:1 39:1 42:1 51:1 64:1 67:1 73:1 74:1 76:1 78:1 87:1 #
0.072161653257215824 5:1 7:1 14:1 19:1 39:1 40:1 51:1 63:1 67:1 73:1 74:1 76:1 82:1 83:1 #
0.072161653257215824 4:1 8:1 14:1 19:1 39:1 40:1 50:1 63:1 67:1 73:1 74:1 76:1 82:1 83:1 #
0.072161653257215824 4:1 8:1 14:1 29:1 39:1 40:1 50:1 63:1 67:1 73:1 74:1 76:1 82:1 #
0.072161653257215824 5:1 6:1 16:1 19:1 39:1 40:1 47:1 63:1 67:1 73:1 74:1 76:1 82:1 83:1 #
-0.072161653257215824 4:1 7:1 14:1 19:1 39:1 40:1 56:1 63:1 67:1 73:1 74:1 76:1 82:1 83:1 #
-0.072161653257215824 4:1 7:1 17:1 19:1 39:1 40:1 51:1 63:1 67:1 73:1 74:1 76:1 82:1 88:1 #
-0.072161653257215824 5:1 7:1 14:1 27:1 35:1 40:1 50:1 63:1 67:1 73:1 74:1 76:1 82:1 83:1 #
0.072161653257215824 3:1 6:1 18:1 22:1 36:1 41:1 51:1 66:1 67:1 72:1 74:1 76:1 80:1 83:1 #
0.072161653257215824 3:1 6:1 15:1 20:1 37:1 41:1 51:1 64:1 67:1 72:1 74:1 76:1 80:1 83:1 #
0.072161653257215824 3:1 6:1 18:1 22:1 36:1 40:1 48:1 63:1 67:1 73:1 74:1 76:1 80:1 83:1 #
0.072161653257215824 3:1 11:1 16:1 22:1 36:1 40:1 48:1 63:1 67:1 73:1 74:1 77:1 80:1 83:1 #
0.072161653257215824 3:1 6:1 15:1 22:1 36:1 40:1 52:1 63:1 67:1 73:1 74:1 76:1 81:1 109:1 #
-0.072161653257215824 5:1 6:1 15:1 22:1 36:1 40:1 51:1 61:1 67:1 72:1 74:1 76:1 80:1 83:1 #
-0.072161653257215824 3:1 9:1 18:1 20:1 37:1 40:1 47:1 61:1 67:1 72:1 75:1 76:1 80:1 83:1 #
-0.072161653257215824 1:1 6:1 17:1 22:1 36:1 40:1 58:1 61:1 67:1 72:1 75:1 76:1 80:1 83:1 #
-0.072161653257215824 3:1 10:1 15:1 20:1 37:1 40:1 49:1 61:1 67:1 72:1 74:1 76:1 80:1 83:1 #
-0.072161653257215824 5:1 6:1 18:1 22:1 36:1 40:1 54:1 61:1 67:1 72:1 75:1 76:1 80:1 119:1 #
0.072161653257215824 5:1 7:1 14:1 27:1 35:1 45:1 55:1 64:1 67:1 73:1 74:1 76:1 78:1 99:1 #
0.072161653257215824 5:1 7:1 14:1 19:1 39:1 41:1 56:1 64:1 67:1 73:1 75:1 76:1 82:1 83:1 #
0.072161653257215824 4:1 7:1 14:1 19:1 39:1 40:1 56:1 63:1 67:1 73:1 74:1 76:1 82:1 83:1 #
0.072161653257215824 4:1 10:1 17:1 19:1 39:1 41:1 59:1 64:1 71:1 73:1 74:1 76:1 82:1 83:1 #
-0.072161653257215824 4:1 7:1 14:1 19:1 39:1 40:1 56:1 63:1 67:1 73:1 74:1 76:1 82:1 83:1 #
-0.072161653257215824 4:1 10:1 14:1 19:1 39:1 41:1 52:1 66:1 67:1 73:1 74:1 76:1 82:1 83:1 #
0.072161653257215824 5:1 8:1 15:1 25:1 38:1 40:1 51:1 63:1 67:1 73:1 74:1 76:1 80:1 92:1 #
-0.072161653257215824 4:1 6:1 16:1 19:1 39:1 42:1 55:1 62:1 67:1 73:1 74:1 76:1 80:1 83:1 #
-0.072161653257215824 4:1 8:1 16:1 19:1 39:1 42:1 50:1 64:1 67:1 73:1 75:1 76:1 82:1 83:1 #
0.072161653257215824 2:1 6:1 17:1 22:1 36:1 40:1 53:1 61:1 67:1 72:1 74:1 76:1 80:1 103:1 #
0.072161653257215824 3:1 6:1 18:1 22:1 36:1 40:1 51:1 61:1 67:1 72:1 75:1 76:1 80:1 83:1 #
0.072161653257215824 4:1 6:1 17:1 22:1 36:1 40:1 51:1 61:1 67:1 72:1 74:1 76:1 80:1 83:1 #
0.072161653257215824 3:1 6:1 17:1 20:1 37:1 40:1 55:1 61:1 67:1 72:1 74:1 76:1 79:1 83:1 #
0.072161653257215824 5:1 6:1 15:1 24:1 38:1 40:1 51:1 61:1 71:1 72:1 74:1 76:1 80:1 83:1 #
-0.072161653257215824 2:1 6:1 18:1 22:1 36:1 40:1 51:1 61:1 67:1 72:1 74:1 76:1 80:1 83:1 #
-0.072161653257215824 3:1 6:1 17:1 24:1 38:1 40:1 51:1 63:1 67:1 73:1 74:1 76:1 80:1 86:1 #
0.072161653257215824 2:1 7:1 15:1 19:1 39:1 40:1 54:1 63:1 67:1 73:1 74:1 76:1 82:1 83:1 #
0.072161653257215824 3:1 7:1 14:1 19:1 39:1 40:1 52:1 63:1 67:1 73:1 74:1 76:1 82:1 83:1 #
0.072161653257215824 5:1 10:1 17:1 19:1 39:1 44:1 52:1 66:1 67:1 72:1 74:1 76:1 82:1 83:1 #
0.022222311390751572 2:1 8:1 14:1 19:1 39:1 40:1 50:1 63:1 67:1 73:1 75:1 76:1 82:1 83:1 #
-0.072161653257215824 1:1 11:1 17:1 20:1 37:1 40:1 55:1 63:1 71:1 73:1 74:1 76:1 79:1 83:1 #
-0.072161653257215824 3:1 11:1 18:1 19:1 39:1 40:1 59:1 63:1 71:1 73:1 74:1 76:1 82:1 83:1 #
-0.047267430258595047 5:1 11:1 17:1 19:1 39:1 41:1 55:1 64:1 71:1 72:1 74:1 76:1 79:1 83:1 #
-0.072161653257215824 3:1 6:1 15:1 20:1 37:1 40:1 55:1 63:1 67:1 73:1 74:1 76:1 82:1 83:1 #
-0.072161653257215824 5:1 17:1 29:1 39:1 40:1 63:1 67:1 73:1 74:1 76:1 82:1 83:1 #
0.065126933848890511 4:1 6:1 16:1 19:1 39:1 43:1 51:1 66:1 67:1 73:1 75:1 76:1 80:1 83:1 #
0.072161653257215824 3:1 10:1 16:1 26:1 35:1 40:1 49:1 61:1 67:1 72:1 74:1 76:1 80:1 118:1 #
-0.051342859004685791 1:1 8:1 16:1 19:1 39:1 42:1 51:1 62:1 68:1 73:1 74:1 76:1 79:1 110:1 #
-0.072161653257215824 1:1 6:1 17:1 19:1 39:1 42:1 51:1 64:1 67:1 73:1 74:1 76:1 80:1 83:1 #
-0.072161653257215824 4:1 6:1 17:1 19:1 39:1 42:1 52:1 64:1 71:1 73:1 74:1 76:1 80:1 83:1 #
-0.061101636586274627 5:1 10:1 18:1 29:1 39:1 44:1 52:1 64:1 67:1 72:1 74:1 76:1 80:1 83:1 #
0.072161653257215824 3:1 6:1 17:1 29:1 39:1 40:1 52:1 63:1 67:1 73:1 74:1 76:1 79:1 83:1 #
0.072161653257215824 5:1 6:1 17:1 20:1 37:1 40:1 59:1 63:1 71:1 73:1 74:1 76:1 82:1 83:1 #
0.072161653257215824 5:1 11:1 18:1 20:1 37:1 40:1 54:1 63:1 71:1 73:1 74:1 76:1 80:1 83:1 #
0.072161653257215824 5:1 6:1 18:1 19:1 39:1 40:1 50:1 63:1 67:1 73:1 74:1 76:1 82:1 83:1 #
-0.024873606147595918 4:1 6:1 17:1 33:1 35:1 40:1 53:1 63:1 67:1 73:1 74:1 76:1 80:1 103:1 #
0.072161653257215824 5:1 7:1 18:1 19:1 39:1 40:1 52:1 63:1 67:1 73:1 74:1 76:1 81:1 83:1 #
-0.072161653257215824 5:1 10:1 14:1 20:1 37:1 40:1 59:1 63:1 67:1 73:1 75:1 76:1 81:1 83:1 #
-0.072161653257215824 5:1 6:1 15:1 20:1 37:1 40:1 50:1 63:1 67:1 73:1 75:1 76:1 80:1 83:1 #
-0.072161653257215824 5:1 7:1 14:1 20:1 37:1 40:1 56:1 63:1 67:1 73:1 74:1 76:1 82:1 83:1 #
-0.072161653257215824 5:1 7:1 17:1 20:1 37:1 40:1 50:1 63:1 67:1 73:1 74:1 76:1 82:1 83:1 #
-0.072161653257215824 5:1 8:1 14:1 19:1 39:1 40:1 54:1 63:1 67:1 73:1 75:1 76:1 78:1 83:1 #
0.072161653257215824 4:1 11:1 15:1 22:1 36:1 41:1 55:1 66:1 67:1 72:1 74:1 76:1 82:1 83:1 #
0.072161653257215824 4:1 6:1 16:1 22:1 36:1 40:1 55:1 61:1 67:1 72:1 74:1 76:1 80:1 83:1 #
0.072161653257215824 4:1 6:1 16:1 22:1 36:1 40:1 49:1 61:1 71:1 72:1 74:1 76:1 80:1 83:1 #
-0.072161653257215824 4:1 6:1 15:1 27:1 35:1 40:1 52:1 61:1 67:1 72:1 74:1 76:1 81:1 83:1 #
0.072161653257215824 3:1 11:1 16:1 19:1 39:1 40:1 59:1 63:1 67:1 73:1 75:1 76:1 82:1 83:1 #
-0.072161653257215824 3:1 6:1 18:1 25:1 38:1 40:1 56:1 63:1 67:1 73:1 74:1 76:1 82:1 83:1 #
-0.072161653257215824 4:1 6:1 14:1 21:1 35:1 40:1 49:1 61:1 67:1 72:1 74:1 76:1 80:1 83:1 #
-0.072161653257215824 2:1 6:1 15:1 22:1 36:1 40:1 48:1 61:1 67:1 72:1 74:1 76:1 81:1 83:1 #
0.072161653257215824 5:1 8:1 15:1 20:1 37:1 40:1 50:1 63:1 67:1 73:1 74:1 77:1 79:1 83:1 #
0.072161653257215824 5:1 7:1 14:1 20:1 37:1 40:1 51:1 63:1 67:1 73:1 74:1 76:1 82:1 83:1 #
-0.035246218286494685 4:1 6:1 17:1 33:1 35:1 40:1 57:1 63:1 67:1 73:1 74:1 76:1 79:1 103:1 #
0.072161653257215824 3:1 6:1 14:1 20:1 37:1 40:1 47:1 63:1 67:1 73:1 74:1 76:1 82:1 83:1 #
0.072161653257215824 3:1 6:1 14:1 20:1 37:1 40:1 48:1 63:1 67:1 73:1 74:1 76:1 80:1 83:1 #
-0.072161653257215824 4:1 7:1 16:1 20:1 37:1 40:1 56:1 63:1 67:1 73:1 74:1 76:1 82:1 83:1 #
-0.072161653257215824 4:1 8:1 18:1 20:1 37:1 40:1 50:1 63:1 67:1 73:1 74:1 76:1 82:1 83:1 #
-0.072161653257215824 3:1 10:1 14:1 20:1 37:1 40:1 59:1 63:1 67:1 73:1 74:1 76:1 82:1 83:1 #
-0.072161653257215824 3:1 11:1 14:1 20:1 37:1 40:1 51:1 63:1 67:1 73:1 74:1 76:1 79:1 83:1 #
0.072161653257215824 4:1 10:1 15:1 29:1 39:1 41:1 52:1 66:1 71:1 72:1 75:1 76:1 80:1 83:1 #
0.072161653257215824 4:1 11:1 17:1 32:1 39:1 43:1 52:1 66:1 67:1 72:1 74:1 76:1 80:1 83:1 #
0.072161653257215824 5:1 6:1 14:1 31:1 35:1 40:1 50:1 61:1 68:1 72:1 74:1 76:1 78:1 91:1 #
0.072161653257215824 3:1 6:1 15:1 22:1 36:1 40:1 54:1 61:1 67:1 72:1 74:1 76:1 81:1 83:1 #
0.072161653257215824 2:1 10:1 15:1 19:1 39:1 42:1 52:1 64:1 71:1 73:1 75:1 76:1 81:1 #
-0.072161653257215824 5:1 15:1 23:1 39:1 45:1 66:1 68:1 72:1 74:1 76:1 80:1 102:1 #
-0.072161653257215824 2:1 11:1 17:1 23:1 39:1 42:1 52:1 64:1 68:1 73:1 75:1 76:1 82:1 90:1 #
-0.072161653257215824 5:1 10:1 18:1 19:1 39:1 44:1 52:1 64:1 71:1 72:1 74:1 77:1 78:1 83:1 #
-0.064817722973942532 2:1 6:1 14:1 20:1 37:1 40:1 48:1 63:1 67:1 73:1 74:1 76:1 81:1 83:1 #
0.072161653257215824 4:1 7:1 18:1 20:1 37:1 40:1 48:1 63:1 67:1 73:1 74:1 77:1 82:1 83:1 #
0.072161653257215824 4:1 9:1 18:1 20:1 37:1 40:1 48:1 63:1 67:1 73:1 74:1 76:1 80:1 83:1 #
0.072161653257215824 4:1 6:1 14:1 20:1 37:1 40:1 50:1 63:1 67:1 73:1 74:1 76:1 81:1 83:1 #
0.072161653257215824 4:1 6:1 14:1 20:1 37:1 40:1 47:1 63:1 67:1 73:1 74:1 76:1 78:1 83:1 #
0.072161653257215824 4:1 7:1 16:1 20:1 37:1 40:1 48:1 63:1 67:1 73:1 74:1 77:1 80:1 83:1 #
-0.072161653257215824 4:1 6:1 16:1 20:1 37:1 40:1 48:1 63:1 67:1 73:1 74:1 76:1 80:1 83:1 #
-0.072161653257215824 4:1 6:1 18:1 20:1 37:1 40:1 47:1 63:1 67:1 73:1 74:1 76:1 80:1 83:1 #
-0.072161653257215824 4:1 6:1 14:1 20:1 37:1 40:1 48:1 63:1 67:1 73:1 74:1 76:1 82:1 83:1 #
-0.072161653257215824 4:1 11:1 15:1 20:1 37:1 40:1 51:1 63:1 67:1 73:1 74:1 77:1 80:1 83:1 #
0.072161653257215824 5:1 7:1 15:1 22:1 36:1 41:1 51:1 64:1 67:1 72:1 75:1 76:1 79:1 83:1 #
-0.072161653257215824 4:1 6:1 18:1 22:1 36:1 40:1 57:1 63:1 67:1 73:1 75:1 76:1 81:1 83:1 #
-0.072161653257215824 4:1 6:1 18:1 22:1 36:1 40:1 50:1 63:1 67:1 73:1 75:1 76:1 82:1 83:1 #
-0.072161653257215824 4:1 6:1 16:1 22:1 36:1 40:1 51:1 63:1 67:1 73:1 74:1 76:1 81:1 83:1 #
0.072161653257215824 2:1 6:1 15:1 19:1 39:1 42:1 51:1 64:1 67:1 73:1 74:1 76:1 82:1 83:1 #
0.072161653257215824 5:1 10:1 17:1 21:1 35:1 40:1 48:1 63:1 71:1 73:1 74:1 76:1 80:1 83:1 #
0.072161653257215824 3:1 6:1 17:1 25:1 38:1 42:1 51:1 64:1 67:1 73:1 74:1 76:1 82:1 83:1 #
-0.072161653257215824 3:1 8:1 15:1 29:1 39:1 41:1 51:1 64:1 67:1 72:1 74:1 76:1 82:1 83:1 #
-0.072161653257215824 5:1 8:1 15:1 20:1 37:1 41:1 51:1 64:1 67:1 73:1 74:1 76:1 82:1 83:1 #
-0.072161653257215824 4:1 8:1 15:1 19:1 39:1 41:1 51:1 64:1 67:1 72:1 74:1 76:1 82:1 83:1 #
0.027284076310061578 3:1 7:1 17:1 32:1 39:1 40:1 52:1 63:1 67:1 73:1 74:1 76:1 82:1 83:1 #
0.072161653257215824 4:1 6:1 16:1 22:1 36:1 40:1 54:1 63:1 67:1 73:1 74:1 76:1 81:1 83:1 #
0.072161653257215824 5:1 6:1 16:1 22:1 36:1 40:1 54:1 63:1 67:1 73:1 74:1 76:1 81:1 83:1 #
0.072161653257215824 4:1 6:1 16:1 22:1 36:1 40:1 48:1 63:1 67:1 73:1 75:1 76:1 81:1 83:1 #
0.072161653257215824 4:1 6:1 18:1 22:1 36:1 40:1 49:1 63:1 67:1 73:1 74:1 77:1 80:1 83:1 #
0.072161653257215824 2:1 6:1 16:1 22:1 36:1 40:1 54:1 63:1 67:1 73:1 74:1 76:1 80:1 83:1 #
-0.072161653257215824 4:1 6:1 16:1 22:1 36:1 40:1 48:1 63:1 67:1 73:1 74:1 76:1 80:1 83:1 #
-0.072161653257215824 3:1 6:1 14:1 19:1 39:1 42:1 55:1 64:1 67:1 72:1 74:1 76:1 81:1 83:1 #
0.049617296541623696 4:1 6:1 14:1 29:1 39:1 40:1 51:1 63:1 67:1 73:1 74:1 76:1 80:1 83:1 #
0.072161653257215824 2:1 8:1 16:1 22:1 36:1 41:1 51:1 64:1 67:1 73:1 74:1 76:1 82:1 83:1 #
0.072161653257215824 4:1 6:1 18:1 19:1 39:1 42:1 50:1 64:1 67:1 73:1 74:1 76:1 82:1 83:1 #
0.072161653257215824 4:1 9:1 18:1 20:1 37:1 42:1 55:1 64:1 67:1 73:1 75:1 76:1 82:1 83:1 #
0.072161653257215824 4:1 10:1 16:1 29:1 39:1 41:1 59:1 64:1 71:1 73:1 74:1 76:1 82:1 83:1 #
-0.072161653257215824 4:1 10:1 18:1 19:1 39:1 42:1 52:1 62:1 67:1 73:1 74:1 76:1 82:1 83:1 #
0.072161653257215824 5:1 6:1 15:1 20:1 37:1 40:1 48:1 63:1 67:1 73:1 75:1 76:1 82:1 83:1 #
0.072161653257215824 3:1 6:1 18:1 19:1 39:1 40:1 51:1 63:1 67:1 73:1 74:1 76:1 82:1 83:1 #
-0.072161653257215824 5:1 7:1 16:1 22:1 36:1 40:1 51:1 63:1 67:1 73:1 74:1 76:1 78:1 83:1 #
-0.072161653257215824 5:1 9:1 17:1 19:1 39:1 42:1 55:1 64:1 67:1 73:1 74:1 77:1 80:1 83:1 #
0.072161653257215824 3:1 6:1 15:1 22:1 36:1 40:1 50:1 63:1 67:1 73:1 74:1 76:1 80:1 83:1 #
0.072161653257215824 3:1 8:1 17:1 22:1 36:1 40:1 48:1 63:1 67:1 73:1 74:1 76:1 82:1 #
0.072161653257215824 5:1 6:1 16:1 22:1 36:1 44:1 51:1 66:1 67:1 73:1 74:1 76:1 79:1 83:1 #
0.072161653257215824 2:1 6:1 15:1 22:1 36:1 40:1 48:1 63:1 67:1 73:1 74:1 76:1 80:1 83:1 #
-0.072161653257215824 3:1 6:1 17:1 22:1 36:1 40:1 48:1 63:1 67:1 73:1 74:1 76:1 82:1 83:1 #
-0.072161653257215824 4:1 6:1 15:1 22:1 36:1 40:1 51:1 63:1 67:1 73:1 74:1 76:1 82:1 83:1 #
-0.072161653257215824 2:1 6:1 16:1 22:1 36:1 40:1 54:1 63:1 67:1 73:1 75:1 76:1 82:1 105:1 #
0.072161653257215824 2:1 10:1 18:1 32:1 39:1 42:1 52:1 64:1 67:1 73:1 74:1 76:1 82:1 103:1 #
0.02710535498160177 2:1 7:1 18:1 19:1 39:1 40:1 51:1 61:1 67:1 72:1 74:1 77:1 80:1 83:1 #
-0.072161653257215824 5:1 10:1 14:1 19:1 39:1 40:1 52:1 61:1 67:1 72:1 74:1 76:1 80:1 83:1 #
-0.072161653257215824 1:1 7:1 14:1 19:1 39:1 40:1 51:1 61:1 67:1 72:1 74:1 76:1 80:1 83:1 #
-0.072161653257215824 2:1 6:1 18:1 32:1 39:1 42:1 52:1 64:1 67:1 73:1 74:1 76:1 80:1 #
-0.072161653257215824 3:1 6:1 14:1 19:1 39:1 40:1 50:1 61:1 67:1 73:1 74:1 76:1 82:1 #
0.072161653257215824 5:1 8:1 18:1 19:1 39:1 40:1 54:1 63:1 68:1 73:1 75:1 76:1 80:1 #
-0.072161653257215824 5:1 10:1 18:1 25:1 38:1 40:1 57:1 63:1 71:1 73:1 74:1 76:1 80:1 83:1 #
0.072161653257215824 5:1 6:1 18:1 25:1 38:1 40:1 52:1 63:1 67:1 73:1 75:1 76:1 80:1 83:1 #
-0.072161653257215824 4:1 6:1 17:1 22:1 36:1 40:1 48:1 63:1 71:1 73:1 74:1 76:1 80:1 83:1 #
-0.072161653257215824 4:1 10:1 16:1 22:1 36:1 40:1 48:1 63:1 67:1 73:1 74:1 76:1 80:1 83:1 #
0.072161653257215824 3:1 6:1 16:1 29:1 39:1 42:1 55:1 64:1 67:1 73:1 75:1 76:1 82:1 83:1 #
0.072161653257215824 2:1 6:1 15:1 19:1 39:1 40:1 52:1 61:1 67:1 72:1 74:1 77:1 78:1 83:1 #
0.072161653257215824 2:1 6:1 15:1 23:1 39:1 40:1 52:1 61:1 67:1 72:1 74:1 76:1 82:1 83:1 #
-0.072161653257215824 3:1 6:1 17:1 32:1 39:1 41:1 52:1 66:1 67:1 72:1 74:1 76:1 82:1 83:1 #
-0.072161653257215824 2:1 6:1 15:1 19:1 39:1 40:1 52:1 63:1 67:1 73:1 74:1 76:1 82:1 83:1 #
0.072161653257215824 5:1 11:1 14:1 25:1 38:1 41:1 47:1 64:1 67:1 73:1 74:1 77:1 79:1 83:1 #
0.072161653257215824 5:1 9:1 18:1 20:1 37:1 40:1 55:1 63:1 67:1 73:1 74:1 76:1 80:1 83:1 #
0.072161653257215824 4:1 9:1 17:1 20:1 37:1 40:1 53:1 63:1 67:1 73:1 74:1 76:1 80:1 83:1 #
0.072161653257215824 4:1 11:1 17:1 19:1 39:1 40:1 51:1 63:1 71:1 73:1 74:1 76:1 80:1 83:1 #
0.072161653257215824 3:1 7:1 15:1 23:1 39:1 40:1 52:1 63:1 67:1 73:1 74:1 76:1 82:1 83:1 #
-0.072161653257215824 4:1 6:1 17:1 19:1 39:1 41:1 51:1 64:1 67:1 73:1 74:1 76:1 79:1 83:1 #
0.072161653257215824 4:1 8:1 15:1 19:1 39:1 40:1 50:1 63:1 67:1 73:1 74:1 76:1 82:1 83:1 #
0.072161653257215824 4:1 6:1 14:1 19:1 39:1 40:1 52:1 63:1 67:1 73:1 74:1 76:1 80:1 83:1 #
-0.072161653257215824 4:1 7:1 16:1 19:1 39:1 40:1 52:1 63:1 67:1 73:1 74:1 76:1 80:1 83:1 #
-0.072161653257215824 5:1 7:1 14:1 19:1 39:1 40:1 52:1 63:1 67:1 73:1 74:1 76:1 82:1 83:1 #
-0.072161653257215824 2:1 7:1 18:1 19:1 39:1 40:1 50:1 63:1 67:1 73:1 74:1 76:1 82:1 83:1 #
0.072161653257215824 5:1 6:1 16:1 19:1 39:1 41:1 51:1 64:1 71:1 73:1 75:1 76:1 80:1 83:1 #
0.072161653257215824 3:1 6:1 17:1 23:1 39:1 43:1 52:1 64:1 67:1 73:1 74:1 76:1 79:1 83:1 #
0.072161653257215824 4:1 6:1 18:1 20:1 37:1 43:1 50:1 64:1 67:1 73:1 74:1 76:1 82:1 83:1 #
0.03329803401980027 2:1 6:1 15:1 29:1 39:1 40:1 51:1 63:1 67:1 73:1 74:1 76:1 81:1 83:1 #
-0.072161653257215824 5:1 6:1 16:1 24:1 38:1 40:1 50:1 61:1 67:1 72:1 75:1 76:1 80:1 83:1 #
-0.072161653257215824 2:1 6:1 17:1 20:1 37:1 42:1 52:1 64:1 71:1 72:1 75:1 76:1 82:1 83:1 #
-0.072161653257215824 4:1 6:1 14:1 22:1 36:1 42:1 54:1 64:1 67:1 73:1 75:1 76:1 81:1 83:1 #
0.072161653257215824 2:1 9:1 18:1 19:1 39:1 40:1 51:1 63:1 67:1 73:1 74:1 76:1 80:1 83:1 #
0.072161653257215824 5:1 7:1 18:1 19:1 39:1 40:1 50:1 63:1 67:1 73:1 74:1 76:1 80:1 87:1 #
0.072161653257215824 4:1 11:1 17:1 19:1 39:1 40:1 51:1 63:1 67:1 73:1 74:1 76:1 80:1 83:1 #
-0.072161653257215824 2:1 9:1 18:1 19:1 39:1 40:1 51:1 63:1 67:1 73:1 74:1 76:1 80:1 83:1 #
-0.072161653257215824 4:1 6:1 18:1 29:1 39:1 40:1 50:1 63:1 67:1 73:1 74:1 76:1 80:1 109:1 #
-0.072161653257215824 3:1 11:1 18:1 19:1 39:1 40:1 51:1 63:1 67:1 73:1 74:1 76:1 79:1 83:1 #
-0.072161653257215824 2:1 11:1 18:1 19:1 39:1 40:1 52:1 63:1 67:1 73:1 74:1 76:1 78:1 83:1 #
-0.072161653257215824 2:1 6:1 18:1 19:1 39:1 40:1 51:1 63:1 67:1 73:1 74:1 76:1 80:1 83:1 #
0.036459399758664163 3:1 11:1 14:1 20:1 37:1 40:1 51:1 61:1 67:1 72:1 75:1 76:1 79:1 83:1 #
0.072161653257215824 3:1 10:1 14:1 20:1 37:1 40:1 55:1 61:1 67:1 72:1 74:1 76:1 80:1 83:1 #
0.072161653257215824 5:1 16:1 20:1 37:1 40:1 61:1 67:1 72:1 74:1 76:1 81:1 83:1 #
-0.072161653257215824 5:1 6:1 14:1 20:1 37:1 40:1 51:1 61:1 67:1 72:1 74:1 76:1 81:1 83:1 #
-0.072161653257215824 1:1 6:1 15:1 20:1 37:1 40:1 55:1 61:1 69:1 72:1 74:1 76:1 81:1 83:1 #
-0.072161653257215824 3:1 6:1 15:1 20:1 37:1 40:1 48:1 63:1 67:1 73:1 74:1 76:1 80:1 83:1 #
-0.072161653257215824 4:1 6:1 18:1 20:1 37:1 40:1 56:1 61:1 67:1 72:1 74:1 76:1 78:1 83:1 #
0.072161653257215824 2:1 9:1 18:1 29:1 39:1 40:1 52:1 63:1 67:1 73:1 74:1 76:1 80:1 83:1 #
0.072161653257215824 2:1 6:1 15:1 19:1 39:1 40:1 52:1 63:1 67:1 73:1 74:1 77:1 80:1 83:1 #
0.072161653257215824 4:1 6:1 15:1 32:1 39:1 42:1 52:1 64:1 67:1 73:1 75:1 76:1 78:1 83:1 #
0.072161653257215824 4:1 6:1 16:1 32:1 39:1 42:1 52:1 64:1 67:1 73:1 74:1 76:1 79:1 83:1 #
-0.072161653257215824 4:1 6:1 16:1 29:1 39:1 40:1 52:1 63:1 67:1 73:1 74:1 76:1 80:1 83:1 #
-0.072161653257215824 5:1 11:1 14:1 19:1 39:1 45:1 52:1 64:1 67:1 73:1 75:1 76:1 80:1 83:1 #
0.072161653257215824 5:1 7:1 18:1 24:1 38:1 40:1 51:1 61:1 67:1 72:1 75:1 76:1 78:1 83:1 #
0.072161653257215824 3:1 7:1 18:1 20:1 37:1 40:1 52:1 61:1 67:1 72:1 74:1 76:1 82:1 83:1 #
-0.072161653257215824 4:1 7:1 15:1 24:1 38:1 40:1 48:1 63:1 67:1 73:1 74:1 77:1 82:1 83:1 #
-0.072161653257215824 4:1 7:1 18:1 22:1 36:1 40:1 52:1 63:1 67:1 73:1 74:1 76:1 82:1 83:1 #
-0.072161653257215824 3:1 6:1 18:1 22:1 36:1 40:1 52:1 63:1 67:1 73:1 74:1 77:1 82:1 83:1 #
-0.072161653257215824 4:1 7:1 17:1 25:1 38:1 40:1 52:1 63:1 67:1 73:1 74:1 76:1 78:1 83:1 #
-0.072161653257215824 3:1 10:1 17:1 24:1 38:1 40:1 52:1 63:1 67:1 73:1 74:1 76:1 82:1 83:1 #
0.072161653257215824 2:1 6:1 17:1 19:1 39:1 40:1 51:1 61:1 67:1 72:1 74:1 76:1 80:1 83:1 #
0.072161653257215824 5:1 8:1 16:1 19:1 39:1 40:1 50:1 63:1 67:1 73:1 74:1 76:1 78:1 83:1 #
0.072161653257215824 4:1 10:1 15:1 20:1 37:1 40:1 59:1 63:1 67:1 73:1 74:1 76:1 80:1 83:1 #
-0.029345853633762912 5:1 18:1 22:1 36:1 40:1 61:1 67:1 72:1 74:1 76:1 78:1 83:1 #
-0.072161653257215824 2:1 8:1 14:1 19:1 39:1 40:1 50:1 63:1 67:1 73:1 74:1 76:1 80:1 83:1 #
-0.072161653257215824 3:1 10:1 17:1 19:1 39:1 40:1 55:1 63:1 67:1 73:1 74:1 76:1 80:1 83:1 #
-0.072161653257215824 3:1 8:1 16:1 20:1 37:1 40:1 50:1 63:1 67:1 73:1 74:1 77:1 80:1 83:1 #
0.072161653257215824 4:1 6:1 15:1 25:1 38:1 40:1 47:1 61:1 67:1 72:1 74:1 77:1 78:1 83:1 #
0.072161653257215824 5:1 7:1 14:1 23:1 39:1 40:1 52:1 63:1 67:1 73:1 74:1 76:1 82:1 85:1 #
0.072161653257215824 4:1 7:1 14:1 29:1 39:1 40:1 56:1 63:1 67:1 73:1 74:1 76:1 80:1 83:1 #
0.072161653257215824 4:1 8:1 15:1 20:1 37:1 40:1 51:1 63:1 67:1 73:1 74:1 76:1 82:1 83:1 #
-0.072161653257215824 5:1 7:1 15:1 20:1 37:1 40:1 51:1 63:1 67:1 73:1 74:1 76:1 78:1 83:1 #
-0.072161653257215824 5:1 7:1 15:1 20:1 37:1 40:1 49:1 63:1 67:1 73:1 74:1 76:1 82:1 83:1 #
0.072161653257215824 3:1 10:1 18:1 19:1 39:1 40:1 55:1 63:1 67:1 73:1 74:1 76:1 80:1 83:1 #
0.072161653257215824 3:1 7:1 18:1 19:1 39:1 40:1 50:1 63:1 67:1 73:1 74:1 76:1 81:1 83:1 #
-0.072161653257215824 5:1 6:1 15:1 22:1 36:1 40:1 48:1 63:1 67:1 73:1 74:1 76:1 80:1 83:1 #
-0.072161653257215824 4:1 6:1 15:1 19:1 39:1 40:1 50:1 63:1 67:1 73:1 74:1 76:1 82:1 83:1 #
-0.072161653257215824 2:1 6:1 18:1 19:1 39:1 40:1 51:1 63:1 67:1 73:1 74:1 76:1 82:1 83:1 #
-0.072161653257215824 3:1 6:1 15:1 19:1 39:1 40:1 52:1 63:1 68:1 73:1 74:1 76:1 81:1 #
-0.072161653257215824 3:1 11:1 18:1 29:1 39:1 40:1 59:1 63:1 71:1 73:1 74:1 76:1 80:1 83:1 #
0.072161653257215824 4:1 10:1 15:1 20:1 37:1 40:1 59:1 63:1 67:1 73:1 74:1 76:1 80:1 83:1 #
-0.031482289302524932 4:1 7:1 14:1 20:1 37:1 40:1 48:1 63:1 67:1 73:1 74:1 76:1 80:1 83:1 #
-0.072161653257215824 3:1 10:1 17:1 20:1 37:1 40:1 48:1 63:1 67:1 73:1 74:1 77:1 80:1 83:1 #
0.072161653257215824 3:1 6:1 14:1 22:1 36:1 40:1 57:1 63:1 67:1 73:1 75:1 76:1 82:1 83:1 #
-0.072161653257215824 5:1 6:1 14:1 20:1 37:1 40:1 48:1 63:1 67:1 73:1 74:1 76:1 80:1 83:1 #
0.072161653257215824 2:1 6:1 15:1 29:1 39:1 43:1 51:1 64:1 67:1 73:1 74:1 77:1 82:1 83:1 #
0.072161653257215824 3:1 6:1 15:1 20:1 37:1 40:1 51:1 63:1 67:1 73:1 75:1 76:1 80:1 83:1 #
0.072161653257215824 3:1 7:1 17:1 32:1 39:1 42:1 52:1 64:1 67:1 73:1 74:1 76:1 81:1 83:1 #
-0.072161653257215824 2:1 11:1 16:1 32:1 39:1 42:1 52:1 64:1 67:1 72:1 74:1 76:1 82:1 83:1 #
-0.072161653257215824 3:1 6:1 16:1 22:1 36:1 40:1 48:1 63:1 67:1 73:1 74:1 76:1 82:1 83:1 #
-0.065536559690432025 5:1 10:1 16:1 19:1 39:1 43:1 52:1 64:1 67:1 73:1 74:1 76:1 78:1 #
-0.034705820370168755 3:1 6:1 17:1 26:1 35:1 40:1 53:1 63:1 67:1 73:1 74:1 76:1 80:1 83:1 #
-0.072161653257215824 5:1 6:1 16:1 23:1 39:1 42:1 52:1 64:1 67:1 73:1 74:1 76:1 82:1 83:1 #
0.071967823819816576 5:1 10:1 17:1 23:1 39:1 40:1 55:1 63:1 68:1 73:1 74:1 76:1 80:1 98:1 #
0.072161653257215824 4:1 10:1 18:1 19:1 39:1 40:1 51:1 63:1 71:1 73:1 74:1 76:1 80:1 83:1 #
0.072161653257215824 5:1 8:1 14:1 19:1 39:1 40:1 56:1 63:1 67:1 73:1 74:1 77:1 82:1 83:1 #
0.072161653257215824 5:1 10:1 16:1 29:1 39:1 40:1 52:1 63:1 67:1 73:1 74:1 76:1 80:1 83:1 #
0.072161653257215824 4:1 8:1 15:1 20:1 37:1 40:1 52:1 61:1 67:1 72:1 74:1 76:1 80:1 #
-0.072161653257215824 5:1 6:1 14:1 20:1 37:1 40:1 51:1 63:1 67:1 73:1 74:1 77:1 80:1 83:1 #
-0.072161653257215824 5:1 10:1 17:1 22:1 36:1 40:1 59:1 63:1 67:1 73:1 75:1 76:1 80:1 83:1 #
-0.072161653257215824 4:1 6:1 18:1 21:1 35:1 40:1 57:1 63:1 67:1 73:1 74:1 77:1 80:1 83:1 #
-0.072161653257215824 3:1 6:1 15:1 19:1 39:1 40:1 51:1 63:1 67:1 73:1 74:1 76:1 81:1 83:1 #
0.072161653257215824 3:1 11:1 18:1 32:1 39:1 40:1 52:1 63:1 67:1 73:1 74:1 76:1 81:1 88:1 #
0.072161653257215824 5:1 7:1 18:1 19:1 39:1 40:1 47:1 61:1 67:1 72:1 74:1 76:1 82:1 83:1 #
-0.072161653257215824 4:1 10:1 15:1 29:1 39:1 41:1 52:1 66:1 71:1 72:1 74:1 76:1 80:1 83:1 #
-0.072161653257215824 5:1 8:1 18:1 29:1 39:1 41:1 51:1 64:1 71:1 72:1 74:1 76:1 82:1 83:1 #
-0.072161653257215824 5:1 6:1 18:1 19:1 39:1 40:1 52:1 63:1 67:1 73:1 74:1 76:1 82:1 83:1 #
-0.072161653257215824 3:1 6:1 14:1 20:1 37:1 40:1 47:1 63:1 67:1 73:1 74:1 77:1 80:1 83:1 #
-0.072161653257215824 2:1 6:1 16:1 25:1 38:1 40:1 55:1 63:1 67:1 73:1 74:1 77:1 81:1 83:1 #
-0.072161653257215824 3:1 11:1 18:1 22:1 36:1 40:1 55:1 63:1 67:1 73:1 75:1 76:1 80:1 83:1 #
-0.072161653257215824 2:1 6:1 17:1 19:1 39:1 40:1 52:1 63:1 67:1 73:1 74:1 76:1 80:1 83:1 #
0.018061603964010818 4:1 10:1 16:1 29:1 39:1 40:1 52:1 63:1 67:1 73:1 74:1 76:1 82:1 83:1 #
0.072161653257215824 3:1 6:1 14:1 19:1 39:1 40:1 57:1 63:1 67:1 73:1 75:1 76:1 82:1 83:1 #
0.072161653257215824 3:1 6:1 18:1 25:1 38:1 40:1 57:1 63:1 67:1 73:1 75:1 76:1 82:1 83:1 #
-0.072161653257215824 2:1 6:1 15:1 19:1 39:1 40:1 52:1 63:1 67:1 73:1 74:1 76:1 82:1 83:1 #
-0.072161653257215824 2:1 8:1 17:1 19:1 39:1 40:1 48:1 63:1 67:1 73:1 74:1 76:1 82:1 87:1 #
-0.072161653257215824 5:1 14:1 19:1 39:1 40:1 63:1 67:1 73:1 74:1 76:1 80:1 83:1 #
-0.072161653257215824 5:1 6:1 16:1 29:1 39:1 40:1 53:1 63:1 67:1 73:1 74:1 76:1 81:1 83:1 #
0.072161653257215824 2:1 6:1 14:1 22:1 36:1 40:1 48:1 63:1 67:1 73:1 74:1 76:1 80:1 83:1 #
0.072161653257215824 3:1 6:1 15:1 25:1 38:1 41:1 48:1 66:1 67:1 73:1 74:1 76:1 82:1 83:1 #
0.072161653257215824 2:1 6:1 17:1 22:1 36:1 40:1 48:1 63:1 67:1 73:1 74:1 76:1 80:1 83:1 #
0.072161653257215824 5:1 6:1 17:1 22:1 36:1 40:1 48:1 63:1 67:1 73:1 74:1 76:1 80:1 83:1 #
0.072161653257215824 5:1 6:1 16:1 22:1 36:1 40:1 48:1 63:1 67:1 73:1 74:1 76:1 80:1 83:1 #
-0.072161653257215824 3:1 6:1 14:1 22:1 36:1 40:1 57:1 63:1 67:1 73:1 75:1 76:1 80:1 83:1 #
0.072161653257215824 2:1 6:1 16:1 24:1 38:1 40:1 52:1 63:1 67:1 73:1 74:1 76:1 81:1 83:1 #
0.072161653257215824 2:1 6:1 16:1 20:1 37:1 40:1 57:1 63:1 67:1 73:1 74:1 76:1 82:1 83:1 #
0.072161653257215824 2:1 6:1 14:1 19:1 39:1 40:1 50:1 63:1 67:1 73:1 74:1 76:1 82:1 83:1 #
0.072161653257215824 3:1 6:1 16:1 20:1 37:1 40:1 54:1 63:1 68:1 73:1 74:1 76:1 82:1 83:1 #
-0.072161653257215824 5:1 7:1 15:1 25:1 38:1 40:1 56:1 63:1 67:1 73:1 74:1 76:1 80:1 83:1 #
-0.072161653257215824 4:1 6:1 15:1 22:1 36:1 40:1 50:1 63:1 67:1 73:1 74:1 76:1 80:1 83:1 #
-0.072161653257215824 4:1 10:1 16:1 22:1 36:1 40:1 57:1 63:1 67:1 73:1 74:1 76:1 82:1 83:1 #
0.072161653257215824 5:1 14:1 22:1 36:1 40:1 63:1 67:1 73:1 74:1 76:1 78:1 83:1 #
0.072161653257215824 3:1 6:1 17:1 31:1 35:1 40:1 51:1 63:1 67:1 73:1 74:1 76:1 80:1 83:1 #
0.072161653257215824 5:1 6:1 14:1 22:1 36:1 40:1 53:1 63:1 67:1 73:1 74:1 76:1 80:1 83:1 #
0.072161653257215824 5:1 6:1 15:1 20:1 37:1 40:1 57:1 63:1 67:1 73:1 74:1 76:1 78:1 83:1 #
-0.072161653257215824 2:1 6:1 17:1 20:1 37:1 40:1 47:1 61:1 67:1 72:1 74:1 76:1 80:1 83:1 #
-0.072161653257215824 3:1 6:1 18:1 20:1 37:1 40:1 51:1 63:1 67:1 73:1 74:1 76:1 80:1 83:1 #
-0.072161653257215824 5:1 6:1 15:1 33:1 35:1 40:1 54:1 63:1 67:1 73:1 74:1 77:1 80:1 83:1 #
0.072161653257215824 3:1 6:1 16:1 24:1 38:1 40:1 50:1 63:1 67:1 73:1 74:1 76:1 82:1 83:1 #
0.072161653257215824 2:1 6:1 18:1 22:1 36:1 40:1 50:1 63:1 67:1 73:1 74:1 76:1 82:1 83:1 #
0.072161653257215824 3:1 8:1 14:1 25:1 38:1 40:1 50:1 63:1 67:1 73:1 74:1 76:1 80:1 83:1 #
0.072161653257215824 4:1 6:1 18:1 24:1 38:1 40:1 50:1 63:1 67:1 73:1 74:1 76:1 82:1 83:1 #
-0.072161653257215824 5:1 8:1 15:1 22:1 36:1 40:1 50:1 63:1 67:1 73:1 74:1 76:1 82:1 83:1 #
-0.072161653257215824 4:1 10:1 14:1 24:1 38:1 40:1 52:1 63:1 67:1 73:1 74:1 76:1 82:1 83:1 #
-0.072161653257215824 4:1 8:1 16:1 22:1 36:1 40:1 57:1 63:1 67:1 73:1 74:1 76:1 82:1 83:1 #
0.072161653257215824 1:1 6:1 18:1 20:1 37:1 40:1 55:1 63:1 67:1 73:1 74:1 76:1 80:1 83:1 #
0.072161653257215824 2:1 6:1 15:1 20:1 37:1 40:1 51:1 63:1 67:1 73:1 74:1 76:1 80:1 83:1 #
0.072161653257215824 2:1 6:1 16:1 20:1 37:1 40:1 53:1 63:1 67:1 73:1 74:1 76:1 80:1 83:1 #
0.072161653257215824 4:1 6:1 17:1 20:1 37:1 40:1 48:1 63:1 71:1 73:1 74:1 76:1 80:1 83:1 #
-0.072161653257215824 3:1 6:1 17:1 20:1 37:1 40:1 53:1 63:1 71:1 73:1 74:1 76:1 80:1 83:1 #
-0.072161653257215824 2:1 6:1 15:1 20:1 37:1 40:1 53:1 63:1 67:1 73:1 74:1 76:1 80:1 100:1 #
-0.072161653257215824 5:1 6:1 17:1 20:1 37:1 40:1 50:1 63:1 67:1 73:1 74:1 76:1 80:1 83:1 #
0.072161653257215824 2:1 10:1 17:1 22:1 36:1 40:1 59:1 63:1 67:1 73:1 74:1 76:1 81:1 83:1 #
0.072161653257215824 2:1 10:1 15:1 22:1 36:1 40:1 51:1 63:1 67:1 73:1 74:1 76:1 82:1 83:1 #
0.072161653257215824 2:1 10:1 17:1 22:1 36:1 40:1 59:1 63:1 67:1 73:1 74:1 76:1 80:1 83:1 #
0.072161653257215824 4:1 8:1 14:1 24:1 38:1 40:1 52:1 63:1 67:1 73:1 74:1 76:1 82:1 83:1 #
0.072161653257215824 5:1 16:1 22:1 36:1 40:1 63:1 67:1 73:1 74:1 76:1 80:1 83:1 #
-0.072161653257215824 2:1 10:1 16:1 24:1 38:1 40:1 59:1 63:1 67:1 73:1 74:1 77:1 80:1 85:1 #
-0.072161653257215824 4:1 16:1 22:1 36:1 40:1 63:1 67:1 73:1 74:1 76:1 80:1 83:1 #
0.072161653257215824 5:1 7:1 17:1 20:1 37:1 40:1 57:1 63:1 67:1 73:1 74:1 76:1 81:1 83:1 #
0.072161653257215824 5:1 8:1 16:1 20:1 37:1 40:1 57:1 63:1 67:1 73:1 74:1 76:1 80:1 83:1 #
0.072161653257215824 4:1 6:1 17:1 20:1 37:1 40:1 52:1 63:1 67:1 73:1 74:1 76:1 80:1 83:1 #
-0.072161653257215824 5:1 6:1 16:1 20:1 37:1 40:1 56:1 63:1 67:1 73:1 74:1 76:1 80:1 83:1 #
-0.072161653257215824 5:1 18:1 20:1 37:1 40:1 63:1 67:1 73:1 74:1 76:1 80:1 83:1 #
-0.072161653257215824 5:1 10:1 14:1 20:1 37:1 40:1 57:1 63:1 67:1 73:1 74:1 76:1 80:1 83:1 #
0.072161653257215824 3:1 6:1 15:1 22:1 36:1 40:1 50:1 63:1 67:1 73:1 74:1 77:1 80:1 83:1 #
0.072161653257215824 3:1 6:1 18:1 19:1 39:1 40:1 48:1 63:1 68:1 73:1 74:1 76:1 80:1 84:1 #
0.072161653257215824 3:1 6:1 17:1 22:1 36:1 40:1 54:1 63:1 67:1 73:1 74:1 76:1 82:1 83:1 #
0.072161653257215824 4:1 6:1 17:1 22:1 36:1 40:1 48:1 63:1 67:1 73:1 74:1 76:1 80:1 #
0.072161653257215824 3:1 6:1 15:1 19:1 39:1 40:1 54:1 63:1 67:1 73:1 74:1 76:1 82:1 83:1 #
0.072161653257215824 3:1 10:1 16:1 20:1 37:1 40:1 59:1 63:1 67:1 73:1 74:1 76:1 82:1 83:1 #
0.072161653257215824 5:1 10:1 14:1 19:1 39:1 40:1 55:1 61:1 67:1 72:1 74:1 76:1 80:1 83:1 #
-0.072161653257215824 4:1 6:1 17:1 22:1 36:1 40:1 54:1 63:1 67:1 73:1 74:1 76:1 80:1 83:1 #
-0.072161653257215824 4:1 6:1 17:1 23:1 39:1 41:1 55:1 64:1 67:1 73:1 74:1 76:1 80:1 83:1 #
-0.072161653257215824 4:1 6:1 18:1 22:1 36:1 40:1 54:1 63:1 67:1 73:1 74:1 76:1 80:1 83:1 #
0.072161653257215824 5:1 6:1 14:1 22:1 36:1 40:1 47:1 63:1 67:1 73:1 74:1 76:1 80:1 83:1 #
0.072161653257215824 2:1 6:1 15:1 20:1 37:1 40:1 56:1 63:1 67:1 73:1 74:1 76:1 82:1 83:1 #
-0.072161653257215824 2:1 6:1 16:1 19:1 39:1 40:1 51:1 63:1 67:1 73:1 74:1 76:1 80:1 107:1 #
-0.072161653257215824 2:1 6:1 17:1 21:1 35:1 40:1 53:1 63:1 67:1 73:1 75:1 76:1 80:1 83:1 #
-0.072161653257215824 5:1 16:1 19:1 39:1 40:1 63:1 67:1 73:1 74:1 76:1 78:1 83:1 #
-0.072161653257215824 3:1 8:1 15:1 20:1 37:1 40:1 52:1 63:1 67:1 73:1 74:1 76:1 78:1 83:1 #
-0.012194130889413832 2:1 6:1 15:1 20:1 37:1 40:1 49:1 61:1 67:1 72:1 74:1 76:1 80:1 83:1 #
0.072161653257215824 5:1 18:1 22:1 36:1 40:1 63:1 67:1 73:1 74:1 76:1 80:1 83:1 #
0.072161653257215824 5:1 6:1 17:1 22:1 36:1 40:1 54:1 63:1 67:1 73:1 74:1 76:1 80:1 83:1 #
0.072161653257215824 4:1 6:1 14:1 25:1 38:1 40:1 48:1 63:1 67:1 73:1 74:1 76:1 80:1 87:1 #
0.072161653257215824 5:1 6:1 15:1 22:1 36:1 40:1 49:1 63:1 67:1 73:1 74:1 76:1 80:1 83:1 #
0.072161653257215824 4:1 6:1 17:1 25:1 38:1 40:1 54:1 63:1 67:1 73:1 74:1 76:1 80:1 83:1 #
-0.072161653257215824 5:1 9:1 14:1 22:1 36:1 40:1 47:1 63:1 67:1 73:1 74:1 76:1 80:1 83:1 #
-0.072161653257215824 4:1 6:1 18:1 22:1 36:1 40:1 57:1 63:1 67:1 73:1 74:1 76:1 80:1 83:1 #
-0.072161653257215824 5:1 7:1 17:1 22:1 36:1 40:1 56:1 63:1 67:1 73:1 74:1 76:1 80:1 83:1 #
-0.072161653257215824 4:1 17:1 22:1 36:1 40:1 63:1 67:1 73:1 74:1 76:1 80:1 83:1 #
0.072161653257215824 3:1 6:1 15:1 29:1 39:1 40:1 52:1 61:1 67:1 72:1 74:1 77:1 78:1 83:1 #
0.072161653257215824 3:1 10:1 17:1 29:1 39:1 40:1 52:1 61:1 67:1 72:1 74:1 76:1 80:1 83:1 #
-0.072161653257215824 4:1 6:1 16:1 31:1 35:1 40:1 50:1 63:1 67:1 73:1 74:1 77:1 82:1 83:1 #
-0.072161653257215824 5:1 6:1 18:1 19:1 39:1 40:1 54:1 63:1 67:1 73:1 74:1 76:1 80:1 83:1 #
0.072161653257215824 4:1 9:1 18:1 20:1 37:1 40:1 51:1 63:1 71:1 73:1 74:1 76:1 80:1 83:1 #
0.072161653257215824 5:1 8:1 18:1 20:1 37:1 40:1 51:1 63:1 67:1 73:1 74:1 76:1 80:1 83:1 #
0.072161653257215824 5:1 6:1 16:1 22:1 36:1 40:1 57:1 63:1 67:1 73:1 74:1 76:1 80:1 83:1 #
0.072161653257215824 5:1 6:1 14:1 21:1 35:1 40:1 50:1 63:1 67:1 73:1 75:1 76:1 78:1 83:1 #
0.018421457006742099 5:1 6:1 18:1 19:1 39:1 40:1 51:1 63:1 67:1 73:1 74:1 76:1 82:1 83:1 #
0.072161653257215824 4:1 6:1 14:1 19:1 39:1 40:1 52:1 63:1 67:1 73:1 74:1 76:1 82:1 83:1 #
0.072161653257215824 3:1 6:1 17:1 19:1 39:1 40:1 52:1 63:1 67:1 73:1 74:1 76:1 80:1 83:1 #
0.072161653257215824 4:1 6:1 18:1 20:1 37:1 40:1 57:1 63:1 67:1 73:1 74:1 76:1 82:1 83:1 #
0.072161653257215824 3:1 6:1 17:1 19:1 39:1 40:1 47:1 63:1 67:1 73:1 74:1 76:1 80:1 83:1 #
-0.072161653257215824 3:1 6:1 15:1 20:1 37:1 40:1 52:1 63:1 67:1 73:1 74:1 76:1 80:1 83:1 #
-0.072161653257215824 4:1 6:1 16:1 20:1 37:1 40:1 54:1 63:1 71:1 73:1 74:1 76:1 80:1 83:1 #
-0.02348987402745913 5:1 6:1 16:1 22:1 36:1 40:1 50:1 63:1 67:1 73:1 74:1 76:1 78:1 83:1 #
-0.072161653257215824 4:1 6:1 17:1 20:1 37:1 40:1 51:1 63:1 67:1 73:1 74:1 76:1 80:1 86:1 #
0.072161653257215824 5:1 9:1 16:1 22:1 36:1 40:1 47:1 63:1 67:1 73:1 74:1 77:1 80:1 83:1 #
0.072161653257215824 5:1 9:1 14:1 22:1 36:1 40:1 55:1 63:1 67:1 73:1 74:1 76:1 80:1 83:1 #
0.072161653257215824 5:1 6:1 16:1 22:1 36:1 40:1 53:1 63:1 67:1 73:1 74:1 76:1 80:1 83:1 #
0.072161653257215824 2:1 8:1 16:1 22:1 36:1 40:1 56:1 63:1 67:1 73:1 74:1 77:1 82:1 83:1 #
-0.072161653257215824 5:1 18:1 22:1 36:1 40:1 63:1 67:1 73:1 74:1 76:1 80:1 83:1 #
-0.072161653257215824 5:1 6:1 14:1 19:1 39:1 40:1 47:1 63:1 67:1 73:1 74:1 76:1 80:1 83:1 #
0.072161653257215824 4:1 10:1 17:1 20:1 37:1 40:1 48:1 63:1 67:1 73:1 74:1 76:1 80:1 83:1 #
0.072161653257215824 4:1 6:1 18:1 20:1 37:1 40:1 48:1 63:1 71:1 73:1 74:1 76:1 81:1 83:1 #
0.072161653257215824 4:1 6:1 16:1 20:1 37:1 40:1 50:1 63:1 67:1 73:1 74:1 76:1 80:1 83:1 #
0.072161653257215824 5:1 6:1 15:1 19:1 39:1 40:1 51:1 63:1 68:1 73:1 74:1 76:1 80:1 98:1 #
0.072161653257215824 5:1 6:1 14:1 19:1 39:1 40:1 51:1 63:1 67:1 73:1 74:1 76:1 80:1 83:1 #
-0.044941232989443622 4:1 6:1 16:1 22:1 36:1 40:1 49:1 63:1 68:1 73:1 74:1 76:1 80:1 94:1 #
-0.072161653257215824 3:1 11:1 15:1 19:1 39:1 40:1 50:1 63:1 67:1 73:1 74:1 76:1 80:1 83:1 #
-0.072161653257215824 5:1 14:1 19:1 39:1 40:1 63:1 67:1 73:1 74:1 76:1 78:1 83:1 #
-0.044695243825468821 3:1 6:1 14:1 19:1 39:1 42:1 50:1 64:1 67:1 73:1 74:1 76:1 81:1 83:1 #
0.072161653257215824 4:1 6:1 15:1 22:1 36:1 40:1 53:1 63:1 67:1 73:1 74:1 76:1 80:1 83:1 #
0.072161653257215824 5:1 8:1 17:1 20:1 37:1 40:1 51:1 63:1 67:1 73:1 74:1 76:1 80:1 83:1 #
-0.072161653257215824 4:1 6:1 15:1 22:1 36:1 40:1 49:1 63:1 67:1 73:1 74:1 76:1 80:1 83:1 #
-0.072161653257215824 4:1 6:1 18:1 26:1 35:1 40:1 51:1 63:1 67:1 73:1 74:1 76:1 80:1 103:1 #
-0.072161653257215824 4:1 10:1 17:1 22:1 36:1 40:1 57:1 63:1 67:1 73:1 74:1 76:1 80:1 83:1 #
-0.072161653257215824 3:1 6:1 18:1 19:1 39:1 41:1 51:1 64:1 67:1 73:1 74:1 77:1 80:1 83:1 #
0.072161653257215824 3:1 6:1 16:1 21:1 35:1 40:1 54:1 63:1 67:1 73:1 75:1 76:1 81:1 83:1 #
0.072161653257215824 4:1 6:1 15:1 25:1 38:1 40:1 56:1 63:1 67:1 73:1 74:1 76:1 80:1 83:1 #
-0.072161653257215824 2:1 6:1 15:1 33:1 35:1 40:1 54:1 63:1 67:1 73:1 75:1 76:1 80:1 103:1 #
-0.072161653257215824 4:1 8:1 17:1 27:1 35:1 40:1 48:1 63:1 67:1 73:1 74:1 76:1 80:1 #
0.072161653257215824 2:1 6:1 14:1 19:1 39:1 40:1 51:1 63:1 67:1 73:1 74:1 76:1 80:1 83:1 #
0.072161653257215824 3:1 6:1 18:1 19:1 39:1 40:1 50:1 63:1 67:1 73:1 74:1 76:1 80:1 83:1 #
0.072161653257215824 4:1 9:1 15:1 20:1 37:1 40:1 48:1 63:1 67:1 73:1 74:1 76:1 80:1 83:1 #
0.072161653257215824 5:1 6:1 15:1 31:1 35:1 40:1 48:1 63:1 67:1 73:1 75:1 76:1 80:1 83:1 #
0.072161653257215824 5:1 6:1 17:1 20:1 37:1 40:1 55:1 63:1 67:1 73:1 74:1 76:1 81:1 83:1 #
-0.072161653257215824 3:1 11:1 14:1 20:1 37:1 40:1 51:1 63:1 67:1 73:1 74:1 76:1 80:1 83:1 #
-0.072161653257215824 3:1 6:1 16:1 22:1 36:1 40:1 50:1 61:1 67:1 72:1 74:1 76:1 78:1 83:1 #
-0.072161653257215824 4:1 6:1 16:1 25:1 38:1 40:1 48:1 63:1 67:1 73:1 74:1 76:1 82:1 83:1 #
-0.072161653257215824 2:1 6:1 14:1 19:1 39:1 40:1 50:1 63:1 67:1 73:1 74:1 76:1 82:1 83:1 #
-0.072161653257215824 3:1 6:1 16:1 19:1 39:1 40:1 48:1 63:1 67:1 73:1 74:1 76:1 80:1 83:1 #
-0.072161653257215824 2:1 9:1 16:1 24:1 38:1 40:1 55:1 63:1 67:1 73:1 74:1 76:1 82:1 83:1 #
-0.072161653257215824 3:1 6:1 16:1 29:1 39:1 40:1 52:1 63:1 67:1 73:1 74:1 76:1 78:1 83:1 #
0.072161653257215824 4:1 6:1 16:1 22:1 36:1 40:1 54:1 63:1 67:1 73:1 74:1 76:1 80:1 83:1 #
0.072161653257215824 4:1 9:1 14:1 22:1 36:1 40:1 55:1 63:1 67:1 73:1 74:1 76:1 80:1 83:1 #
0.072161653257215824 2:1 6:1 18:1 22:1 36:1 40:1 51:1 63:1 67:1 73:1 74:1 76:1 80:1 83:1 #
0.072161653257215824 4:1 10:1 18:1 24:1 38:1 40:1 51:1 63:1 71:1 73:1 74:1 76:1 82:1 83:1 #
-0.072161653257215824 2:1 6:1 18:1 22:1 36:1 40:1 57:1 63:1 67:1 73:1 75:1 76:1 81:1 83:1 #
-0.072161653257215824 4:1 6:1 15:1 22:1 36:1 40:1 51:1 61:1 67:1 72:1 74:1 76:1 80:1 83:1 #
-0.072161653257215824 5:1 6:1 18:1 22:1 36:1 40:1 48:1 63:1 67:1 73:1 74:1 76:1 82:1 83:1 #
-0.072161653257215824 5:1 6:1 18:1 22:1 36:1 40:1 51:1 63:1 67:1 73:1 74:1 76:1 78:1 83:1 #
0.072161653257215824 3:1 6:1 16:1 20:1 37:1 40:1 51:1 63:1 67:1 73:1 74:1 76:1 82:1 83:1 #
-0.072161653257215824 3:1 6:1 14:1 20:1 37:1 40:1 48:1 63:1 67:1 73:1 74:1 77:1 81:1 83:1 #
-0.072161653257215824 5:1 6:1 15:1 20:1 37:1 40:1 48:1 63:1 67:1 73:1 74:1 76:1 82:1 83:1 #
0.072161653257215824 4:1 6:1 18:1 20:1 37:1 40:1 50:1 63:1 67:1 73:1 74:1 76:1 81:1 83:1 #
-0.072161653257215824 2:1 6:1 16:1 24:1 38:1 40:1 51:1 63:1 67:1 73:1 74:1 76:1 80:1 83:1 #
-0.072161653257215824 4:1 6:1 17:1 22:1 36:1 40:1 50:1 63:1 67:1 73:1 74:1 76:1 80:1 83:1 #
-0.072161653257215824 5:1 6:1 17:1 20:1 37:1 40:1 48:1 63:1 67:1 73:1 74:1 76:1 80:1 83:1 #
-0.072161653257215824 3:1 6:1 14:1 25:1 38:1 40:1 55:1 63:1 67:1 73:1 74:1 76:1 80:1 83:1 #
-0.072161653257215824 5:1 6:1 17:1 20:1 37:1 40:1 50:1 63:1 67:1 73:1 74:1 76:1 78:1 83:1 #
0.072161653257215824 5:1 6:1 18:1 20:1 37:1 40:1 57:1 63:1 67:1 73:1 75:1 76:1 78:1 83:1 #
0.072161653257215824 3:1 6:1 14:1 19:1 39:1 40:1 51:1 63:1 67:1 73:1 74:1 76:1 80:1 83:1 #
0.072161653257215824 3:1 10:1 17:1 24:1 38:1 40:1 51:1 63:1 67:1 73:1 74:1 76:1 80:1 83:1 #
0.072161653257215824 4:1 6:1 17:1 25:1 38:1 40:1 52:1 63:1 67:1 73:1 74:1 76:1 80:1 83:1 #
0.072161653257215824 5:1 8:1 17:1 20:1 37:1 40:1 51:1 63:1 67:1 73:1 74:1 76:1 80:1 83:1 #
0.072161653257215824 4:1 6:1 18:1 20:1 37:1 40:1 51:1 63:1 67:1 73:1 74:1 76:1 82:1 83:1 #
0.072161653257215824 2:1 6:1 16:1 20:1 37:1 40:1 47:1 63:1 67:1 73:1 75:1 76:1 80:1 83:1 #
-0.072161653257215824 3:1 6:1 16:1 20:1 37:1 40:1 52:1 63:1 67:1 73:1 74:1 76:1 82:1 83:1 #
-0.072161653257215824 3:1 6:1 17:1 20:1 37:1 40:1 49:1 63:1 67:1 73:1 74:1 76:1 82:1 83:1 #
-0.072161653257215824 3:1 6:1 17:1 20:1 37:1 40:1 48:1 63:1 67:1 73:1 74:1 76:1 80:1 83:1 #
-0.072161653257215824 1:1 6:1 18:1 20:1 37:1 40:1 55:1 63:1 67:1 73:1 74:1 76:1 81:1 83:1 #
-0.072161653257215824 4:1 6:1 18:1 25:1 38:1 40:1 57:1 63:1 67:1 73:1 74:1 76:1 82:1 83:1 #
0.072161653257215824 5:1 6:1 15:1 22:1 36:1 40:1 48:1 63:1 67:1 73:1 74:1 76:1 80:1 83:1 #
0.072161653257215824 5:1 6:1 16:1 22:1 36:1 40:1 57:1 63:1 67:1 73:1 74:1 77:1 82:1 83:1 #
0.072161653257215824 2:1 6:1 17:1 22:1 36:1 40:1 54:1 63:1 67:1 73:1 74:1 76:1 82:1 83:1 #
0.072161653257215824 5:1 6:1 18:1 22:1 36:1 40:1 48:1 63:1 67:1 73:1 74:1 76:1 79:1 83:1 #
0.072161653257215824 4:1 6:1 16:1 22:1 36:1 40:1 57:1 63:1 67:1 73:1 74:1 76:1 82:1 83:1 #
-0.072161653257215824 5:1 7:1 16:1 24:1 38:1 40:1 48:1 63:1 67:1 73:1 75:1 76:1 78:1 113:1 #
-0.072161653257215824 2:1 6:1 18:1 19:1 39:1 40:1 48:1 63:1 67:1 73:1 74:1 76:1 80:1 83:1 #
-0.072161653257215824 2:1 6:1 17:1 19:1 39:1 40:1 49:1 63:1 67:1 73:1 74:1 76:1 82:1 83:1 #
-0.072161653257215824 4:1 6:1 17:1 19:1 39:1 43:1 47:1 64:1 67:1 73:1 74:1 76:1 80:1 83:1 #
-0.072161653257215824 4:1 6:1 14:1 24:1 38:1 40:1 48:1 63:1 67:1 73:1 74:1 76:1 81:1 83:1 #
0.072161653257215824 3:1 9:1 15:1 22:1 36:1 40:1 55:1 63:1 67:1 73:1 74:1 76:1 80:1 83:1 #
0.072161653257215824 4:1 6:1 14:1 22:1 36:1 40:1 53:1 63:1 67:1 73:1 74:1 76:1 82:1 83:1 #
-0.072161653257215824 3:1 9:1 15:1 19:1 39:1 42:1 55:1 62:1 67:1 73:1 74:1 76:1 79:1 83:1 #
0.072161653257215824 2:1 6:1 17:1 19:1 39:1 40:1 51:1 63:1 67:1 73:1 74:1 76:1 81:1 83:1 #
0.072161653257215824 4:1 6:1 15:1 19:1 39:1 40:1 50:1 63:1 67:1 73:1 74:1 76:1 80:1 83:1 #
-0.072161653257215824 4:1 6:1 14:1 25:1 38:1 40:1 49:1 63:1 67:1 73:1 74:1 76:1 81:1 83:1 #
-0.072161653257215824 2:1 6:1 14:1 19:1 39:1 40:1 47:1 63:1 67:1 73:1 74:1 76:1 78:1 83:1 #
-0.072161653257215824 2:1 6:1 14:1 20:1 37:1 40:1 55:1 63:1 67:1 73:1 74:1 76:1 82:1 83:1 #
-0.072161653257215824 3:1 6:1 16:1 19:1 39:1 40:1 52:1 63:1 71:1 73:1 74:1 76:1 82:1 #
0.072161653257215824 4:1 6:1 18:1 20:1 37:1 40:1 52:1 63:1 67:1 73:1 75:1 76:1 80:1 83:1 #
0.072161653257215824 2:1 6:1 17:1 19:1 39:1 40:1 51:1 63:1 67:1 73:1 74:1 76:1 80:1 83:1 #
0.072161653257215824 4:1 6:1 17:1 22:1 36:1 40:1 48:1 63:1 67:1 73:1 74:1 76:1 82:1 83:1 #
-0.072161653257215824 5:1 6:1 15:1 22:1 36:1 40:1 50:1 63:1 67:1 73:1 74:1 76:1 80:1 83:1 #
-0.072161653257215824 5:1 7:1 16:1 22:1 36:1 40:1 48:1 63:1 67:1 73:1 75:1 76:1 78:1 83:1 #
-0.072161653257215824 2:1 6:1 14:1 22:1 36:1 40:1 51:1 63:1 67:1 73:1 74:1 76:1 82:1 83:1 #
-0.072161653257215824 2:1 8:1 15:1 22:1 36:1 40:1 50:1 63:1 67:1 73:1 74:1 76:1 82:1 83:1 #
-0.072161653257215824 5:1 6:1 16:1 22:1 36:1 40:1 54:1 63:1 67:1 73:1 74:1 76:1 82:1 83:1 #
0.072161653257215824 5:1 6:1 16:1 25:1 38:1 40:1 48:1 63:1 67:1 73:1 74:1 76:1 80:1 83:1 #
0.072161653257215824 2:1 6:1 17:1 23:1 39:1 40:1 52:1 63:1 67:1 73:1 74:1 76:1 78:1 83:1 #
0.072161653257215824 3:1 6:1 14:1 24:1 38:1 40:1 51:1 63:1 67:1 73:1 74:1 76:1 80:1 83:1 #
0.072161653257215824 5:1 6:1 17:1 25:1 38:1 40:1 51:1 63:1 67:1 73:1 74:1 76:1 80:1 88:1 #
0.072161653257215824 5:1 6:1 14:1 29:1 39:1 40:1 52:1 63:1 68:1 73:1 74:1 76:1 81:1 90:1 #
-0.072161653257215824 2:1 6:1 17:1 29:1 39:1 42:1 51:1 62:1 67:1 73:1 74:1 76:1 79:1 83:1 #
-0.072161653257215824 3:1 6:1 17:1 22:1 36:1 40:1 53:1 63:1 67:1 73:1 74:1 76:1 80:1 83:1 #
-0.072161653257215824 4:1 6:1 17:1 22:1 36:1 40:1 48:1 63:1 70:1 73:1 74:1 76:1 80:1 83:1 #
-0.072161653257215824 4:1 6:1 15:1 24:1 38:1 43:1 51:1 64:1 67:1 73:1 74:1 76:1 80:1 83:1 #
-0.072161653257215824 5:1 6:1 15:1 22:1 36:1 40:1 59:1 63:1 67:1 73:1 74:1 76:1 80:1 83:1 #
0.072161653257215824 4:1 6:1 15:1 22:1 36:1 40:1 50:1 63:1 67:1 73:1 74:1 76:1 82:1 83:1 #
0.072161653257215824 4:1 6:1 16:1 22:1 36:1 40:1 50:1 63:1 67:1 73:1 74:1 76:1 82:1 83:1 #
0.072161653257215824 5:1 8:1 15:1 24:1 38:1 40:1 50:1 63:1 67:1 73:1 74:1 76:1 82:1 83:1 #
0.072161653257215824 4:1 6:1 16:1 22:1 36:1 40:1 55:1 63:1 67:1 73:1 74:1 76:1 82:1 83:1 #
0.072161653257215824 3:1 6:1 15:1 19:1 39:1 40:1 50:1 63:1 67:1 73:1 74:1 76:1 82:1 83:1 #
-0.072161653257215824 3:1 6:1 15:1 22:1 36:1 40:1 50:1 63:1 67:1 73:1 74:1 76:1 82:1 83:1 #
-0.072161653257215824 3:1 6:1 18:1 22:1 36:1 40:1 50:1 63:1 67:1 73:1 74:1 76:1 82:1 83:1 #
-0.072161653257215824 4:1 6:1 17:1 22:1 36:1 40:1 57:1 63:1 67:1 73:1 74:1 76:1 82:1 83:1 #
0.072161653257215824 3:1 6:1 15:1 19:1 39:1 40:1 50:1 63:1 67:1 73:1 74:1 76:1 82:1 83:1 #
-0.072161653257215824 1:1 6:1 17:1 20:1 37:1 42:1 51:1 64:1 67:1 72:1 75:1 76:1 80:1 83:1 #
-0.072161653257215824 5:1 9:1 14:1 19:1 39:1 45:1 51:1 64:1 67:1 72:1 74:1 76:1 80:1 83:1 #
-0.072161653257215824 4:1 6:1 14:1 22:1 36:1 40:1 57:1 63:1 67:1 73:1 74:1 76:1 82:1 83:1 #
-0.072161653257215824 4:1 6:1 16:1 22:1 36:1 40:1 48:1 63:1 67:1 73:1 74:1 76:1 80:1 83:1 #
0.072161653257215824 4:1 6:1 17:1 22:1 36:1 40:1 47:1 63:1 67:1 73:1 74:1 76:1 81:1 83:1 #
0.072161653257215824 4:1 6:1 17:1 22:1 36:1 40:1 53:1 63:1 67:1 73:1 74:1 76:1 82:1 83:1 #
0.072161653257215824 3:1 6:1 17:1 22:1 36:1 40:1 51:1 63:1 67:1 73:1 74:1 76:1 80:1 83:1 #
0.072161653257215824 4:1 6:1 14:1 22:1 36:1 40:1 48:1 63:1 67:1 73:1 74:1 77:1 80:1 83:1 #
-0.072161653257215824 5:1 6:1 17:1 22:1 36:1 40:1 49:1 63:1 67:1 73:1 74:1 76:1 80:1 83:1 #
-0.072161653257215824 5:1 15:1 22:1 36:1 40:1 63:1 67:1 73:1 74:1 76:1 82:1 83:1 #
-0.016291795169861217 2:1 6:1 17:1 20:1 37:1 40:1 54:1 63:1 67:1 73:1 74:1 76:1 80:1 83:1 #
0.072161653257215824 5:1 7:1 16:1 23:1 39:1 40:1 52:1 63:1 67:1 73:1 74:1 76:1 78:1 83:1 #
0.072161653257215824 5:1 10:1 15:1 22:1 36:1 40:1 55:1 61:1 67:1 72:1 75:1 76:1 78:1 83:1 #
-0.072161653257215824 3:1 6:1 16:1 24:1 38:1 40:1 59:1 63:1 71:1 73:1 74:1 76:1 82:1 83:1 #
0.072161653257215824 4:1 6:1 17:1 22:1 36:1 40:1 50:1 63:1 67:1 73:1 74:1 76:1 82:1 83:1 #
0.072161653257215824 3:1 6:1 17:1 22:1 36:1 40:1 51:1 63:1 67:1 73:1 74:1 76:1 81:1 83:1 #
-0.072161653257215824 3:1 11:1 17:1 29:1 39:1 40:1 52:1 63:1 68:1 73:1 74:1 76:1 78:1 90:1 #
-0.072161653257215824 3:1 10:1 17:1 29:1 39:1 44:1 52:1 64:1 67:1 72:1 74:1 76:1 80:1 83:1 #
-0.072161653257215824 4:1 6:1 14:1 22:1 36:1 40:1 55:1 63:1 67:1 73:1 74:1 76:1 78:1 83:1 #
-0.072161653257215824 1:1 6:1 14:1 19:1 39:1 40:1 55:1 62:1 69:1 72:1 75:1 76:1 78:1 83:1 #
-0.072161653257215824 3:1 7:1 17:1 22:1 36:1 40:1 56:1 63:1 67:1 73:1 74:1 76:1 81:1 83:1 #
0.072161653257215824 4:1 6:1 15:1 29:1 39:1 40:1 47:1 63:1 67:1 73:1 74:1 76:1 78:1 83:1 #
-0.072161653257215824 3:1 6:1 15:1 25:1 38:1 40:1 48:1 63:1 67:1 73:1 74:1 76:1 80:1 83:1 #
-0.072161653257215824 4:1 9:1 17:1 25:1 38:1 41:1 47:1 64:1 67:1 73:1 74:1 76:1 80:1 83:1 #
-0.072161653257215824 2:1 6:1 15:1 22:1 36:1 40:1 50:1 63:1 67:1 73:1 74:1 76:1 81:1 83:1 #
-0.072161653257215824 3:1 8:1 15:1 22:1 36:1 40:1 57:1 63:1 67:1 73:1 74:1 76:1 82:1 83:1 #
0.072161653257215824 4:1 6:1 18:1 29:1 39:1 40:1 52:1 63:1 67:1 73:1 74:1 76:1 81:1 83:1 #
-0.072161653257215824 2:1 6:1 17:1 22:1 36:1 40:1 55:1 63:1 67:1 73:1 74:1 76:1 79:1 83:1 #
-0.072161653257215824 3:1 6:1 18:1 23:1 39:1 42:1 52:1 64:1 67:1 73:1 74:1 76:1 82:1 83:1 #
-0.072161653257215824 5:1 7:1 16:1 29:1 39:1 40:1 48:1 63:1 67:1 73:1 74:1 76:1 78:1 83:1 #
-0.072161653257215824 5:1 6:1 15:1 33:1 35:1 40:1 53:1 63:1 67:1 73:1 74:1 76:1 82:1 #
-0.072161653257215824 2:1 7:1 15:1 20:1 37:1 40:1 50:1 63:1 67:1 73:1 74:1 76:1 82:1 83:1 #
-0.072161653257215824 4:1 6:1 15:1 31:1 35:1 40:1 57:1 63:1 67:1 73:1 74:1 76:1 82:1 83:1 #
-0.072161653257215824 3:1 6:1 18:1 22:1 36:1 41:1 51:1 66:1 67:1 72:1 74:1 77:1 82:1 83:1 #
0.072161653257215824 3:1 6:1 17:1 19:1 39:1 40:1 47:1 63:1 67:1 73:1 74:1 76:1 82:1 83:1 #
0.072161653257215824 4:1 10:1 16:1 19:1 39:1 40:1 48:1 63:1 67:1 73:1 74:1 76:1 79:1 83:1 #
0.072161653257215824 5:1 11:1 17:1 32:1 39:1 40:1 52:1 63:1 67:1 73:1 74:1 76:1 80:1 83:1 #
0.072161653257215824 4:1 6:1 14:1 19:1 39:1 40:1 48:1 63:1 67:1 73:1 74:1 76:1 81:1 83:1 #
-0.072161653257215824 3:1 6:1 15:1 19:1 39:1 44:1 51:1 66:1 67:1 72:1 74:1 76:1 80:1 83:1 #
-0.072161653257215824 3:1 10:1 17:1 19:1 39:1 42:1 52:1 64:1 67:1 72:1 74:1 76:1 80:1 83:1 #
0.072161653257215824 4:1 6:1 15:1 25:1 38:1 40:1 55:1 61:1 67:1 72:1 74:1 76:1 80:1 83:1 #
0.072161653257215824 5:1 9:1 15:1 20:1 37:1 40:1 55:1 63:1 67:1 73:1 75:1 76:1 80:1 83:1 #
-0.072161653257215824 5:1 6:1 15:1 22:1 36:1 40:1 48:1 63:1 67:1 73:1 74:1 76:1 80:1 83:1 #
0.072161653257215824 3:1 6:1 16:1 29:1 39:1 40:1 50:1 63:1 67:1 73:1 74:1 76:1 82:1 83:1 #
-0.020497475254162505 1:1 6:1 14:1 25:1 38:1 40:1 57:1 63:1 67:1 73:1 74:1 76:1 80:1 83:1 #
-0.072161653257215824 4:1 10:1 15:1 29:1 39:1 41:1 52:1 64:1 69:1 73:1 74:1 76:1 80:1 83:1 #
-0.042589715745778675 4:1 11:1 17:1 19:1 39:1 41:1 55:1 64:1 67:1 73:1 74:1 76:1 80:1 83:1 #
-0.027053577537807297 3:1 6:1 15:1 21:1 35:1 40:1 48:1 63:1 67:1 73:1 74:1 76:1 82:1 83:1 #
-0.072161653257215824 3:1 6:1 16:1 19:1 39:1 44:1 52:1 66:1 67:1 72:1 74:1 76:1 81:1 83:1 #
-0.072161653257215824 4:1 6:1 14:1 20:1 37:1 40:1 48:1 63:1 67:1 73:1 74:1 76:1 80:1 83:1 #
-0.072161653257215824 2:1 6:1 14:1 22:1 36:1 40:1 52:1 63:1 67:1 73:1 74:1 76:1 82:1 83:1 #
-0.066195681668073547 5:1 7:1 18:1 31:1 35:1 40:1 50:1 63:1 67:1 73:1 74:1 76:1 79:1 83:1 #
-0.072161653257215824 1:1 6:1 16:1 31:1 35:1 40:1 49:1 63:1 67:1 73:1 75:1 76:1 80:1 83:1 #
-0.072161653257215824 3:1 7:1 18:1 22:1 36:1 40:1 50:1 63:1 67:1 73:1 74:1 76:1 82:1 83:1 #
0.072161653257215824 5:1 6:1 14:1 29:1 39:1 40:1 52:1 63:1 67:1 73:1 74:1 76:1 79:1 87:1 #
0.072161653257215824 4:1 6:1 14:1 25:1 38:1 40:1 50:1 63:1 67:1 73:1 74:1 77:1 82:1 83:1 #
-0.072161653257215824 3:1 6:1 16:1 19:1 39:1 42:1 50:1 64:1 67:1 72:1 74:1 77:1 80:1 83:1 #
-0.0053777505754202537 5:1 6:1 17:1 22:1 36:1 41:1 51:1 66:1 67:1 72:1 74:1 76:1 79:1 83:1 #
0.072161653257215824 5:1 6:1 18:1 19:1 39:1 40:1 51:1 63:1 67:1 73:1 74:1 76:1 80:1 83:1 #
0.072161653257215824 5:1 7:1 15:1 23:1 39:1 40:1 52:1 63:1 67:1 73:1 74:1 76:1 82:1 83:1 #
-0.072161653257215824 3:1 6:1 14:1 20:1 37:1 40:1 48:1 63:1 67:1 73:1 74:1 76:1 82:1 83:1 #
0.072161653257215824 4:1 6:1 15:1 20:1 37:1 40:1 50:1 63:1 67:1 73:1 75:1 76:1 80:1 83:1 #
-0.072161653257215824 4:1 6:1 18:1 22:1 36:1 41:1 50:1 66:1 71:1 73:1 75:1 76:1 80:1 83:1 #
0.072161653257215824 5:1 6:1 14:1 19:1 39:1 40:1 50:1 63:1 67:1 73:1 75:1 76:1 78:1 83:1 #
-0.072161653257215824 2:1 6:1 16:1 24:1 38:1 40:1 55:1 63:1 67:1 73:1 74:1 76:1 80:1 99:1 #
-0.072161653257215824 3:1 6:1 15:1 22:1 36:1 40:1 54:1 63:1 67:1 73:1 74:1 76:1 80:1 83:1 #
0.072161653257215824 4:1 10:1 17:1 29:1 39:1 40:1 55:1 63:1 67:1 73:1 74:1 76:1 80:1 99:1 #
-0.072161653257215824 4:1 11:1 16:1 29:1 39:1 42:1 52:1 62:1 67:1 72:1 74:1 76:1 79:1 83:1 #
0.072161653257215824 3:1 6:1 16:1 29:1 39:1 40:1 52:1 63:1 67:1 73:1 74:1 77:1 80:1 83:1 #
-0.072161653257215824 3:1 6:1 15:1 22:1 36:1 40:1 54:1 63:1 67:1 73:1 74:1 76:1 80:1 83:1 #
-0.072161653257215824 2:1 6:1 17:1 25:1 38:1 40:1 54:1 63:1 69:1 73:1 74:1 76:1 80:1 83:1 #
-0.072161653257215824 5:1 6:1 17:1 29:1 39:1 41:1 52:1 64:1 67:1 73:1 74:1 76:1 78:1 83:1 #
-0.049177409617341378 2:1 6:1 15:1 22:1 36:1 40:1 54:1 61:1 67:1 72:1 74:1 76:1 80:1 83:1 #
-0.072161653257215824 3:1 6:1 15:1 20:1 37:1 40:1 48:1 63:1 67:1 73:1 74:1 76:1 80:1 83:1 #
-0.034259529531214722 4:1 6:1 18:1 27:1 35:1 40:1 54:1 63:1 67:1 73:1 74:1 76:1 80:1 83:1 #
-0.019756905722983081 2:1 7:1 17:1 19:1 39:1 42:1 47:1 64:1 67:1 73:1 74:1 76:1 81:1 83:1 #
