SVM-light Version V6.02
0 # kernel type
3 # kernel parameter -d 
1 # kernel parameter -g 
1 # kernel parameter -s 
1 # kernel parameter -r 
empty# kernel parameter -u 
10 # highest feature index 
683 # number of training documents 
67 # number of support vectors plus 1 
-1.8235376 # threshold b, each following line is a SV (starting with alpha*y)
-0.14779157289564496 1:-0.821495 2:-0.111111 3:-0.555556 4:0.111111 5:-1 6:-0.77777803 7:-1 8:-1 9:-1 10:-1 #
0.14779157289564496 1:-0.84391397 2:-0.111111 3:-0.555556 4:-0.555556 5:-0.33333299 6:-0.77777803 7:-0.33333299 8:-0.555556 9:-0.33333299 10:-1 #
-0.14779157289564496 1:-0.81628501 2:0.111111 3:0.77777803 4:0.33333299 5:-0.111111 6:-0.111111 7:0.555556 8:-0.33333299 9:-0.77777803 10:-1 #
0.14779157289564496 1:-0.82635498 2:-0.33333299 3:-1 4:-1 5:-0.555556 6:-1 7:-0.111111 8:-0.77777803 9:-1 10:-1 #
-0.14779157289564496 1:-0.82824302 2:0.555556 3:-0.33333299 4:-0.33333299 5:-0.111111 6:-0.33333299 7:0.33333299 8:0.33333299 9:0.555556 10:-0.77777803 #
0.14779157289564496 1:-0.844791 2:-0.111111 3:0.111111 4:-0.111111 5:0.111111 6:1 7:-1 8:-0.555556 9:-1 10:-1 #
-0.14779157289564496 1:-0.916089 2:0.555556 3:-0.77777803 4:-1 5:-1 6:-0.111111 7:-1 8:-1 9:-1 10:-1 #
0.099372411007121908 1:-0.96157098 2:-0.555556 3:-0.555556 4:-0.111111 5:-0.77777803 6:-0.555556 7:1 8:0.33333299 9:-1 10:-1 #
-0.14779157289564496 1:-0.85756898 2:0.111111 3:-0.555556 4:-0.555556 5:-0.111111 6:-0.555556 7:1 8:-0.555556 9:-0.111111 10:-0.555556 #
0.14779157289564496 1:-0.88516903 2:-0.555556 3:-0.33333299 4:-0.33333299 5:1 6:-0.111111 7:-1 8:-0.555556 9:-0.555556 10:-1 #
-0.14779157289564496 1:-0.82550502 2:0.555556 3:-0.33333299 4:0.111111 5:-0.555556 6:-0.555556 7:-1 8:-0.33333299 9:-0.555556 10:-1 #
0.14779157289564496 1:-0.84122998 2:1 3:0.111111 4:-0.33333299 5:-1 6:-0.555556 7:-0.33333299 8:-0.555556 9:-0.77777803 10:-0.555556 #
-0.14779157289564496 1:-0.859671 2:-0.111111 3:-0.33333299 4:-0.33333299 5:-0.111111 6:0.33333299 7:1 8:-0.555556 9:-0.77777803 10:-1 #
0.14779157289564496 1:-0.84392601 2:0.77777803 3:-0.111111 4:0.555556 5:-1 6:-0.77777803 7:-0.555556 8:-0.77777803 9:-1 10:-0.111111 #
-0.14779157289564496 1:-0.85768002 2:0.111111 3:0.555556 4:0.555556 5:-1 6:-0.555556 7:-0.33333299 8:-0.555556 9:0.33333299 10:-1 #
-0.14779157289564496 1:-0.83211398 2:-0.555556 3:-1 4:-1 5:-0.555556 6:0.555556 7:-1 8:-0.111111 9:0.555556 10:-1 #
-0.14779157289564496 1:-0.917427 2:-0.111111 3:-0.555556 4:-0.33333299 5:-0.555556 6:-0.33333299 7:-0.111111 8:-0.33333299 9:0.33333299 10:-1 #
-0.14779157289564496 1:-0.81024498 2:-0.111111 3:-0.33333299 4:-0.111111 5:-1 6:0.555556 7:-1 8:-0.555556 9:0.111111 10:-1 #
0.14779157289564496 1:-0.83239001 2:-0.555556 3:-0.33333299 4:-0.111111 5:-0.77777803 6:0.111111 7:0.555556 8:-0.33333299 9:-1 10:-1 #
0.14779157289564496 1:-0.82981998 2:-0.111111 3:-0.555556 4:-0.555556 5:-0.555556 6:0.111111 7:1 8:-0.555556 9:-1 10:-1 #
0.14779157289564496 1:-0.843162 2:-0.111111 3:-0.77777803 4:-0.555556 5:-1 6:0.111111 7:1 8:-0.111111 9:-1 10:-1 #
0.14779157289564496 1:-0.96157098 2:-0.555556 3:-0.555556 4:-0.111111 5:-0.77777803 6:-0.555556 7:1 8:0.33333299 9:-1 10:-1 #
-0.14779157289564496 1:-0.85740799 2:-1 3:-1 4:-1 5:-1 6:-0.77777803 7:1 8:-0.555556 9:-1 10:-1 #
0.14779157289564496 1:-0.83796501 2:-0.555556 3:-0.555556 4:0.111111 5:-0.33333299 6:-0.111111 7:0.555556 8:-0.33333299 9:-0.33333299 10:-1 #
-0.14779157289564496 1:-0.97317702 2:-0.111111 3:0.33333299 4:0.33333299 5:-1 6:-0.111111 7:0.555556 8:-0.555556 9:-0.33333299 10:-1 #
0.14779157289564496 1:-0.84276599 2:0.111111 3:-0.555556 4:-0.33333299 5:-1 6:-0.111111 7:-0.77777803 8:-0.555556 9:0.77777803 10:-1 #
-0.14779157289564496 1:-0.90170902 2:-0.33333299 3:-0.33333299 4:-0.33333299 5:-0.33333299 6:0.111111 7:-0.111111 8:0.33333299 9:-0.555556 10:-1 #
0.14779157289564496 1:-0.83510298 2:-0.77777803 3:-0.555556 4:-0.33333299 5:-0.33333299 6:-0.77777803 7:-0.111111 8:-0.77777803 9:-0.111111 10:-1 #
-0.14779157289564496 1:-0.83681703 2:-0.111111 3:-1 4:-0.77777803 5:1 6:-0.33333299 7:-0.111111 8:-0.77777803 9:-1 10:-1 #
0.14779157289564496 1:-0.84754503 2:0.111111 3:-0.555556 4:-0.77777803 5:-1 6:-0.555556 7:-0.33333299 8:-0.33333299 9:-1 10:-1 #
0.14779157289564496 1:-0.84870797 2:-0.555556 3:0.111111 4:-0.33333299 5:1 6:-0.555556 7:-0.555556 8:-0.555556 9:-0.33333299 10:-1 #
-0.14779157289564496 1:-0.84571999 2:0.111111 3:-0.555556 4:-0.555556 5:-0.555556 6:-0.555556 7:-0.77777803 8:0.111111 9:-1 10:-1 #
-0.14779157289564496 1:-0.88298702 2:-0.555556 3:-0.33333299 4:-0.111111 5:-0.555556 6:0.33333299 7:-0.555556 8:-0.33333299 9:0.111111 10:-1 #
0.14779157289564496 1:-0.94540697 2:0.33333299 3:-0.77777803 4:-0.33333299 5:-1 6:-0.555556 7:-0.33333299 8:-0.555556 9:-0.555556 10:-1 #
-0.14779157289564496 1:-0.814358 2:-0.33333299 3:-0.33333299 4:-0.77777803 5:-1 6:-0.77777803 7:-0.111111 8:-0.77777803 9:-1 10:-0.77777803 #
0.14779157289564496 1:-0.85386801 2:-0.111111 3:-0.555556 4:-0.555556 5:-0.555556 6:-0.77777803 7:-0.555556 8:-0.33333299 9:-0.33333299 10:-1 #
0.14779157289564496 1:-0.881145 2:-0.111111 3:-0.555556 4:-0.555556 5:-1 6:-0.555556 7:-0.555556 8:-0.555556 9:-0.555556 10:-0.555556 #
-0.14779157289564496 1:-0.90885502 2:-0.555556 3:-1 4:-1 5:-1 6:-0.77777803 7:-0.111111 8:-0.111111 9:-1 10:-1 #
0.14779157289564496 1:-0.84648103 2:-0.77777803 3:-0.111111 4:-0.555556 5:-0.555556 6:0.111111 7:0.33333299 8:0.33333299 9:-0.111111 10:-1 #
0.14779157289564496 1:-0.845249 2:1 3:-0.33333299 4:-0.555556 5:-1 6:-0.555556 7:-0.555556 8:0.111111 9:-0.111111 10:-0.77777803 #
0.14779157289564496 1:-0.834966 2:0.555556 3:-0.77777803 4:-0.555556 5:-1 6:0.111111 7:-0.555556 8:0.33333299 9:-1 10:-1 #
-0.14779157289564496 1:-0.83286798 2:-0.111111 3:-1 4:-0.33333299 5:-1 6:-0.77777803 7:-1 8:-0.555556 9:-0.77777803 10:-1 #
0.14779157289564496 1:-0.83486301 2:0.33333299 3:-0.555556 4:-0.33333299 5:-0.33333299 6:-0.555556 7:-0.555556 8:-0.555556 9:-0.77777803 10:0.33333299 #
-0.14779157289564496 1:-0.82438099 2:-0.555556 3:-0.555556 4:-0.77777803 5:0.111111 6:-0.555556 7:-0.555556 8:-0.555556 9:-0.111111 10:-1 #
-0.14779157289564496 1:-0.83422101 2:0.555556 3:-0.555556 4:-0.555556 5:-1 6:-0.77777803 7:-0.77777803 8:-0.555556 9:-0.77777803 10:-1 #
-0.14779157289564496 1:-0.81321597 2:-0.33333299 3:-0.555556 4:-1 5:-1 6:-0.77777803 7:-1 8:-0.33333299 9:0.555556 10:-1 #
0.045759399541202339 1:-0.81616199 2:-0.33333299 3:1 4:0.555556 5:-0.111111 6:-0.33333299 7:-1 8:1 9:-1 10:-1 #
0.14779157289564496 1:-0.823286 2:1 3:-0.77777803 4:-0.77777803 5:-1 6:-0.77777803 7:0.111111 8:-1 9:-1 10:-0.77777803 #
0.14779157289564496 1:-0.85029501 2:-0.111111 3:-0.77777803 4:-0.555556 5:-0.33333299 6:-0.77777803 7:0.33333299 8:-0.555556 9:0.111111 10:-1 #
0.14779157289564496 1:-0.84322798 2:0.555556 3:-0.77777803 4:-0.33333299 5:-1 6:-0.111111 7:-1 8:-0.111111 9:-0.33333299 10:-0.33333299 #
0.14779157289564496 1:-0.852997 2:0.33333299 3:-0.33333299 4:0.111111 5:-0.33333299 6:0.111111 7:-1 8:-0.33333299 9:-0.555556 10:-1 #
-0.14779157289564496 1:-0.82421601 2:-0.111111 3:-0.77777803 4:-0.77777803 5:-0.77777803 6:-0.77777803 7:-0.77777803 8:-0.555556 9:-0.77777803 10:-0.77777803 #
0.14779157289564496 1:-0.92828298 2:0.111111 3:-1 4:-0.555556 5:-1 6:-0.33333299 7:-0.111111 8:-0.111111 9:1 10:-1 #
0.14779157289564496 1:-0.842893 2:-0.111111 3:-0.555556 4:-0.111111 5:-0.111111 6:-0.555556 7:-0.555556 8:-0.33333299 9:1 10:-1 #
-0.14779157289564496 1:-0.81971401 2:-0.111111 3:-1 4:-0.555556 5:-0.555556 6:-0.77777803 7:-0.77777803 8:-0.77777803 9:-0.555556 10:-1 #
0.14779157289564496 1:-0.843099 2:0.77777803 3:-0.111111 4:-0.111111 5:-0.77777803 6:-0.77777803 7:-0.77777803 8:-0.111111 9:-1 10:-1 #
-0.14779157289564496 1:-0.90701199 2:-0.111111 3:-0.555556 4:-0.33333299 5:-1 6:-0.33333299 7:-1 8:-0.555556 9:-1 10:-1 #
-0.14779157289564496 1:-0.90821701 2:-0.111111 3:-0.77777803 4:-0.77777803 5:-0.33333299 6:-0.77777803 7:-0.33333299 8:-1 9:-1 10:-1 #
-0.14779157289564496 1:-0.87676102 2:-0.33333299 3:-0.33333299 4:-0.33333299 5:-0.77777803 6:-0.77777803 7:-0.555556 8:-0.77777803 9:-1 10:-1 #
-0.14779157289564496 1:-0.84789503 2:0.111111 3:-0.77777803 4:-1 5:-1 6:-1 7:-1 8:0.33333299 9:-1 10:-1 #
-0.072537436905697916 1:-0.81891799 2:-0.33333299 3:-0.77777803 4:-0.33333299 5:-0.555556 6:-0.77777803 7:-0.77777803 8:-0.77777803 9:-1 10:-1 #
0.11387747637864321 1:-0.80778903 2:-0.111111 3:0.33333299 4:-0.33333299 5:-1 6:0.111111 7:-1 8:0.33333299 9:1 10:-0.555556 #
-0.14779157289564496 1:-0.84299999 2:-0.111111 3:-0.555556 4:-0.555556 5:-0.77777803 6:-0.555556 7:-1 8:-0.555556 9:-1 10:-1 #
-0.034975132546968268 1:-0.84149402 2:-1 3:-0.555556 4:-0.555556 5:-0.77777803 6:-0.77777803 7:-1 8:0.33333299 9:-0.77777803 10:-1 #
0.0058016261873428121 1:-0.90616798 2:0.555556 3:0.111111 4:-0.33333299 5:1 6:1 7:-1 8:-0.555556 9:-0.111111 10:-1 #
-0.0095034168422092336 1:-0.83814901 2:-0.555556 3:-1 4:-1 5:-1 6:-0.77777803 7:-0.77777803 8:0.33333299 9:-1 10:-1 #
