SVM-light Version V6.02
0 # kernel type
3 # kernel parameter -d 
1 # kernel parameter -g 
1 # kernel parameter -s 
1 # kernel parameter -r 
empty# kernel parameter -u 
2000 # highest feature index 
62 # number of training documents 
42 # number of support vectors plus 1 
0.32798464 # threshold b, each following line is a SV (starting with alpha*y)
-0.00051772353869326078 1:2.08075 2:1.09907 3:0.92776299 4:1.02908 5:-0.13076299 6:1.26546 7:-0.436286 8:0.728881 9:2.10798 10:1.35987 11:0.26547101 12:-0.32443601 13:-1.20093 14:-1.53192 15:0.298026 16:0.088340998 17:0.64463103 18:-0.65094399 19:-0.89100301 20:-0.185717 21:1.39599 22:-0.83214599 23:2.1155 24:1.3474 25:0.31967101 26:0.20610601 27:-0.37717301 28:-1.60761 29:0.85666102 30:-0.20819201 31:-0.227354 32:0.45531201 33:0.70082802 34:1.46082 35:-0.127914 36:1.68689 37:-1.40037 38:1.30627 39:0.64042002 40:0.64042002 41:0.64042002 42:0.64042002 43:0.58476102 44:0.77771997 45:0.94600999 46:1.44866 47:-0.016243 48:-0.51663601 49:0.150824 50:1.57294 51:1.57294 52:1.57294 53:1.57294 54:-0.63118201 55:0.25279501 56:-0.35598201 57:-1.89755 58:-0.43364501 59:1.99465 60:-0.018567 61:0.061276 62:-0.604689 63:0.90591002 64:-0.78236502 65:0.96435601 66:0.01698 67:0.116946 68:-0.73318201 69:-0.46831501 70:-0.36130199 71:1.59121 72:-0.73416102 73:0.65222102 74:0.40610799 75:1.46226 76:-0.48716399 77:-0.457068 78:-0.158002 79:-0.35613799 80:-0.68051398 81:0.747648 82:-1.66269 83:-0.92509401 84:-2.2913001 85:-0.16572 86:0.46416301 87:0.87577897 88:-0.91866702 89:0.095850997 90:0.249863 91:-0.80743998 92:-0.192479 93:-0.80023003 94:0.88114297 95:-1.22462 96:1.5095299 97:-0.816266 98:1.09961 99:-1.70486 100:0.26493499 101:0.63007998 102:0.97575301 103:-1.6294301 104:0.36061001 105:0.19811399 106:1.30331 107:0.132783 108:1.36716 109:-1.01652 110:1.22387 111:0.195088 112:1.04962 113:-1.2502199 114:-1.1507601 115:-0.84313101 116:-2.08373 117:-1.4433 118:-1.92621 119:0.33037299 120:-0.24592499 121:0.92053002 122:0.82973301 123:0.86144799 124:-1.53072 125:1.99046 126:1.36645 127:-0.349639 128:-1.37433 129:0.45682201 130:-1.15804 131:1.52663 132:-0.93946701 133:1.60393 134:0.42764899 135:-0.170587 136:-0.82943499 137:1.30251 138:-1.25131 139:0.55146301 140:0.94701302 141:-1.31821 142:-1.37335 143:-0.052391 144:-0.51558697 145:-0.73727298 146:0.12695 147:0.175478 148:0.87075901 149:1.48112 150:0.78927398 151:-0.27540401 152:-0.428758 153:0.70957202 154:-1.3176 155:-1.35588 156:0.88266802 157:-0.058931001 158:-0.190034 159:-1.05654 160:0.115942 161:1.31779 162:1.8367 163:-0.49930301 164:-1.7922 165:-0.46831101 166:-0.46801001 167:0.77135199 168:-0.081605002 169:-0.29604599 170:-2.1208501 171:-1.8280801 172:-0.022389 173:-1.40982 174:-0.82159901 175:1.1607701 176:-1.51657 177:-0.36449799 178:0.64435202 179:0.73523301 180:-0.98204398 181:0.40552199 182:0.71046603 183:0.43970299 184:-0.60374999 185:1.0422699 186:-1.42882 187:-0.24448299 188:0.14712 189:-1.15475 190:-0.35085899 191:-0.97384799 192:0.35227999 193:-0.711555 194:-0.92989999 195:-1.69679 196:0.80367798 197:1.08044 198:0.93725097 199:-0.497069 200:-0.338779 201:-0.13090201 202:-1.3123699 203:-1.70268 204:0.951262 205:1.53527 206:1.40676 207:-0.29087701 208:-0.18068001 209:-0.134949 210:0.74565297 211:-1.03045 212:-0.88808602 213:-0.25549501 214:0.121151 215:0.37552801 216:0.058506001 217:-1.49019 218:1.42219 219:1.26091 220:0.51182801 221:0.72826803 222:0.331947 223:-0.394187 224:-1.1269799 225:1.54614 226:0.117443 227:-0.88034898 228:0.033764001 229:0.118997 230:-0.72306001 231:-0.32694799 232:-0.116745 233:-0.027446 234:-1.37588 235:1.33132 236:-2.05792 237:-0.37292701 238:-0.66443902 239:0.36077201 240:-0.186166 241:-1.0224 242:1.53781 243:-1.72392 244:-1.15367 245:0.053861 246:-1.1417201 247:-0.084619001 248:-0.76958197 249:-0.084774002 250:-0.23842099 251:-0.24925999 252:-1.44888 253:2.20064 254:-1.08452 255:1.32555 256:0.234687 257:-0.91460198 258:0.61276102 259:0.19633301 260:1.4553699 261:1.4553699 262:1.4553699 263:1.4553699 264:-1.9927 265:-0.70103502 266:-1.4842499 267:0.00068900001 268:-0.94647902 269:-0.52986097 270:1.72063 271:0.195907 272:0.124886 273:1.94838 274:0.85144299 275:-0.130597 276:-0.50802201 277:-1.9722 278:0.93214798 279:0.80471098 280:-0.945373 281:1.89978 282:-0.553348 283:-1.3662699 284:0.55508798 285:-0.59350699 286:-0.40860999 287:0.89161599 288:-0.52440298 289:0.882061 290:-1.02066 291:-0.16672 292:-0.63481301 293:0.63411701 294:0.69534898 295:0.86477703 296:-0.82666999 297:0.210931 298:-0.29736099 299:-1.30108 300:1.04735 301:-0.087746002 302:-1.11833 303:-0.209142 304:-0.52112901 305:0.062656999 306:0.51857501 307:2.01596 308:-1.53192 309:0.071993999 310:-1.2508 311:2.13182 312:1.046 313:-0.46554399 314:0.35415599 315:-0.97386098 316:0.74131602 317:-1.5341901 318:0.69774997 319:-1.19546 320:1.52244 321:0.53643698 322:0.65161401 323:-0.167073 324:-0.20072401 325:-0.68147898 326:-0.61237401 327:-1.058 328:0.83355403 329:0.94350201 330:1.01774 331:1.2089601 332:1.22549 333:0.81389701 334:-2.3821599 335:-1.32882 336:0.361981 337:0.43917799 338:1.29412 339:-0.44721901 340:0.59533101 341:1.07242 342:-0.998963 343:1.3287899 344:0.66930801 345:1.2412699 346:0.91051698 347:0.85880703 348:0.140146 349:1.2262501 350:-0.78978801 351:-0.238948 352:0.76508498 353:1.34455 354:-0.78662401 355:0.714665 356:0.99685699 357:0.47468299 358:0.882357 359:-1.18033 360:0.77411097 361:0.065762997 362:0.82170701 363:-0.47863099 364:-1.45575 365:0.70523 366:0.60237902 367:1.2357301 368:-1.83833 369:-1.22236 370:0.98068601 371:1.29637 372:-0.663656 373:0.89275903 374:0.40820199 375:-1.0183001 376:1.00214 377:0.39632899 378:0.89595097 379:-0.66396201 380:0.54723001 381:-2.9064901 382:1.10593 383:1.22475 384:0.82302302 385:0.089304 386:0.40685001 387:0.78430402 388:0.435601 389:-0.323048 390:0.49434799 391:0.738424 392:-1.14422 393:-1.3076299 394:1.2259001 395:0.344179 396:0.28010899 397:2.23491 398:0.584553 399:-0.67698699 400:-0.91673499 401:0.27551901 402:0.96222699 403:0.22625899 404:0.82692701 405:-0.464192 406:-0.428545 407:-2.1487899 408:0.418906 409:-0.52718502 410:0.74967498 411:-0.083107002 412:0.45064199 413:-1.71297 414:-0.083866999 415:0.409291 416:1.00922 417:0.344273 418:0.71500897 419:-0.96188498 420:-1.58117 421:1.64369 422:-0.129067 423:1.9298 424:-1.90962 425:-1.39678 426:-2.30636 427:0.426054 428:0.74727398 429:0.57339197 430:-2.09534 431:-0.48084801 432:-0.95927697 433:0.94623601 434:0.86962903 435:0.90988702 436:0.450692 437:-1.4814 438:-0.081381999 439:0.494737 440:-0.62388003 441:1.40759 442:0.85992098 443:0.36600199 444:0.122313 445:-2.2051001 446:0.29214799 447:1.53944 448:0.19442099 449:-2.6937499 450:-0.215666 451:-1.19168 452:1.69346 453:1.128 454:1.4376 455:-1.46035 456:-0.57669097 457:1.40549 458:0.22940999 459:-0.31395301 460:-1.59876 461:-1.22145 462:-0.85137498 463:-1.31494 464:-0.973059 465:-1.16334 466:0.41374901 467:-0.146034 468:0.055215999 469:-0.63448399 470:0.089217998 471:-0.66923898 472:-0.066933997 473:-1.28532 474:-0.28565401 475:0.611682 476:0.74927801 477:-0.39829099 478:0.794137 479:-0.33181199 480:-1.4366699 481:1.27385 482:-1.91144 483:-1.39719 484:0.67330402 485:0.46750599 486:0.71422303 487:-1.35623 488:-0.275116 489:0.37596801 490:-0.58578598 491:-1.12308 492:-0.81790698 493:1.03187 494:1.7350301 495:-1.09345 496:0.965702 497:0.25059 498:0.46806201 499:0.95924699 500:-1.13861 501:-0.782794 502:-1.37086 503:1.59073 504:0.336694 505:1.14073 506:-0.121174 507:-0.384146 508:0.429802 509:0.58270401 510:0.63072801 511:0.98982102 512:0.339403 513:0.338184 514:-1.32705 515:-0.64749497 516:0.12864 517:-0.76850098 518:-1.01174 519:0.829202 520:0.84618598 521:1.17424 522:0.88724399 523:0.33686 524:-0.132539 525:1.27487 526:0.59646899 527:1.30683 528:0.54495502 529:0.82381397 530:0.46836001 531:0.36536399 532:-1.5131 533:-0.94443601 534:-0.57101899 535:-1.94169 536:0.41999799 537:0.87325603 538:-1.08417 539:-0.24037801 540:1.28031 541:-0.78360301 542:0.40924501 543:-0.492544 544:-1.43791 545:-0.79408097 546:-0.817213 547:0.094374999 548:-0.388024 549:0.634247 550:-1.5493701 551:0.099127002 552:0.46415001 553:1.3512 554:0.92149901 555:0.170738 556:-0.98858202 557:0.46330601 558:0.258944 559:-0.74840301 560:-0.19322699 561:-3.0487199 562:-0.670026 563:0.80349803 564:1.14539 565:-1.76798 566:-1.34811 567:0.46873999 568:-0.57475299 569:0.24950799 570:-0.026505999 571:0.0062910002 572:-0.308974 573:1.21644 574:0.075343996 575:-0.55355603 576:0.059044998 577:-1.5523 578:0.069811001 579:0.609303 580:1.43221 581:0.14930201 582:1.4562 583:0.75873601 584:-0.206654 585:-0.35938799 586:0.61399698 587:0.74743599 588:-0.367154 589:0.180591 590:0.81665701 591:1.4082201 592:-0.89073199 593:0.59369802 594:1.21839 595:-1.4570301 596:-0.33085099 597:-1.4553601 598:1.95649 599:0.43121299 600:-1.4179699 601:0.93811798 602:0.30090201 603:-0.62642503 604:1.13358 605:0.52699602 606:-0.112444 607:0.121101 608:0.387272 609:-0.447853 610:0.030135 611:-0.88095099 612:0.378645 613:-0.44934699 614:-1.35823 615:0.72286302 616:-0.18619099 617:1.16886 618:0.60960603 619:-1.65609 620:-0.26395699 621:0.85416001 622:0.617176 623:1.13659 624:-0.74396402 625:0.332443 626:-0.89269102 627:1.49384 628:1.04504 629:0.51631302 630:0.253479 631:0.80990499 632:0.71303099 633:0.53187197 634:1.35326 635:0.058309998 636:-0.67606902 637:1.3338 638:0.472826 639:0.28670499 640:0.39687899 641:-1.03175 642:0.45491299 643:-1.03104 644:-1.44017 645:-0.44650501 646:-0.028959 647:0.72954601 648:1.57702 649:0.71224201 650:-0.45108601 651:0.44237 652:-0.16080301 653:-0.94529903 654:0.076259002 655:-1.09973 656:-0.46564701 657:-0.80588901 658:-0.402468 659:1.2123899 660:1.26877 661:1.2397 662:-1.01677 663:-0.00085999997 664:0.68770599 665:0.59712303 666:0.69875598 667:0.37241599 668:1.00499 669:-2.02349 670:-0.73243898 671:1.07003 672:1.09119 673:0.76672602 674:-0.062486999 675:-1.69844 676:0.65103698 677:1.78531 678:0.27435899 679:0.99112099 680:1.39024 681:1.29225 682:1.18302 683:-0.317287 684:0.089281 685:0.133947 686:1.6636699 687:1.15117 688:0.87127 689:0.199633 690:1.90232 691:-0.347157 692:0.045150001 693:-0.79397798 694:0.443077 695:-1.71797 696:0.77887899 697:1.30108 698:-0.789765 699:1.46675 700:1.29313 701:-0.863819 702:1.33336 703:0.18915699 704:0.03255 705:-0.34998 706:1.5066 707:0.398875 708:-0.425971 709:1.10865 710:-0.38798201 711:0.12717 712:1.08831 713:0.79416603 714:0.67371601 715:-0.82109201 716:-1.41054 717:1.64002 718:0.86648798 719:1.08657 720:0.900482 721:0.84969199 722:0.82797498 723:-0.061138999 724:0.104182 725:0.098351002 726:0.30432901 727:0.171103 728:-0.042266998 729:-1.10411 730:1.4498301 731:0.46379501 732:1.24654 733:0.34287199 734:0.65486598 735:-0.74261701 736:-1.12957 737:0.18769801 738:-0.222596 739:-0.003091 740:-0.097511001 741:0.52403301 742:0.49003199 743:1.45289 744:1.0814 745:-0.423473 746:-0.82855201 747:-1.16334 748:0.98901999 749:-1.72377 750:0.89096397 751:-1.79099 752:-0.063951999 753:0.71080703 754:-0.30894199 755:0.53580302 756:-2.1034901 757:-0.392086 758:0.55137902 759:-0.92549098 760:1.17214 761:-0.023808001 762:0.040491998 763:0.261114 764:1.09419 765:0.34995699 766:-0.027315 767:-0.022232 768:1.17399 769:-0.14913499 770:-0.361536 771:-1.8336 772:-0.56574798 773:0.00051699998 774:0.70423299 775:-0.66170597 776:0.478064 777:0.94018298 778:1.2243201 779:0.15194499 780:0.238763 781:-1.05688 782:-0.17986999 783:-0.82780403 784:0.397746 785:-2.0021 786:-0.45286399 787:-0.58109301 788:-0.948681 789:-0.46465701 790:-0.48595801 791:0.73806298 792:-0.213302 793:-0.28977001 794:-0.57928401 795:0.351042 796:1.9848599 797:1.30468 798:0.048365999 799:-0.58505797 800:0.59006798 801:-0.25309101 802:1.601 803:-0.071884997 804:1.0182101 805:1.27009 806:-0.54793298 807:0.73931301 808:0.92304802 809:0.47112399 810:-0.037055001 811:0.18356501 812:0.35387301 813:0.554003 814:0.084357999 815:0.89460802 816:1.0690399 817:0.88635999 818:-0.36446601 819:-0.18469401 820:1.50828 821:-1.50687 822:0.095114 823:-0.048966002 824:0.26133701 825:-0.900585 826:0.500139 827:0.426853 828:0.176185 829:-1.5194401 830:1.79913 831:0.381273 832:-1.32961 833:0.605762 834:-0.32192799 835:-0.93974 836:0.154476 837:-0.366743 838:-0.065269001 839:-0.96026999 840:-2.5573599 841:0.117787 842:0.023217 843:-0.78991598 844:-0.130501 845:-0.121852 846:0.70415002 847:0.057456002 848:0.442794 849:-0.42180899 850:-0.73449898 851:0.89508897 852:-0.014707 853:-0.344531 854:0.69943398 855:-0.180995 856:-1.89581 857:0.770289 858:-1.28975 859:1.03889 860:0.49323401 861:-0.67252898 862:-1.5615799 863:0.85736001 864:1.12242 865:-0.36954001 866:-0.492318 867:-1.03552 868:-0.86237502 869:0.59850502 870:-0.39850301 871:0.98222601 872:0.81098503 873:1.29351 874:0.31443599 875:-0.064572997 876:-0.144656 877:1.10127 878:0.65144098 879:1.22322 880:0.89315301 881:0.89386201 882:-0.39706099 883:-1.46699 884:0.980582 885:0.064738996 886:1.7678 887:-0.27563301 888:-0.01902 889:0.51961601 890:0.079088002 891:0.23301201 892:-1.37324 893:-2.27721 894:-0.240706 895:0.181252 896:1.06972 897:-0.75660002 898:0.61352497 899:-0.52447802 900:0.45828399 901:-0.17031001 902:-0.44095299 903:-0.33266401 904:1.3552901 905:0.78062999 906:2.2121699 907:-2.0459599 908:-1.3542399 909:0.173096 910:-0.99804097 911:-0.39244801 912:-1.67576 913:-1.10077 914:0.232343 915:0.79883099 916:-1.03974 917:0.877792 918:-0.00388 919:-0.40692201 920:-0.083783001 921:0.52564597 922:-0.84096903 923:1.07882 924:1.26838 925:0.45825499 926:-0.83914 927:-0.17611501 928:-0.42623001 929:0.55683303 930:0.26512101 931:-0.55687702 932:0.737881 933:-0.78531599 934:-0.69066298 935:-0.530581 936:-0.708601 937:0.766146 938:1.17843 939:1.12982 940:0.49360299 941:-1.42909 942:1.1439101 943:2.17855 944:0.81534302 945:0.54805398 946:0.49907601 947:-0.63830101 948:2.57722 949:-0.202685 950:0.106267 951:1.25792 952:-1.27008 953:-0.93095601 954:0.45329401 955:0.83921403 956:0.85052001 957:-0.54396999 958:-1.41176 959:-0.76622599 960:0.60784698 961:0.245093 962:-0.167917 963:0.54021299 964:0.27838001 965:-1.19186 966:-0.023166999 967:-0.254372 968:-1.01331 969:0.030022999 970:0.247125 971:-0.972965 972:1.03415 973:-1.16469 974:-0.83890402 975:-0.024050999 976:0.326794 977:-1.0549099 978:-0.085267998 979:1.65729 980:0.86494601 981:-1.33508 982:0.75596303 983:-0.013654 984:0.66247499 985:-0.21883599 986:-2.6185999 987:-0.288463 988:0.51958799 989:-1.11665 990:0.240964 991:1.22718 992:0.254848 993:-0.39198899 994:0.18708999 995:0.53993398 996:-0.71044201 997:-0.26021901 998:0.49221 999:-0.48755199 1000:1.26151 1001:0.959503 1002:0.60345203 1003:0.74249798 1004:-1.01275 1005:0.107206 1006:-0.198718 1007:0.034380998 1008:-0.911587 1009:-0.215874 1010:0.118457 1011:-0.435747 1012:-1.2418801 1013:0.152532 1014:-2.1712401 1015:-0.06741 1016:-1.18074 1017:0.74510199 1018:-0.22883201 1019:-1.64609 1020:0.84391999 1021:-0.28761199 1022:0.49714401 1023:1.65634 1024:0.796067 1025:-0.418286 1026:0.74150598 1027:0.60584098 1028:1.23857 1029:-1.7946301 1030:0.52504802 1031:-0.246949 1032:-0.92451203 1033:-2.2200601 1034:-0.93687302 1035:-1.84419 1036:1.2507401 1037:0.57446599 1038:0.43426201 1039:-0.57165802 1040:0.33118299 1041:2.3876801 1042:-0.207158 1043:0.68825901 1044:0.96049702 1045:-0.66571498 1046:-0.801678 1047:1.69032 1048:-1.97717 1049:0.082341 1050:-2.02069 1051:0.96017498 1052:0.84661603 1053:0.344625 1054:0.71779001 1055:0.42388001 1056:0.36310399 1057:-0.28497899 1058:-1.09246 1059:-1.68384 1060:-0.26232699 1061:0.54568702 1062:0.397966 1063:-0.879215 1064:0.64512497 1065:-0.460581 1066:-0.681741 1067:-0.096175998 1068:1.07689 1069:0.132038 1070:1.20329 1071:0.41156 1072:0.31517801 1073:1.40933 1074:-2.1324999 1075:-0.641298 1076:0.081378996 1077:1.07564 1078:0.58606201 1079:0.151989 1080:0.285124 1081:0.28208199 1082:0.055798002 1083:0.362721 1084:1.47438 1085:0.314013 1086:-1.21821 1087:0.72510803 1088:0.24037001 1089:-0.33843699 1090:-0.51279598 1091:1.20979 1092:-0.83147198 1093:0.089929 1094:0.013317 1095:0.68337703 1096:0.30939099 1097:0.74686801 1098:0.67492098 1099:0.78713 1100:-0.090438001 1101:1.16574 1102:0.46863401 1103:0.109535 1104:-0.0069329999 1105:-0.756199 1106:1.02343 1107:-0.83206302 1108:-0.36079201 1109:1.3699501 1110:0.119317 1111:-0.42427099 1112:-0.89985502 1113:0.15744101 1114:-1.54954 1115:0.432495 1116:-0.99191099 1117:0.36711499 1118:-1.46455 1119:-0.27629301 1120:1.04249 1121:0.78282601 1122:1.0191 1123:0.71130502 1124:-0.011045 1125:0.097875997 1126:-0.23813801 1127:0.75561702 1128:-0.038251001 1129:-0.227538 1130:0.0091159996 1131:-0.15629201 1132:-0.37164801 1133:1.75858 1134:-0.47762799 1135:0.63009202 1136:0.66121203 1137:0.194196 1138:1.32959 1139:0.192662 1140:-0.31483099 1141:-0.018727999 1142:-0.97527403 1143:-0.39076501 1144:0.62114203 1145:-0.64102697 1146:0.607858 1147:0.32927099 1148:-1.56564 1149:-0.33015999 1150:-0.89774001 1151:1.03584 1152:-1.42645 1153:1.07461 1154:0.439394 1155:-0.47463599 1156:-1.66215 1157:0.59805298 1158:0.641249 1159:-2.1907799 1160:-2.05549 1161:-0.132681 1162:0.48715401 1163:0.62870699 1164:0.48708701 1165:-0.494252 1166:-0.87265301 1167:-0.107687 1168:0.47899801 1169:-0.300354 1170:-0.85901397 1171:0.63071102 1172:1.05424 1173:0.67400199 1174:-0.89115298 1175:0.54249603 1176:0.86864501 1177:-1.77446 1178:-1.01864 1179:-0.71371502 1180:-0.74561697 1181:-1.42387 1182:-1.1536601 1183:0.94584501 1184:-0.47781599 1185:0.073076002 1186:1.73078 1187:-0.71748799 1188:0.50205499 1189:-1.18367 1190:-2.0207801 1191:1.22891 1192:0.63841701 1193:0.36963001 1194:-0.096171997 1195:-1.01641 1196:0.74540102 1197:0.110465 1198:-2.17629 1199:-0.75142902 1200:-0.94255799 1201:0.22022501 1202:1.08382 1203:-0.24148799 1204:-0.676157 1205:0.72749197 1206:-1.72928 1207:0.234952 1208:-0.65479398 1209:-1.63596 1210:-0.97073698 1211:1.14103 1212:0.80141097 1213:0.77315199 1214:1.62431 1215:-1.06472 1216:-1.46303 1217:-1.0210201 1218:-1.59532 1219:2.05885 1220:1.0023 1221:-0.453612 1222:0.160717 1223:1.3518699 1224:1.02289 1225:-0.34788299 1226:-0.280646 1227:-0.95734102 1228:1.38709 1229:-1.0143501 1230:1.09911 1231:-0.61619699 1232:0.58744401 1233:-0.407388 1234:-0.52153301 1235:0.836797 1236:0.40164 1237:-0.058081999 1238:-0.45407301 1239:1.36226 1240:1.07386 1241:0.692527 1242:0.395239 1243:-1.37356 1244:0.33719501 1245:0.416554 1246:-0.66241699 1247:-0.90936899 1248:0.57485503 1249:0.067128003 1250:0.045251999 1251:0.228467 1252:0.490733 1253:0.59661102 1254:-1.51354 1255:0.071771003 1256:0.80888802 1257:0.71189803 1258:-1.12589 1259:-0.39831501 1260:0.35461199 1261:-2.0460701 1262:-0.170256 1263:-1.80492 1264:-1.17436 1265:-1.66347 1266:-0.51507902 1267:-0.228811 1268:0.94181699 1269:-0.86035901 1270:0.69812 1271:0.687114 1272:-0.503851 1273:0.38573 1274:-0.036936 1275:0.41568699 1276:1.47453 1277:-0.78056699 1278:-0.418854 1279:1.37077 1280:-0.16951901 1281:1.2452 1282:0.135984 1283:0.70500898 1284:-0.55857497 1285:-0.24083 1286:-0.51928103 1287:1.07502 1288:0.29008201 1289:-2.47012 1290:0.106226 1291:0.97524101 1292:0.225601 1293:0.70003903 1294:0.170395 1295:1.00471 1296:1.35285 1297:-0.66166103 1298:-1.68136 1299:-0.55613899 1300:0.79378903 1301:1.24824 1302:0.318914 1303:-0.090728 1304:0.60958302 1305:-0.775374 1306:0.268841 1307:0.16499101 1308:-0.96705103 1309:0.410034 1310:1.82898 1311:1.45017 1312:0.88981903 1313:-1.25903 1314:-1.37166 1315:1.08561 1316:1.12573 1317:-1.7389801 1318:-0.87894398 1319:1.574 1320:-0.47678801 1321:-0.31695899 1322:0.56600797 1323:0.951029 1324:-0.636958 1325:0.64732498 1326:-0.946845 1327:1.57179 1328:1.11088 1329:1.23361 1330:-0.072837003 1331:0.074428 1332:-1.09997 1333:0.25775999 1334:-0.247243 1335:0.045263 1336:0.58527499 1337:-2.1587801 1338:-2.14992 1339:0.262999 1340:0.58689302 1341:-0.271126 1342:-0.116717 1343:-0.79183698 1344:-0.213484 1345:-0.15593199 1346:-0.34530801 1347:-0.150033 1348:-0.29832801 1349:0.58349103 1350:-0.66997403 1351:0.61981302 1352:-0.464376 1353:0.255458 1354:0.68079799 1355:-0.77595001 1356:0.59780198 1357:0.700216 1358:-1.4122 1359:-0.83767402 1360:0.37350699 1361:0.82440901 1362:0.53576499 1363:0.80796599 1364:1.4144 1365:-0.48018301 1366:0.284462 1367:-1.2517999 1368:0.95522898 1369:1.34503 1370:-0.145897 1371:-0.23549999 1372:1.3216799 1373:0.32459301 1374:1.18664 1375:-0.037746999 1376:-0.21210299 1377:0.852741 1378:-0.69579899 1379:0.702187 1380:0.023025 1381:1.13987 1382:0.86141098 1383:-0.71325099 1384:0.77756 1385:0.124394 1386:0.83199197 1387:0.84949303 1388:-0.56058598 1389:0.03585 1390:0.67049003 1391:1.22114 1392:0.696509 1393:0.48697501 1394:0.56315202 1395:-1.45518 1396:0.174686 1397:0.38378599 1398:-0.60485703 1399:0.94564599 1400:-0.94279301 1401:-0.076930001 1402:1.43957 1403:1.12512 1404:0.186488 1405:0.525244 1406:0.93373501 1407:-0.837394 1408:-0.93558902 1409:-1.08972 1410:-0.84623098 1411:-0.441075 1412:0.285368 1413:1.15397 1414:1.9133199 1415:-0.59832001 1416:-1.5375299 1417:-0.974199 1418:1.20127 1419:-0.56287301 1420:0.055532999 1421:-1.0764 1422:0.84233302 1423:0.35331801 1424:0.667126 1425:-0.95771199 1426:-1.49839 1427:-0.96585101 1428:-0.99791098 1429:0.907713 1430:-1.15537 1431:-1.3157099 1432:-0.042688001 1433:-0.54460901 1434:-1.3149 1435:-0.380312 1436:-0.29349801 1437:-0.57818103 1438:0.38719001 1439:0.089468002 1440:0.22138201 1441:0.149189 1442:-0.441268 1443:-2.06861 1444:-0.88900203 1445:-1.79108 1446:0.62589401 1447:-0.49407399 1448:0.81796598 1449:0.52401501 1450:0.48148701 1451:-0.24381 1452:-0.131382 1453:0.553828 1454:0.199663 1455:-0.33037099 1456:0.372686 1457:-0.136593 1458:-0.35376999 1459:-0.664397 1460:-1.2645299 1461:0.77473801 1462:-0.104052 1463:-0.80576402 1464:0.68649602 1465:0.22712 1466:0.53393298 1467:1.3073 1468:-0.18085501 1469:-1.2904299 1470:-0.063879997 1471:0.001824 1472:0.673796 1473:1.81534 1474:0.60738498 1475:-1.00476 1476:-2.0269899 1477:-0.52692997 1478:0.49829099 1479:-0.65407503 1480:0.58671099 1481:1.07169 1482:0.51828802 1483:0.60987902 1484:-0.86092901 1485:0.42994401 1486:-1.56882 1487:0.197898 1488:-0.404064 1489:-0.57602203 1490:1.0448101 1491:0.42026401 1492:-0.292456 1493:-1.6901799 1494:-0.65291297 1495:0.072948001 1496:0.82475299 1497:-0.028065 1498:-1.91144 1499:0.30926299 1500:0.171378 1501:2.00632 1502:-1.3024 1503:-0.62848198 1504:-0.92223501 1505:-0.43087399 1506:0.62527603 1507:1.2683001 1508:0.181467 1509:1.54571 1510:0.099505998 1511:-0.157059 1512:-0.56266302 1513:-0.88070601 1514:0.169016 1515:0.85446 1516:0.168432 1517:1.50993 1518:0.050802 1519:1.43252 1520:-1.99633 1521:-2.4233301 1522:0.72928101 1523:-1.05823 1524:-1.52126 1525:0.87995303 1526:0.85066199 1527:0.12925901 1528:-0.460794 1529:0.449893 1530:0.83989298 1531:-0.062918 1532:-1.1008 1533:1.27631 1534:1.32067 1535:0.90768301 1536:-0.24099 1537:1.7685601 1538:-1.66482 1539:0.95066297 1540:1.26915 1541:1.90133 1542:-0.054510999 1543:-1.19493 1544:0.34540099 1545:0.32065701 1546:-0.24365699 1547:0.93480498 1548:-0.138531 1549:-1.59166 1550:-1.18431 1551:-1.09122 1552:1.50051 1553:0.78169101 1554:-0.704476 1555:-1.71016 1556:1.0447 1557:-1.43182 1558:-1.84934 1559:0.63263297 1560:-0.25357899 1561:1.03438 1562:-0.002541 1563:0.44994101 1564:-1.66345 1565:1.30505 1566:-0.669756 1567:0.92717701 1568:-2.3663599 1569:-0.024535 1570:-0.69990098 1571:0.95643097 1572:-0.30206901 1573:0.92970902 1574:0.38418901 1575:0.78928697 1576:-0.89100099 1577:-0.50998199 1578:0.581783 1579:-0.094218999 1580:0.05398 1581:0.52525598 1582:0.82621402 1583:0.66692901 1584:1.02399 1585:1.31143 1586:-0.74870503 1587:0.29133201 1588:-0.383874 1589:0.26972499 1590:0.43556699 1591:-0.66652298 1592:0.677674 1593:0.259929 1594:-0.90752202 1595:-0.075983003 1596:0.55572402 1597:-0.208554 1598:-0.497219 1599:-0.28362 1600:0.122935 1601:-0.71406901 1602:1.48926 1603:-1.65344 1604:0.36288601 1605:0.39505199 1606:-0.078726999 1607:-1.20043 1608:0.66013998 1609:-0.80644298 1610:-0.348672 1611:0.95267498 1612:0.50640202 1613:-0.580697 1614:-0.25623199 1615:0.23370101 1616:-1.60059 1617:-1.46858 1618:0.60620397 1619:-0.21586201 1620:0.161336 1621:-0.248753 1622:0.57302201 1623:-0.397138 1624:1.23096 1625:-0.66828901 1626:0.79279703 1627:-0.90852702 1628:0.118927 1629:0.78697097 1630:0.493958 1631:0.14438599 1632:0.46732301 1633:0.77010798 1634:0.59134698 1635:-0.78202599 1636:0.37308601 1637:-1.81287 1638:0.22733299 1639:-1.71299 1640:0.576603 1641:-0.404551 1642:0.69034499 1643:0.68722999 1644:1.17125 1645:0.191689 1646:-0.56571198 1647:-1.80638 1648:-0.773368 1649:-0.143646 1650:-0.220695 1651:1.9818701 1652:0.89295602 1653:0.023212999 1654:0.210483 1655:1.19455 1656:-0.56020498 1657:0.70401698 1658:-1.76635 1659:-0.36888 1660:-0.92555302 1661:-1.27126 1662:0.40143701 1663:-0.82750499 1664:-1.10601 1665:0.053500999 1666:0.92279899 1667:-0.56433898 1668:0.93965697 1669:-0.12994 1670:-0.595357 1671:-0.52508199 1672:0.87533998 1673:0.081946 1674:-0.061928 1675:-0.104278 1676:0.387844 1677:0.02768 1678:-0.14514901 1679:0.55991501 1680:0.05539 1681:-0.213908 1682:0.53157198 1683:0.034988999 1684:0.141287 1685:0.329932 1686:-0.738756 1687:-0.254675 1688:-0.76447397 1689:0.91870898 1690:-0.39652699 1691:-0.199608 1692:-0.21611901 1693:-1.00501 1694:0.72587901 1695:1.46395 1696:-1.17346 1697:-0.23567 1698:0.207995 1699:-1.1513799 1700:-1.09023 1701:0.110699 1702:0.61476898 1703:1.08614 1704:1.31636 1705:-0.74811602 1706:-1.13498 1707:0.77300102 1708:-0.668975 1709:2.2521 1710:1.24563 1711:-0.35850799 1712:-0.62628198 1713:1.07081 1714:-1.15596 1715:1.4139301 1716:0.170191 1717:-0.61976302 1718:-0.107002 1719:0.93634403 1720:-0.638767 1721:0.343319 1722:-0.90373498 1723:-0.60712099 1724:-1.7859499 1725:0.77930403 1726:-0.84093201 1727:0.48368099 1728:1.33495 1729:1.69051 1730:-0.153933 1731:-0.98691201 1732:-0.555619 1733:-0.160577 1734:-0.33543301 1735:-1.03072 1736:0.139292 1737:1.35642 1738:0.27636001 1739:1.31822 1740:0.276171 1741:0.80080998 1742:0.26450801 1743:-0.45345601 1744:-0.99662203 1745:-1.63758 1746:0.51355797 1747:-1.06327 1748:-0.42241299 1749:-0.98738497 1750:-0.61809498 1751:-0.992257 1752:0.88373101 1753:1.16935 1754:0.049042001 1755:-1.58847 1756:1.15944 1757:0.61661297 1758:0.039088 1759:0.64052701 1760:-1.34429 1761:-1.2862999 1762:0.27874601 1763:0.60802698 1764:0.028661 1765:0.45132601 1766:-0.73120201 1767:0.00293 1768:-1.09594 1769:1.1286401 1770:-0.165703 1771:-0.69422197 1772:0.234473 1773:-0.072332002 1774:0.42441699 1775:0.206231 1776:-0.211687 1777:0.75344998 1778:0.82290399 1779:-0.80737299 1780:-0.65949398 1781:-1.88083 1782:-1.4208601 1783:-0.52489501 1784:0.035773002 1785:0.411708 1786:0.194243 1787:-0.26662099 1788:0.38377899 1789:0.39250401 1790:-0.25913301 1791:0.096513003 1792:-0.110516 1793:0.91051197 1794:0.80538499 1795:0.59052801 1796:1.00732 1797:-0.051509 1798:0.78865099 1799:0.079618998 1800:-2.04667 1801:1.41852 1802:-0.56101 1803:-0.06425 1804:-0.850766 1805:-0.73021501 1806:-1.4838901 1807:0.56317598 1808:0.32408699 1809:0.40577701 1810:-0.053481001 1811:0.073542997 1812:0.62435102 1813:0.82927698 1814:-0.013297 1815:-1.30512 1816:0.78479201 1817:0.302753 1818:0.71613401 1819:-0.24610201 1820:0.121108 1821:1.33262 1822:0.465648 1823:0.19577 1824:-1.47654 1825:-1.43697 1826:-0.166403 1827:1.43336 1828:0.31485099 1829:-0.032026 1830:0.292308 1831:1.23413 1832:-0.67157102 1833:-1.06362 1834:0.114588 1835:-2.9012101 1836:-0.325091 1837:1.75342 1838:1.1644 1839:-0.0022539999 1840:0.62544 1841:0.92645699 1842:-0.039409999 1843:-1.41003 1844:-0.24834099 1845:-0.044723 1846:-0.029634999 1847:0.49752799 1848:-0.29238099 1849:0.91906601 1850:0.576572 1851:0.64221501 1852:-0.28601801 1853:0.49369401 1854:0.33924699 1855:-0.49191999 1856:-1.53917 1857:0.460776 1858:-1.02564 1859:-0.31856999 1860:-0.230103 1861:-1.2623301 1862:0.91002601 1863:0.45080999 1864:-0.170956 1865:0.73888099 1866:-1.19591 1867:0.70044202 1868:0.87755102 1869:-0.62704003 1870:0.421523 1871:-0.20990001 1872:0.81356001 1873:-0.369497 1874:-1.07895 1875:0.25974101 1876:0.2344 1877:-0.39252901 1878:0.54366601 1879:-0.069953002 1880:-0.125241 1881:0.052889999 1882:-0.88141602 1883:-1.4977601 1884:-0.97956502 1885:0.221613 1886:-1.05639 1887:0.105094 1888:-0.843449 1889:-1.38091 1890:-0.701949 1891:1.63231 1892:-0.37865701 1893:-0.264319 1894:-0.76505798 1895:-0.971214 1896:0.40543199 1897:-1.18659 1898:-1.0819401 1899:0.33448499 1900:-0.64598799 1901:0.17483699 1902:-0.068016 1903:0.30798799 1904:-0.96345198 1905:-2.55195 1906:0.88306898 1907:0.738442 1908:-1.54208 1909:0.40291899 1910:0.275172 1911:-0.174744 1912:-0.15248699 1913:-0.415703 1914:0.78494799 1915:0.20298301 1916:-0.36649799 1917:0.53002 1918:-0.81522298 1919:0.91908801 1920:0.051585 1921:0.488938 1922:0.61728299 1923:-2.6758699 1924:0.62095499 1925:-0.28206101 1926:0.275545 1927:0.70057797 1928:-0.291731 1929:-0.445528 1930:-2.3882101 1931:0.40711701 1932:-0.86244899 1933:0.73681599 1934:0.67423499 1935:-1.10194 1936:-0.47571501 1937:-0.80184799 1938:0.47083101 1939:-0.70097601 1940:-0.847853 1941:0.51932299 1942:-1.95324 1943:-0.296832 1944:-0.221404 1945:-0.291877 1946:0.360917 1947:-1.46556 1948:1.08295 1949:0.28735 1950:-0.50900102 1951:0.33464301 1952:0.85250998 1953:0.58615899 1954:0.123791 1955:1.5882699 1956:-0.698322 1957:-1.46623 1958:1.27688 1959:0.69200897 1960:-0.21523701 1961:-0.54420799 1962:1.3921 1963:-0.102035 1964:0.715536 1965:0.201911 1966:0.69786298 1967:0.040511001 1968:0.49210799 1969:-0.59375399 1970:-0.45385 1971:0.324909 1972:0.85603201 1973:0.171359 1974:0.424548 1975:0.148617 1976:-0.27827999 1977:0.85075402 1978:-0.458419 1979:-0.189889 1980:0.15408599 1981:0.50658101 1982:0.97386301 1983:0.28165901 1984:0.92447698 1985:0.543172 1986:-2.4324501 1987:-1.41828 1988:-0.70241702 1989:0.072350003 1990:1.09066 1991:-0.82540298 1992:-0.138451 1993:0.38295701 1994:0.876697 1995:-0.216234 1996:-1.4083 1997:0.393327 1998:-0.148522 1999:1.59153 2000:-0.217481 #
-0.00051772353869326078 1:-0.67653 2:1.6931 3:1.55925 4:1.55998 5:-0.98217899 6:-1.35851 7:-1.31399 8:-0.45506701 9:0.295214 10:0.290694 11:0.41563201 12:0.136703 13:-0.68884802 14:-1.70035 15:-1.86417 16:0.50460601 17:-2.12236 18:0.40700799 19:-0.78088301 20:-1.33613 21:-0.76669103 22:-3.34464 23:-0.195161 24:0.210595 25:-0.246315 26:-1.29992 27:0.24209601 28:-2.11799 29:-1.21796 30:-1.47365 31:-1.87948 32:-0.66951901 33:0.37667 34:0.94807798 35:0.32703501 36:0.149636 37:-1.11727 38:1.50335 39:0.121324 40:0.121324 41:0.121324 42:0.121324 43:-1.7664 44:0.49756801 45:-0.56213301 46:0.36901101 47:-1.29492 48:-1.29515 49:1.04816 50:-0.32953799 51:-0.32953799 52:-0.32953799 53:-0.32953799 54:-1.36449 55:-0.35723999 56:-2.5536101 57:-1.06776 58:-1.4629101 59:-0.635544 60:-1.3329901 61:-1.72145 62:-2.04036 63:0.132054 64:-0.82448798 65:-0.95462602 66:-0.91368097 67:-1.37279 68:-1.79886 69:-1.24729 70:0.843135 71:-1.6048 72:-1.16541 73:0.80477703 74:0.054249 75:0.36731499 76:1.12322 77:-1.6535 78:-1.56326 79:0.52082598 80:0.573201 81:0.852135 82:0.37258601 83:1.4704601 84:-0.79524302 85:-1.8613 86:-0.90953302 87:2.0437901 88:-1.0396301 89:-0.20607799 90:1.56083 91:-1.61674 92:-0.501113 93:-0.73622799 94:-0.48743999 95:-1.16013 96:1.43248 97:-0.423803 98:-0.96210498 99:-1.44388 100:-1.73798 101:-1.55372 102:-0.25740901 103:-2.84655 104:-2.74124 105:-1.0517401 106:0.60359001 107:-1.13841 108:1.70701 109:-1.32198 110:1.79625 111:0.59520602 112:-2.4874401 113:-1.7424099 114:-2.4458001 115:-1.08549 116:0.24203201 117:-0.642829 118:0.48446101 119:2.0602701 120:1.84334 121:-0.18735699 122:-1.5822901 123:-1.17484 124:-0.070726998 125:-0.33207601 126:1.6594599 127:-1.30855 128:-1.8384399 129:-1.183 130:-1.8611 131:1.36189 132:0.57973599 133:0.362409 134:-0.62851399 135:0.46423 136:-2.0574701 137:0.51568103 138:-1.0551 139:-0.62731999 140:-2.1589999 141:-1.31011 142:0.161759 143:1.89654 144:-1.75337 145:-2.9658799 146:0.25347 147:-1.34833 148:0.87587303 149:0.86749703 150:0.54557103 151:-0.235733 152:1.11178 153:2.0463099 154:-1.43278 155:-1.29889 156:2.02757 157:-0.26862699 158:0.72495103 159:-1.07353 160:0.015314 161:2.0115399 162:1.45582 163:-0.149382 164:0.349731 165:-3.4670601 166:0.78540897 167:2.08657 168:-1.27106 169:0.41543999 170:-2.03001 171:-1.24626 172:-0.040084001 173:-1.96163 174:0.292124 175:1.24002 176:-1.04134 177:0.72119302 178:-0.48371401 179:-0.96519798 180:-1.30309 181:-0.215389 182:-0.540775 183:0.77217299 184:-0.62005901 185:1.03316 186:-2.1505201 187:-1.17883 188:1.18443 189:-1.18426 190:-2.59585 191:1.56804 192:-1.1036299 193:0.44820499 194:-2.2475901 195:-2.11865 196:0.40975699 197:1.79617 198:-0.49401101 199:-2.2781899 200:-2.05128 201:-0.73343199 202:-2.76089 203:-1.97875 204:2.04877 205:0.225376 206:1.86273 207:-2.6570401 208:-1.89326 209:-1.36809 210:-0.79705203 211:-0.48981699 212:1.32364 213:-2.1851799 214:0.83158398 215:-0.194506 216:-2.3099101 217:-1.33296 218:1.04128 219:-1.0435801 220:-0.31970999 221:-2.40274 222:1.64261 223:-1.03032 224:1.58819 225:-0.40576401 226:-0.211969 227:0.27889201 228:1.2709399 229:-1.28947 230:-2.16239 231:1.625 232:-2.2006099 233:-0.66795701 234:-1.31537 235:0.011579 236:-2.3554201 237:-2.15381 238:0.37866199 239:-1.22493 240:0.234814 241:-1.41466 242:2.0690501 243:-0.83242899 244:-1.1907001 245:-0.474886 246:1.37911 247:1.40716 248:-0.56967598 249:-1.06411 250:1.63021 251:-2.5444801 252:-2.48915 253:1.41336 254:0.35479099 255:0.74625498 256:1.58987 257:-0.22061799 258:-0.85465801 259:1.13021 260:-0.71173799 261:-0.71173799 262:-0.71173799 263:-0.71173799 264:-0.43698499 265:-1.8942 266:0.48480299 267:-0.59495801 268:1.12378 269:-1.46489 270:1.7803 271:-2.1615901 272:0.021364 273:-1.33381 274:-1.20236 275:-0.492203 276:0.60782099 277:-1.2424999 278:-0.386769 279:0.23105399 280:-0.085639998 281:0.070830002 282:-1.58661 283:-1.41056 284:-1.51835 285:0.29211599 286:-2.1173401 287:0.18995599 288:0.46982899 289:-0.747343 290:-1.04241 291:-1.3392299 292:-2.0702 293:-0.083236001 294:0.98129803 295:-0.145546 296:-1.11304 297:-1.4186 298:1.56712 299:-1.37915 300:1.5526 301:-0.54543298 302:-2.4814401 303:-2.08792 304:-1.2883199 305:-0.070573002 306:2.33132 307:0.50931102 308:-2.3645899 309:1.9118299 310:-0.51798099 311:1.49393 312:0.64068902 313:-1.15519 314:-0.086529002 315:-0.54043001 316:-1.60276 317:-0.016679 318:0.39970201 319:0.83646101 320:0.60131198 321:-0.97401297 322:1.01329 323:-0.097916 324:1.58267 325:3.26156 326:-2.0439301 327:-2.3364999 328:-0.705423 329:-0.75865197 330:1.49468 331:0.94009 332:1.6543 333:0.56002599 334:-1.56796 335:-0.301166 336:-0.14385401 337:1.19994 338:0.013906 339:-0.65673298 340:-0.034313999 341:1.70934 342:-1.57926 343:0.42891401 344:0.097669996 345:-0.890495 346:-0.55844998 347:0.450057 348:1.18766 349:1.4090199 350:0.37130901 351:1.30854 352:0.87379903 353:1.88147 354:1.69346 355:2.2334399 356:1.10151 357:1.99654 358:0.901649 359:-1.63142 360:-1.68902 361:-1.26308 362:-1.14362 363:-1.5548199 364:-1.00752 365:-0.86126 366:1.26135 367:1.6247 368:-0.152147 369:-1.9886 370:-0.99857903 371:-0.86689901 372:-0.99955797 373:1.87547 374:0.80853498 375:0.52159899 376:1.06485 377:0.69760698 378:1.6102099 379:-0.84473097 380:-0.38736299 381:-1.1296099 382:1.7541 383:0.389741 384:-0.061175998 385:2.9668701 386:-1.14851 387:-0.63866299 388:2.46491 389:-1.117 390:1.08961 391:-1.99412 392:-0.21021999 393:-0.85083097 394:1.02921 395:0.43602899 396:-0.342619 397:-0.62351203 398:2.5125 399:-1.1539 400:0.27807999 401:-0.114798 402:0.655276 403:-0.196541 404:0.535864 405:-0.70091897 406:-1.8747 407:-1.2440701 408:-0.39785501 409:1.0606101 410:1.95564 411:-1.29284 412:-1.12666 413:0.224493 414:0.349325 415:1.03293 416:1.50971 417:-0.19359501 418:0.39335999 419:-0.218032 420:-1.36292 421:0.829606 422:-0.089152999 423:1.829 424:-2.1986001 425:-2.28303 426:-1.0874 427:-1.24251 428:-1.59474 429:1.68551 430:-2.25032 431:-1.59585 432:-0.84969699 433:0.98939401 434:1.4505 435:1.74984 436:-0.052395001 437:1.23817 438:1.97207 439:0.201579 440:-2.21017 441:1.69168 442:2.0770099 443:1.5748 444:-0.166449 445:-1.1307 446:1.40679 447:-1.0172499 448:-0.496337 449:-2.17905 450:-1.81596 451:-0.99271297 452:0.60964501 453:1.58587 454:1.7438 455:-1.82409 456:-0.62729299 457:1.38688 458:-1.53845 459:0.79065698 460:-0.63508201 461:-0.98168099 462:-1.02455 463:0.36074799 464:-0.84042698 465:-1.24914 466:0.37008899 467:-2.72051 468:1.98377 469:-0.73923999 470:-2.1066501 471:0.249561 472:1.24297 473:-2.64517 474:-0.274295 475:-0.158446 476:0.80182999 477:-1.39834 478:-0.68200999 479:0.89010203 480:-2.4972799 481:-0.037480999 482:-2.8192799 483:1.95416 484:0.69524699 485:-2.0320599 486:1.68189 487:-0.65346301 488:0.37980199 489:-0.59906298 490:-2.6730299 491:0.55205399 492:0.156535 493:0.69573599 494:-0.452306 495:-1.33435 496:0.263327 497:-0.03187 498:1.69075 499:-2.2971101 500:-1.03461 501:-2.6187201 502:-0.88631999 503:1.23882 504:-0.057054002 505:1.05101 506:1.1713001 507:-0.667786 508:0.63173598 509:-0.803509 510:-1.45603 511:-0.60375702 512:-1.2292399 513:-2.52545 514:0.24945 515:-0.32133901 516:-1.3807499 517:-0.973993 518:-2.0862501 519:-0.93807602 520:0.31319299 521:1.8717901 522:1.92221 523:-0.20947599 524:-1.82636 525:1.3249201 526:2.1131001 527:-0.87166899 528:0.86380798 529:1.0896 530:2.0033801 531:1.25433 532:-2.58341 533:-0.84242898 534:-1.55361 535:-3.2820499 536:0.476762 537:1.69145 538:-2.43329 539:0.40047699 540:-1.7726901 541:0.64459097 542:1.09718 543:-2.48931 544:-1.27213 545:-1.35026 546:1.89021 547:0.66305298 548:1.1618201 549:0.309659 550:-1.58496 551:-0.26865101 552:0.39062101 553:1.54453 554:0.620956 555:-0.49791199 556:-0.82703203 557:0.381946 558:1.50697 559:2.3689499 560:1.43038 561:-0.62034702 562:-2.57463 563:1.29896 564:1.53565 565:0.64624602 566:-2.17169 567:-1.92486 568:-3.6819401 569:-1.82412 570:-0.0068760002 571:-0.71716499 572:0.029434999 573:1.3743401 574:1.51219 575:-1.50942 576:-0.99051797 577:-0.095927998 578:-0.331855 579:0.87585199 580:0.203704 581:0.65347499 582:1.24984 583:0.71194601 584:1.38943 585:1.4222 586:-2.81007 587:1.69556 588:0.43694699 589:-0.81220102 590:0.33447799 591:1.18156 592:0.73429 593:-0.36904201 594:1.65273 595:-0.97716802 596:-1.63493 597:1.8523 598:2.16873 599:-1.00506 600:1.0219001 601:0.266339 602:0.469156 603:-0.74298102 604:1.70328 605:1.2148401 606:-0.070619002 607:-2.2358699 608:1.05681 609:0.86437398 610:2.18455 611:-1.4886301 612:0.51043701 613:-1.27719 614:-2.20365 615:-1.2334501 616:0.84622198 617:1.30462 618:-0.12970001 619:-2.1127801 620:1.71 621:0.57839501 622:0.228817 623:1.83505 624:-3.7765801 625:-0.278723 626:-1.42546 627:0.219629 628:1.28248 629:-0.74989098 630:0.213778 631:-1.44462 632:0.43554199 633:0.768794 634:1.28895 635:-2.15798 636:1.85571 637:1.5470099 638:1.4320199 639:-0.63927102 640:-1.4575 641:0.075175002 642:0.937253 643:-1.94523 644:-0.25053701 645:0.29978099 646:-0.195213 647:1.02658 648:-0.378901 649:2.23138 650:0.22290801 651:0.79533201 652:-2.90591 653:0.196358 654:0.38873699 655:1.11674 656:-0.71237499 657:2.8229301 658:0.704961 659:1.67998 660:-1.36579 661:0.754888 662:0.96239102 663:-0.164638 664:-0.177504 665:1.84121 666:0.42595899 667:-0.072044 668:0.301121 669:-0.17251199 670:-2.7125001 671:1.7927001 672:1.54153 673:1.76963 674:-0.37901601 675:-0.45141801 676:1.21451 677:0.89563102 678:1.0804 679:-1.2838 680:2.2064099 681:2.01542 682:1.15207 683:-0.928146 684:0.014761 685:1.17802 686:1.09255 687:0.85584199 688:1.60473 689:0.49151599 690:1.14659 691:0.49005401 692:2.44434 693:-1.45453 694:-2.0538199 695:-1.2065099 696:2.1384799 697:1.57567 698:-1.2009799 699:1.64331 700:1.3982199 701:0.135254 702:0.66807002 703:1.80966 704:-2.4045601 705:-2.1888499 706:-0.265948 707:0.926808 708:-1.16011 709:1.90132 710:-2.17752 711:-0.67325002 712:1.54417 713:0.66269797 714:-2.4601901 715:-0.182733 716:-3.3001699 717:2.35373 718:1.70992 719:1.03614 720:-0.082496002 721:0.76283902 722:1.4164701 723:0.22853801 724:-2.30776 725:1.84727 726:1.38528 727:-0.43357399 728:1.02818 729:-0.50784701 730:1.63034 731:0.110778 732:-0.14749099 733:-1.37182 734:0.52478403 735:0.87114102 736:-0.68704498 737:-0.047784999 738:0.025452999 739:-0.81576902 740:-0.68063301 741:2.89885 742:2.6433899 743:1.83082 744:1.35268 745:-0.67510498 746:0.075259 747:-0.83871597 748:-2.2353799 749:-2.3215499 750:2.95048 751:-0.91048998 752:2.4033 753:1.37156 754:-2.5501499 755:1.87927 756:-1.9819601 757:-1.16456 758:1.28699 759:-1.04536 760:0.93658602 761:-0.81815499 762:-0.62893403 763:-0.290764 764:1.5411201 765:-0.085502997 766:-0.97767198 767:-2.8284299 768:0.97912502 769:0.97520798 770:2.1993201 771:-0.55239397 772:0.059353001 773:2.1758101 774:1.62217 775:-2.1877501 776:-0.463076 777:1.03695 778:1.55834 779:0.68083203 780:-0.58536899 781:-2.0367501 782:1.25449 783:-1.7594301 784:0.201121 785:-1.01524 786:-0.79658699 787:0.72967702 788:-0.73307502 789:1.14531 790:1.69118 791:1.18259 792:-0.79806501 793:0.45686001 794:-0.59910798 795:1.2900701 796:2.42307 797:-1.20357 798:-3.8055799 799:2.23353 800:1.90158 801:0.822285 802:-0.09217 803:1.472 804:-0.36563 805:-0.61326897 806:1.47842 807:-1.04276 808:-2.59761 809:-0.29998001 810:0.97307301 811:1.95754 812:-0.149918 813:1.85613 814:2.42629 815:0.501755 816:2.05615 817:1.00402 818:-0.44284299 819:1.31831 820:1.14361 821:-2.04456 822:0.184835 823:-0.137513 824:-0.104522 825:-0.51348901 826:0.025351999 827:0.18576901 828:-0.746243 829:1.25451 830:-0.74236101 831:0.17499501 832:-0.71258301 833:-1.6544 834:-2.59535 835:-0.871005 836:-1.09447 837:-2.3989201 838:0.193883 839:-2.4653499 840:-2.6066201 841:-0.317325 842:-1.47449 843:-1.46793 844:0.47563699 845:-0.90034598 846:0.73212099 847:-2.20591 848:1.50802 849:-0.56200099 850:-1.94823 851:1.1989599 852:1.10884 853:1.45258 854:0.976861 855:1.63867 856:-0.41927999 857:1.5641299 858:-0.54577398 859:-0.86067599 860:0.47772399 861:-1.21082 862:0.90572101 863:1.6891299 864:1.88581 865:-0.53406501 866:1.99586 867:-0.067909002 868:1.76196 869:1.44103 870:-1.32486 871:1.6507601 872:-0.757765 873:0.24439 874:-0.94002199 875:-0.132773 876:0.034892 877:0.109723 878:2.0747299 879:1.56192 880:0.154358 881:1.17948 882:-2.2325399 883:0.81687701 884:1.52019 885:0.090235002 886:1.29071 887:-2.8877101 888:-1.12686 889:0.26483601 890:-1.18402 891:0.87422699 892:0.086015001 893:-2.15027 894:-1.48905 895:-3.2022099 896:1.8683701 897:-0.114554 898:2.14575 899:-0.93683797 900:1.02068 901:1.53865 902:1.19833 903:0.787233 904:0.44301701 905:2.58693 906:-0.77112198 907:-1.19302 908:-1.19337 909:-0.99891299 910:2.0987101 911:-1.0122 912:0.29269299 913:-0.98978001 914:0.843629 915:1.72525 916:-0.144016 917:1.73195 918:0.57641703 919:1.5345 920:1.8941 921:1.56479 922:0.16369399 923:1.15232 924:0.83505201 925:-0.485641 926:1.18054 927:0.059779 928:0.91623002 929:0.75904799 930:1.24753 931:1.17399 932:1.4371099 933:1.73177 934:-1.41271 935:0.233418 936:-0.40883201 937:1.14205 938:-1.86288 939:-0.41933599 940:0.12372 941:-2.6018701 942:1.87428 943:0.160089 944:0.13570599 945:1.13042 946:1.38621 947:1.12713 948:-0.15052 949:1.1289901 950:-0.445342 951:-0.55871898 952:-1.23522 953:-0.20126601 954:-0.029656 955:2.0578401 956:-0.321473 957:-2.50929 958:-1.28499 959:-3.04216 960:-1.04699 961:1.05786 962:-0.38363999 963:-0.37507799 964:-0.0057740002 965:-1.23118 966:1.57149 967:0.38223699 968:0.622805 969:0.81382799 970:1.20345 971:-2.08091 972:1.58084 973:-1.88012 974:0.256567 975:-0.84967703 976:3.3343401 977:-0.99742597 978:-2.3944299 979:0.95390999 980:1.4327101 981:-3.0422399 982:-0.85164797 983:-1.03554 984:-0.059990998 985:0.833951 986:-1.03677 987:1.8527 988:-0.62945801 989:-1.18379 990:0.046156999 991:-0.325739 992:-1.01959 993:1.0614901 994:-0.54379302 995:2.0952201 996:1.75582 997:1.64722 998:0.75737202 999:1.41511 1000:1.20105 1001:-1.10618 1002:-2.07705 1003:-0.031681001 1004:-0.975124 1005:-2.9284599 1006:1.79765 1007:-0.96747601 1008:2.5000501 1009:0.84292197 1010:0.39296001 1011:-2.8008201 1012:-2.4005101 1013:-0.88256598 1014:-2.49089 1015:0.58223099 1016:0.638762 1017:2.1565599 1018:0.079512 1019:-1.3914 1020:1.43665 1021:0.204651 1022:1.68023 1023:0.28997201 1024:1.14632 1025:0.060743999 1026:-1.7958 1027:1.9334199 1028:1.40816 1029:-1.01885 1030:-0.29590899 1031:-3.8251801 1032:-1.18503 1033:0.665627 1034:0.95393199 1035:-0.72666901 1036:0.949247 1037:0.030446 1038:1.05221 1039:0.27145401 1040:-1.14122 1041:0.61522102 1042:-0.88051701 1043:0.60881901 1044:0.072192997 1045:-0.78806502 1046:-3.4019301 1047:0.176377 1048:-1.28127 1049:2.5262401 1050:-0.083021998 1051:1.61347 1052:2.3689699 1053:1.5879101 1054:1.23077 1055:1.1013 1056:0.205172 1057:1.07301 1058:-1.5117 1059:-0.819098 1060:-1.4108 1061:0.75745499 1062:1.47059 1063:-1.15355 1064:-1.35611 1065:2.4017601 1066:1.33884 1067:-2.6406901 1068:2.1877799 1069:1.81592 1070:1.57409 1071:-1.0107501 1072:-0.32668301 1073:-0.32551801 1074:-0.224601 1075:-1.27845 1076:-0.184513 1077:0.88636702 1078:3.0429699 1079:-1.22772 1080:-0.983751 1081:2.1765499 1082:-2.0352399 1083:2.70875 1084:1.04196 1085:0.30903 1086:0.85249698 1087:0.79532599 1088:-1.17398 1089:0.465532 1090:-1.42331 1091:2.0670099 1092:-0.97605401 1093:0.75991797 1094:1.75664 1095:0.82865697 1096:-0.102036 1097:1.53093 1098:-0.50735599 1099:1.61265 1100:-1.57087 1101:-0.278139 1102:2.41488 1103:1.30562 1104:-3.1510601 1105:-2.0470099 1106:0.384197 1107:-0.94438899 1108:1.51253 1109:0.51215601 1110:-1.92145 1111:0.074055001 1112:-2.4021699 1113:2.1302299 1114:-0.41596401 1115:0.245188 1116:-0.90263802 1117:1.57034 1118:0.69009 1119:1.60533 1120:-1.62734 1121:2.9849601 1122:1.80742 1123:1.5779999 1124:-1.99903 1125:-1.5716 1126:-0.81616402 1127:1.65484 1128:-2.51705 1129:1.26992 1130:-0.099788003 1131:1.43633 1132:-0.79810399 1133:1.18806 1134:-2.191 1135:0.89455199 1136:-0.759817 1137:-2.76159 1138:-0.94987398 1139:-1.39183 1140:0.980528 1141:1.16834 1142:-0.120672 1143:0.98033899 1144:-2.4056799 1145:-0.43695399 1146:1.19551 1147:1.13428 1148:0.222802 1149:-0.206064 1150:0.201783 1151:2.9535301 1152:-3.0720999 1153:-0.62504798 1154:0.96480203 1155:1.77619 1156:-1.42133 1157:1.76364 1158:2.4934599 1159:-0.37662399 1160:-0.62782699 1161:0.53629601 1162:-0.351868 1163:1.33687 1164:1.43805 1165:-0.35003 1166:-1.1578 1167:1.70148 1168:-1.5347199 1169:-0.41727099 1170:-2.6091299 1171:1.68417 1172:1.11738 1173:0.280909 1174:-0.321363 1175:2.27367 1176:-0.80501503 1177:-1.5534199 1178:0.18373901 1179:-0.29047599 1180:-0.92969 1181:-1.59934 1182:-2.1249299 1183:0.78441101 1184:-2.28264 1185:0.26545101 1186:-0.31253201 1187:-1.33683 1188:1.00422 1189:1.0899301 1190:-0.98832101 1191:0.360172 1192:-2.41289 1193:0.143897 1194:-2.53142 1195:-1.39817 1196:0.72467101 1197:-0.55965298 1198:1.98965 1199:-0.57431298 1200:-0.159491 1201:0.97934502 1202:0.99492902 1203:0.17735 1204:1.09755 1205:1.1490099 1206:-0.86900401 1207:1.2774301 1208:-1.44857 1209:-0.83106101 1210:-3.3020899 1211:-0.64820403 1212:0.38604501 1213:-2.12658 1214:2.3408899 1215:1.57804 1216:-2.1887901 1217:1.08839 1218:-1.4453599 1219:0.091880001 1220:1.50852 1221:3.5704501 1222:1.68224 1223:-1.12782 1224:0.008382 1225:2.1289599 1226:1.23508 1227:-1.83763 1228:-0.798181 1229:0.90145802 1230:0.86169797 1231:-0.52594101 1232:9.9999997e-006 1233:-0.237682 1234:0.28674001 1235:-0.89029002 1236:0.85593897 1237:-1.46211 1238:1.61378 1239:2.07148 1240:-0.37887299 1241:1.81885 1242:-0.17925499 1243:0.46175399 1244:-0.61289501 1245:-1.29231 1246:-0.58585799 1247:-0.35341999 1248:-1.7962199 1249:1.71737 1250:1.46501 1251:0.17933001 1252:1.39047 1253:0.81806099 1254:-0.165058 1255:2.0769 1256:-1.3106101 1257:-0.19933701 1258:0.790959 1259:1.6153001 1260:-1.20632 1261:-0.80038702 1262:-2.93186 1263:-2.34199 1264:-1.11385 1265:-2.2369499 1266:0.01211 1267:0.101222 1268:0.042036001 1269:-0.85639298 1270:1.09386 1271:-0.91725099 1272:1.29363 1273:1.40855 1274:1.8849 1275:0.162618 1276:-0.57287103 1277:1.12246 1278:-2.0256901 1279:0.50075603 1280:-2.27685 1281:-1.06915 1282:0.117993 1283:-0.191943 1284:-2.53093 1285:1.60369 1286:-2.21576 1287:1.93858 1288:2.4688499 1289:-0.51784497 1290:0.46702999 1291:1.00562 1292:-0.81585902 1293:-0.40954101 1294:2.1663001 1295:1.46864 1296:0.56394601 1297:0.26290399 1298:-0.84470201 1299:1.95415 1300:1.53887 1301:0.334198 1302:1.83126 1303:1.08189 1304:0.044819001 1305:-2.4274099 1306:-1.38495 1307:1.6513 1308:-1.6568 1309:0.92453903 1310:2.8534801 1311:-1.23054 1312:1.2488199 1313:-1.83416 1314:-1.41179 1315:2.11883 1316:0.46907499 1317:1.4516701 1318:1.60585 1319:0.83363599 1320:-0.034795001 1321:1.38133 1322:-0.59525299 1323:-0.77374399 1324:-1.43318 1325:-0.93051898 1326:-0.53910899 1327:0.82768899 1328:0.98487598 1329:1.88191 1330:1.08836 1331:1.35922 1332:-2.90748 1333:1.85704 1334:-1.47967 1335:2.03795 1336:1.6591001 1337:-2.0100801 1338:1.45573 1339:-2.98982 1340:-0.77547997 1341:-2.47492 1342:-0.234111 1343:2.53966 1344:1.9674 1345:1.02088 1346:-0.613006 1347:0.234529 1348:-1.42874 1349:1.47978 1350:0.72818899 1351:1.08082 1352:1.85799 1353:0.66081101 1354:1.40063 1355:0.58857399 1356:1.6378599 1357:0.79634202 1358:-0.264826 1359:0.53984398 1360:0.159352 1361:1.64974 1362:2.2592199 1363:1.9369299 1364:1.48465 1365:0.309903 1366:1.20344 1367:-2.0573699 1368:0.623074 1369:1.07101 1370:1.5930001 1371:1.4207799 1372:-0.95183802 1373:0.72108299 1374:-1.17919 1375:-0.28860101 1376:0.55724698 1377:0.48400801 1378:-3.6742899 1379:1.71272 1380:-0.116507 1381:0.91511899 1382:-2.01071 1383:0.28837299 1384:1.0228601 1385:1.32467 1386:-0.159514 1387:-0.936728 1388:-3.6998701 1389:-1.04684 1390:0.28195399 1391:1.95287 1392:1.68935 1393:1.31722 1394:-0.40575799 1395:1.59192 1396:-0.058261 1397:1.64283 1398:0.18384799 1399:0.82447302 1400:-0.58668602 1401:0.39633 1402:-1.94445 1403:-0.83857101 1404:1.26288 1405:0.410202 1406:-0.66350001 1407:1.32371 1408:1.12642 1409:-1.83406 1410:-0.82602799 1411:-0.66007298 1412:2.18678 1413:-1.7088701 1414:-1.11734 1415:-0.109017 1416:0.50961798 1417:0.29401499 1418:0.276153 1419:-1.45259 1420:1.94131 1421:-0.198284 1422:0.807459 1423:0.74955201 1424:-1.18747 1425:0.62348199 1426:1.11602 1427:-1.68109 1428:-1.81613 1429:0.91446799 1430:-1.5979 1431:-2.40257 1432:-0.701689 1433:1.15759 1434:-0.421314 1435:-2.33535 1436:-2.6207299 1437:-0.32792801 1438:-0.11968 1439:0.55888498 1440:1.88276 1441:1.09385 1442:-2.7389801 1443:-1.14319 1444:-0.68939 1445:0.93760198 1446:1.67758 1447:-1.19168 1448:-0.101267 1449:1.31662 1450:-0.68501502 1451:-1.92743 1452:-1.0992 1453:0.49185199 1454:-1.10721 1455:1.6360101 1456:-0.501679 1457:1.83455 1458:0.79523498 1459:-2.5840199 1460:-2.02719 1461:1.5716799 1462:1.06196 1463:0.166329 1464:-0.997706 1465:-2.0408399 1466:-0.41759899 1467:0.39064401 1468:0.86350298 1469:-2.3087101 1470:-2.8190999 1471:1.5318 1472:0.055553 1473:0.74247402 1474:-2.4560001 1475:0.226987 1476:-1.49793 1477:1.96419 1478:0.97336203 1479:4.0296202 1480:1.94921 1481:-0.21200299 1482:2.0500801 1483:-0.459443 1484:-1.75588 1485:2.06511 1486:-2.76847 1487:-1.01818 1488:0.57189798 1489:-2.5474899 1490:1.79248 1491:-0.46261001 1492:1.80626 1493:-0.462396 1494:-0.24736799 1495:0.028534999 1496:1.01916 1497:2.4242401 1498:-0.96141797 1499:1.74745 1500:1.367 1501:0.96431601 1502:0.351298 1503:1.9707201 1504:0.074841999 1505:1.2876 1506:0.60692197 1507:-0.57869703 1508:-0.23519801 1509:1.99463 1510:-0.88645899 1511:-0.89882398 1512:-1.89666 1513:0.110567 1514:-0.011566 1515:-1.44359 1516:0.123342 1517:1.88781 1518:1.47868 1519:1.21811 1520:0.56619501 1521:0.44152701 1522:0.45314899 1523:0.416448 1524:-2.3434999 1525:1.97431 1526:-0.131624 1527:2.2361801 1528:-3.3933599 1529:1.38828 1530:1.3413 1531:2.0295501 1532:-2.6909399 1533:0.032189 1534:1.06427 1535:-0.783288 1536:0.21878199 1537:-0.372601 1538:-1.4833601 1539:1.18714 1540:1.68855 1541:-1.22737 1542:0.98124802 1543:-0.185366 1544:0.28586701 1545:1.29072 1546:0.21006 1547:0.88529199 1548:0.95775503 1549:-1.41444 1550:-0.231111 1551:-1.1842901 1552:1.21325 1553:0.50086701 1554:0.67888701 1555:-0.317141 1556:-0.38512501 1557:1.25065 1558:-1.00392 1559:1.76713 1560:1.15194 1561:2.7174301 1562:2.1449299 1563:-0.46250299 1564:-1.13901 1565:1.56111 1566:0.513807 1567:-1.13546 1568:1.97434 1569:-0.28518099 1570:-0.905312 1571:0.191522 1572:-1.8736 1573:0.81954402 1574:1.6574 1575:1.39814 1576:-0.700773 1577:1.02908 1578:0.13426 1579:-0.55412698 1580:0.56594402 1581:0.74435103 1582:1.0443799 1583:-0.74010801 1584:2.54984 1585:-0.83152401 1586:-3.1965201 1587:3.27741 1588:0.362225 1589:-0.78669101 1590:1.9211 1591:-0.50008702 1592:0.84866703 1593:0.265865 1594:-2.41366 1595:0.21918 1596:-0.091365002 1597:-1.00352 1598:0.112246 1599:-2.7507 1600:-2.1687601 1601:-1.10189 1602:2.1340699 1603:-0.82318002 1604:-1.93492 1605:0.57558203 1606:2.4863801 1607:-0.082269996 1608:0.31151599 1609:0.40310201 1610:0.543423 1611:-1.0207 1612:2.14061 1613:2.0804501 1614:-2.1496501 1615:0.70212901 1616:-0.51449001 1617:1.78339 1618:0.626513 1619:0.67253703 1620:-0.76750201 1621:-1.9396 1622:1.46517 1623:0.222241 1624:1.79238 1625:0.31045699 1626:-0.94660503 1627:-1.74569 1628:0.50320798 1629:2.1944699 1630:-0.616916 1631:-0.74832201 1632:1.1344 1633:1.32725 1634:-0.81348002 1635:-0.55898798 1636:0.70515001 1637:-1.0597399 1638:1.08095 1639:-2.28897 1640:1.56946 1641:3.5696001 1642:1.97258 1643:0.167806 1644:0.86849099 1645:1.50416 1646:0.59835601 1647:-0.072619997 1648:-1.0293601 1649:-1.14961 1650:-2.8693199 1651:0.050007999 1652:-1.33397 1653:0.681472 1654:-1.43735 1655:1.334 1656:-0.48909399 1657:-0.209692 1658:-0.26505199 1659:-0.918661 1660:0.144609 1661:0.45836201 1662:1.188 1663:1.2512 1664:1.21816 1665:-0.62885499 1666:-0.73767 1667:-3.4168 1668:1.9964 1669:-0.99734998 1670:1.83172 1671:1.04685 1672:0.099298 1673:1.5124 1674:2.0838799 1675:0.34413701 1676:-2.15413 1677:0.81592602 1678:-0.84641701 1679:-0.85767698 1680:-0.31772101 1681:-1.96016 1682:1.77123 1683:0.68707001 1684:0.90834802 1685:1.44122 1686:-2.2477601 1687:2.6328199 1688:1.95549 1689:0.66014302 1690:-0.110247 1691:1.89577 1692:1.33974 1693:1.0429 1694:-0.010121 1695:-0.68752801 1696:-0.62202001 1697:-0.136978 1698:-1.00748 1699:0.89460301 1700:0.48642099 1701:1.35267 1702:1.15503 1703:1.34018 1704:1.81151 1705:0.76813501 1706:-0.32180101 1707:-1.34489 1708:1.73836 1709:1.61685 1710:-2.7283399 1711:-1.99993 1712:-0.35291001 1713:0.776124 1714:0.25173801 1715:-0.296397 1716:-0.0231 1717:-0.65126699 1718:2.2518301 1719:1.60139 1720:0.18292899 1721:-1.4779299 1722:-0.83105397 1723:-2.80792 1724:-1.04154 1725:1.53927 1726:-1.26428 1727:-0.460116 1728:1.30497 1729:2.0595801 1730:-0.74153101 1731:-2.52089 1732:-0.22003201 1733:0.41619101 1734:0.93457597 1735:-3.10987 1736:-1.90523 1737:0.343178 1738:-0.54336298 1739:0.72883999 1740:1.94516 1741:1.03099 1742:-0.96131098 1743:-0.51925898 1744:2.58266 1745:1.54343 1746:0.46463901 1747:-1.21287 1748:-0.0042400002 1749:-0.44047701 1750:-2.34445 1751:0.070208997 1752:1.21535 1753:1.94594 1754:1.45995 1755:-1.14358 1756:1.33682 1757:1.2874399 1758:-0.41508999 1759:1.24655 1760:-2.75091 1761:0.28703099 1762:1.3891 1763:0.64246303 1764:0.274555 1765:-1.54137 1766:0.39222401 1767:1.53021 1768:-2.0973201 1769:0.78634399 1770:-1.49834 1771:-0.520239 1772:-1.1298 1773:-0.315512 1774:1.03172 1775:-0.155229 1776:0.52109402 1777:1.22339 1778:0.53815103 1779:-0.38061401 1780:-0.62771302 1781:0.29734799 1782:0.38970801 1783:1.51713 1784:-0.40129501 1785:-0.49125999 1786:0.47691399 1787:-0.462248 1788:1.79003 1789:-1.77284 1790:-0.049405999 1791:0.36626399 1792:-0.160197 1793:0.67512202 1794:0.237111 1795:1.2592601 1796:1.84226 1797:1.00041 1798:-3.7295799 1799:-2.1898 1800:-2.21262 1801:0.89959002 1802:-1.17337 1803:-3.0241399 1804:-0.74119699 1805:1.11663 1806:-0.313384 1807:-0.40509599 1808:-0.45550901 1809:0.73389202 1810:-0.073324002 1811:1.3163 1812:0.66487098 1813:0.43091401 1814:2.0644901 1815:-1.4678299 1816:0.86893499 1817:2.2289901 1818:0.98939198 1819:-0.62298298 1820:2.0980201 1821:-1.57368 1822:-0.58241898 1823:-0.28452799 1824:1.72339 1825:0.322265 1826:0.245526 1827:1.2148401 1828:1.86439 1829:1.2326601 1830:0.73456103 1831:-1.95942 1832:0.951217 1833:-1.3658299 1834:0.61547399 1835:0.199839 1836:-1.41742 1837:0.172153 1838:1.0048701 1839:0.39758399 1840:1.38649 1841:-1.6421601 1842:1.04522 1843:-0.202171 1844:1.59794 1845:1.63711 1846:1.0900199 1847:1.33655 1848:-0.47604001 1849:-1.77018 1850:0.024517 1851:1.88083 1852:1.758 1853:1.23949 1854:1.01245 1855:0.945467 1856:0.493821 1857:0.361119 1858:0.17997099 1859:0.79199803 1860:-0.99095899 1861:-0.829494 1862:-0.027059 1863:-0.450212 1864:1.92549 1865:0.28684101 1866:1.2393301 1867:-1.98103 1868:1.57652 1869:-1.14527 1870:0.603176 1871:-4.2024798 1872:-0.167179 1873:-1.53914 1874:-0.022498 1875:0.22650801 1876:2.5207801 1877:-2.6540799 1878:1.3148299 1879:-1.00576 1880:0.84903997 1881:-2.6922801 1882:-3.5764401 1883:1.11482 1884:-0.07141 1885:-0.29862899 1886:-0.260333 1887:-1.98869 1888:-0.14699399 1889:1.1143 1890:-0.67167401 1891:1.59444 1892:-0.73656303 1893:2.2579401 1894:0.47379601 1895:-1.5863301 1896:-1.79211 1897:-1.22744 1898:-0.83073503 1899:0.65720898 1900:-0.58582002 1901:1.47214 1902:1.85861 1903:0.57864499 1904:-0.64451301 1905:0.71274102 1906:0.071730003 1907:1.00605 1908:-2.02825 1909:0.93185002 1910:-0.62139398 1911:0.63360202 1912:-3.0176599 1913:0.81563097 1914:0.97760701 1915:-1.97392 1916:2.8422401 1917:0.96768701 1918:-2.62588 1919:2.477 1920:-0.93767101 1921:1.16952 1922:0.253741 1923:-1.02828 1924:0.038120002 1925:-0.194157 1926:1.70943 1927:2.87795 1928:1.6315399 1929:-0.77011299 1930:-0.56904799 1931:2.003 1932:0.54818201 1933:1.06337 1934:-0.58566803 1935:-0.64153498 1936:-0.794833 1937:1.2339 1938:1.54539 1939:-1.71925 1940:1.28461 1941:-0.50663698 1942:-2.5425701 1943:-0.609595 1944:-2.55862 1945:0.69993699 1946:-0.71389103 1947:0.67022097 1948:1.68823 1949:1.08233 1950:0.82488 1951:0.57437998 1952:2.11268 1953:1.60996 1954:1.65139 1955:1.7873 1956:-1.52765 1957:0.45848101 1958:-0.823098 1959:-0.68239099 1960:0.520742 1961:-0.198881 1962:1.02481 1963:-0.19901501 1964:2.39924 1965:-1.37138 1966:0.918432 1967:0.91506898 1968:1.52835 1969:1.60982 1970:2.5550001 1971:0.035147998 1972:0.269728 1973:0.76986301 1974:0.50650001 1975:1.61973 1976:0.77262998 1977:-0.114728 1978:-2.03617 1979:-1.5051399 1980:0.56485403 1981:-0.526384 1982:2.026 1983:-0.29776999 1984:-0.78623003 1985:0.686396 1986:-0.094782002 1987:-2.1553299 1988:0.42115799 1989:1.40962 1990:-0.13348 1991:1.24297 1992:1.23016 1993:-2.039 1994:2.3660901 1995:0.820656 1996:1.4045 1997:0.17686 1998:-0.086285003 1999:-0.39087799 2000:-0.089465 #
-0.0004243437310041996 1:-1.0189 2:0.51108003 3:0.75564098 4:1.0138201 5:0.529899 6:0.16044 7:-0.087054998 8:1.29529 9:0.458736 10:0.714082 11:0.72728997 12:1.5585001 13:1.34043 14:0.48690501 15:0.87619001 16:0.502442 17:-0.657175 18:1.14 19:0.104323 20:1.27885 21:-1.2052701 22:1.25423 23:-0.02423 24:0.43525901 25:1.1321501 26:0.71679401 27:1.60996 28:0.62233198 29:0.26884401 30:-0.128929 31:1.24886 32:-0.133293 33:-0.85166401 34:-0.0047490001 35:1.48987 36:-1.8145 37:0.156711 38:-0.67702699 39:-0.86501998 40:-0.86501998 41:-0.86501998 42:-0.86501998 43:1.5421 44:-0.42138499 45:0.98469198 46:-1.46755 47:0.540824 48:0.39436999 49:0.85481101 50:0.041680001 51:0.041680001 52:0.041680001 53:0.041680001 54:1.66083 55:-0.84171999 56:0.71075499 57:0.37481201 58:-0.210729 59:-1.4047199 60:0.50468802 61:1.07296 62:2.1412301 63:-2.34905 64:0.39075199 65:-0.28714901 66:0.012152 67:0.25969499 68:0.678433 69:1.12227 70:0.062789999 71:0.45919999 72:0.27632201 73:-0.1437 74:1.1766 75:-0.475822 76:0.59139103 77:0.39998099 78:0.38712499 79:1.02554 80:1.06023 81:0.048863001 82:1.68243 83:0.32326001 84:0.995336 85:1.14429 86:0.28231999 87:0.207054 88:0.36726999 89:1.84363 90:1.70757 91:0.39243701 92:-0.76357299 93:0.300309 94:-0.50236899 95:1.42037 96:1.36524 97:1.2057101 98:-2.59482 99:0.36076301 100:0.24473099 101:0.101328 102:-1.66135 103:0.35142899 104:0.83686101 105:0.72365701 106:0.373602 107:-0.054575998 108:0.62386602 109:0.78249902 110:1.3376499 111:0.28532401 112:0.39282399 113:0.73726398 114:0.97289503 115:-0.532116 116:-0.042281002 117:-0.28229401 118:-0.019902 119:0.92756599 120:0.289211 121:-1.37872 122:1.2156301 123:0.43265501 124:0.130137 125:-1.29994 126:0.021519 127:1.03063 128:0.869133 129:1.37455 130:-0.29348201 131:0.35713899 132:0.362928 133:-0.10516 134:-0.83413398 135:0.68443203 136:-0.213359 137:-0.35220701 138:0.50005698 139:0.49809101 140:-1.83997 141:0.33344001 142:0.22436 143:-0.538091 144:0.90995997 145:0.46070999 146:1.63687 147:-0.89022499 148:-0.085551001 149:-0.99539202 150:0.060977999 151:1.16611 152:-0.18265 153:0.192801 154:-0.121766 155:0.468454 156:-0.37650901 157:-0.62100601 158:0.85098702 159:0.67656499 160:-1.05147 161:0.41043201 162:0.25165299 163:1.48606 164:-0.095100999 165:0.29987901 166:0.190282 167:0.73619801 168:1.38279 169:-0.208103 170:0.63966298 171:0.55382103 172:0.43232599 173:0.273431 174:1.08564 175:-0.104087 176:1.6929801 177:-0.0069670002 178:-1.1901799 179:0.81588298 180:0.29530701 181:-0.203509 182:0.30816001 183:-1.33255 184:0.66035903 185:-0.56631202 186:0.55226099 187:2.7140501 188:-0.88269597 189:-0.089893997 190:1.69733 191:0.194655 192:0.241496 193:1.25791 194:0.221379 195:1.64906 196:0.55342102 197:1.5442801 198:-1.38563 199:0.015794 200:1.37754 201:-0.60477102 202:0.185413 203:-0.61324602 204:0.43297499 205:-1.50367 206:-0.223689 207:-0.65469199 208:-0.45601699 209:0.27010801 210:-1.36839 211:0.672014 212:0.117917 213:1.23593 214:-1.28116 215:1.61044 216:1.28938 217:1.66496 218:0.498393 219:-0.59167898 220:1.19401 221:0.51580501 222:-1.74787 223:1.12576 224:0.586227 225:-1.01783 226:-1.51419 227:1.34843 228:1.29962 229:-0.81764501 230:0.98839599 231:0.30750501 232:-2.8097601 233:0.86928302 234:0.099662997 235:-0.58230901 236:-0.38777301 237:1.29985 238:1.28556 239:-0.694166 240:1.73752 241:0.45603499 242:0.498593 243:-0.036242001 244:0.058878999 245:0.26251099 246:-0.189794 247:-0.73268503 248:1.46346 249:0.168165 250:-0.33754501 251:1.0797 252:-0.94052899 253:-1.59822 254:0.422824 255:0.000635 256:1.15978 257:0.073282003 258:0.92372102 259:1.21736 260:-1.13999 261:-1.13999 262:-1.13999 263:-1.13999 264:1.0387501 265:1.03044 266:-0.92277801 267:0.135833 268:-0.77568299 269:-0.40813401 270:-0.96995902 271:-0.38099101 272:0.87061799 273:-1.14294 274:2.9008601 275:0.25840801 276:-0.16865601 277:1.43722 278:-1.71052 279:-0.392147 280:1.55065 281:2.9321599 282:-1.23036 283:0.68940598 284:-0.96010703 285:0.579355 286:0.062781997 287:-0.35083899 288:0.110616 289:0.45423201 290:-0.45406201 291:-0.61921197 292:-1.9022599 293:-2.27195 294:-0.529073 295:0.056263 296:0.13856 297:1.04931 298:0.99365699 299:0.24085601 300:-0.271882 301:0.37241399 302:-0.39412099 303:0.59430301 304:-0.618828 305:-0.85821402 306:0.86818802 307:-1.20329 308:-0.00074400002 309:0.122673 310:0.13814899 311:-0.53778702 312:0.557625 313:0.27813399 314:-1.53137 315:0.027851 316:0.127821 317:0.180453 318:-1.18531 319:0.874084 320:0.099344 321:-0.59411401 322:-0.469585 323:-0.58321398 324:0.917943 325:0.33552 326:1.3330801 327:0.76989502 328:0.294341 329:-1.00793 330:0.20243099 331:-0.413598 332:0.53317398 333:0.019017 334:-0.71027899 335:-0.114752 336:-0.183909 337:0.73661101 338:1.267 339:-0.93920797 340:-0.97190702 341:0.040047999 342:0.58003199 343:-0.333262 344:-1.10455 345:0.36419901 346:-0.81680501 347:-0.084591001 348:-0.068424001 349:0.78258401 350:-0.053773999 351:0.462522 352:-0.36953101 353:0.036161002 354:0.291758 355:0.43129 356:-1.62035 357:0.79216599 358:-0.40541399 359:0.55639899 360:0.74667603 361:0.81982499 362:-1.41526 363:0.027522 364:0.66489601 365:0.31841901 366:1.76976 367:1.0351501 368:0.34647599 369:1.1400599 370:0.137217 371:0.441517 372:-0.122595 373:-0.29561001 374:-0.66916603 375:0.183622 376:0.30654299 377:-1.19735 378:-2.47806 379:0.88679397 380:1.2654001 381:0.93720299 382:-1.40637 383:-1.25773 384:0.85856199 385:0.78622401 386:1.30153 387:0.327649 388:0.68808103 389:1.2914701 390:-0.19625901 391:0.074773997 392:1.3459001 393:0.27776599 394:0.36277899 395:-0.69405001 396:1.22943 397:0.095362999 398:0.53983498 399:1.03495 400:-1.1264 401:-0.51358998 402:-1.97522 403:-0.65990502 404:-0.57236302 405:0.67307901 406:-0.66377801 407:0.52040499 408:-0.96383798 409:0.93071902 410:0.23322 411:-0.076038003 412:1.69347 413:-0.092258997 414:0.256479 415:-0.183461 416:0.0047149998 417:1.40516 418:0.25561899 419:0.85891902 420:-0.26317501 421:0.49840701 422:0.70209903 423:0.67478102 424:0.219965 425:1.6706899 426:-0.172722 427:0.71872902 428:-1.35147 429:-0.539092 430:-0.42439401 431:0.038423002 432:1.86242 433:0.041239001 434:0.09866 435:0.66185802 436:-1.67996 437:0.32389501 438:-0.91992599 439:-1.69016 440:-0.174468 441:0.02613 442:1.13458 443:0.97105598 444:0.97982401 445:0.114094 446:-1.07716 447:-1.08365 448:-1.31714 449:0.487582 450:-0.159307 451:0.96985698 452:-0.82525098 453:1.13544 454:0.43024099 455:0.89102799 456:0.78345001 457:0.63902599 458:-0.124719 459:-0.29776201 460:1.34645 461:0.46421301 462:-0.91494203 463:0.58100301 464:0.20900001 465:-0.131899 466:0.134791 467:1.42902 468:0.798715 469:0.78744799 470:0.70376003 471:-1.09592 472:0.29425001 473:1.04931 474:-0.72182202 475:-1.5453399 476:1.48631 477:0.081018001 478:-0.49443001 479:1.5577101 480:1.01544 481:-1.65994 482:0.49461401 483:-0.33241799 484:-0.108381 485:0.30879101 486:1.2111501 487:1.4861701 488:-0.56621999 489:-1.08421 490:-0.22658999 491:0.98888499 492:0.063747004 493:-0.63584 494:-0.91332 495:0.393006 496:-0.99817699 497:0.968391 498:1.60954 499:1.27767 500:0.28993201 501:0.98506498 502:1.33594 503:0.37556401 504:0.083062999 505:0.225741 506:-0.74677998 507:0.223794 508:0.67980999 509:-0.49616599 510:0.39948899 511:-1.4885401 512:1.12767 513:1.4821301 514:-0.74012101 515:-0.41057801 516:0.64242899 517:-0.49395499 518:0.94960898 519:-1.3952 520:-0.77324599 521:-0.79508501 522:-0.233689 523:1.14048 524:0.749304 525:0.98242003 526:0.25465101 527:-1.06268 528:-0.44302699 529:-0.413008 530:1.26218 531:-0.418107 532:0.155845 533:0.022643 534:1.11333 535:0.081958003 536:-0.47367501 537:0.14488 538:0.97204697 539:-0.074938998 540:-1.79303 541:0.30609101 542:1.55651 543:1.10982 544:0.68322599 545:-0.43828201 546:1.08556 547:0.677737 548:0.14378799 549:-0.35239401 550:0.001135 551:0.57608998 552:0.77483302 553:0.46863401 554:-0.47412601 555:-0.167649 556:1.32762 557:-0.047334999 558:0.85834199 559:-0.055546999 560:0.20005099 561:0.130823 562:0.222571 563:0.36060899 564:-0.58915001 565:-0.40268099 566:0.82636899 567:0.94549203 568:0.55305398 569:0.6778 570:-0.389761 571:0.69215697 572:0.566728 573:0.51979297 574:0.208388 575:0.71483397 576:0.133956 577:-0.195336 578:-0.184009 579:0.041650001 580:2.2479801 581:-0.104955 582:-0.29309401 583:1.1281199 584:0.265986 585:-0.76151103 586:-0.164114 587:1.0030299 588:0.29218799 589:-0.71161598 590:0.73176599 591:-2.3122399 592:1.1178401 593:-0.67016399 594:0.139827 595:0.75413901 596:0.407083 597:0.83861399 598:-1.0855 599:0.029673999 600:0.092977002 601:-0.75119001 602:0.042594001 603:0.66815698 604:0.27650401 605:-0.98073202 606:0.753977 607:0.56000298 608:0.91136402 609:0.330255 610:0.144379 611:0.164681 612:-0.77584499 613:-0.90217203 614:0.42589799 615:-1.0141 616:-0.45871499 617:0.984451 618:0.77039897 619:1.35277 620:0.85637498 621:-0.38384101 622:-0.047115002 623:-1.42977 624:0.264052 625:-0.44268599 626:-0.13744 627:-0.031957999 628:0.49814501 629:0.14019801 630:1.98149 631:-1.38001 632:-1.92272 633:0.44495699 634:0.81200802 635:0.91398501 636:0.35147899 637:-1.45234 638:0.38247699 639:0.47890499 640:0.382038 641:0.53454798 642:-0.80738199 643:-0.30764499 644:0.15529899 645:0.67106599 646:1.2828701 647:0.38664201 648:-0.25171399 649:-0.162935 650:0.69583499 651:-0.25322899 652:1.00142 653:0.10172 654:-0.55966598 655:0.62432098 656:-0.49731401 657:0.96170598 658:1.45189 659:-1.56973 660:-1.035 661:-0.112336 662:-0.0058280001 663:-1.77599 664:-0.426815 665:-0.50391901 666:-1.27877 667:-0.27940199 668:0.023565 669:1.00482 670:0.69216001 671:-0.35799301 672:-0.34154701 673:0.25447801 674:-1.40302 675:0.38217399 676:-0.271815 677:-0.088256001 678:-1.16065 679:-0.53117198 680:-1.03628 681:0.422481 682:0.27072999 683:1.44055 684:-0.52079898 685:-0.35516101 686:1.10498 687:-0.074123003 688:0.92156303 689:-1.1429501 690:0.58940601 691:-1.52415 692:-0.427398 693:-0.051839001 694:0.77212399 695:-0.38477799 696:0.22337399 697:1.08125 698:0.148086 699:-1.04529 700:-0.68867397 701:-0.032908998 702:0.100739 703:-0.60681498 704:-0.213842 705:0.60519999 706:-1.4147 707:-0.504893 708:0.090603001 709:-0.25370499 710:0.243798 711:1.0130399 712:-0.87248302 713:0.37825799 714:-2.1984 715:0.66827703 716:0.074392997 717:-0.62694699 718:0.46240601 719:-0.090663001 720:-0.30559501 721:-1.04194 722:-0.59763598 723:0.50410199 724:-0.103941 725:0.34482399 726:0.26224601 727:1.48195 728:0.16037101 729:0.73967099 730:-0.39591599 731:-0.86031801 732:-0.351125 733:0.38896301 734:-1.19482 735:-1.21114 736:0.87710702 737:-1.47288 738:1.0901 739:-0.75444001 740:-1.56189 741:-0.341445 742:0.68037099 743:0.163885 744:-0.33076701 745:0.85203898 746:0.17462499 747:0.90660203 748:-2.58887 749:-1.9569 750:0.00182 751:-0.49731001 752:-0.82782203 753:-0.229928 754:0.16623899 755:0.91664499 756:0.30892 757:0.72640902 758:-1.4857301 759:0.60473502 760:-0.432888 761:0.025758 762:-1.3468601 763:-0.68692899 764:-1.61774 765:0.46504599 766:-1.78997 767:0.073391996 768:0.67017299 769:0.73247898 770:-0.41240799 771:-0.25297999 772:0.45059299 773:0.27967301 774:-0.84575999 775:0.85400802 776:1.2769099 777:-0.98484403 778:0.047995999 779:-0.47291499 780:0.74321598 781:0.383863 782:0.69509298 783:0.42575899 784:-1.30723 785:0.6304 786:0.75697601 787:-0.834741 788:-0.579759 789:-0.715725 790:-0.090383999 791:-0.73727602 792:-1.733 793:0.001833 794:-0.71743 795:0.017352 796:-0.88156801 797:-0.749551 798:0.089146003 799:1.48658 800:0.031955 801:-0.47030899 802:-1.30551 803:-0.213946 804:1.05402 805:-0.180509 806:-0.63371199 807:-0.4612 808:-1.52503 809:1.22484 810:-1.23362 811:0.44059801 812:0.088991001 813:0.432322 814:0.010565 815:-0.149771 816:-0.34575301 817:0.44039699 818:-0.71776098 819:0.77158302 820:0.012006 821:0.048021998 822:-0.210693 823:0.234832 824:-0.091542996 825:0.41280001 826:0.72543597 827:-0.33379 828:-1.7609 829:0.443618 830:-0.51070899 831:-0.90130001 832:-0.60625899 833:0.191429 834:-0.89588898 835:-0.18031199 836:1.07323 837:0.55938298 838:0.030479001 839:0.598526 840:0.29623899 841:0.101216 842:-0.33274001 843:-0.14861301 844:0.33191001 845:-0.81366599 846:-1.16237 847:0.177154 848:-0.200168 849:-1.91848 850:-0.34424001 851:-1.9975801 852:0.282601 853:-0.286607 854:1.35437 855:-1.17431 856:0.35534301 857:1.03631 858:0.81471598 859:-1.64131 860:-0.060929 861:-0.28883201 862:0.44992 863:-0.101431 864:0.25680801 865:-0.334095 866:0.39408699 867:-0.75920999 868:1.7315 869:1.0352 870:-0.79784501 871:-0.29797101 872:-0.87022102 873:0.74349099 874:0.033448 875:0.754475 876:0.89596599 877:1.6655 878:0.637963 879:-0.197864 880:-2.0936201 881:-1.76899 882:0.25656 883:-1.11757 884:0.26826501 885:0.056898002 886:-0.59307802 887:-0.146672 888:0.098190002 889:0.28273699 890:-0.59941101 891:-0.41203499 892:0.230257 893:-0.205153 894:0.20404699 895:0.039790001 896:-0.283232 897:-1.35887 898:0.02943 899:0.56303102 900:0.144408 901:-1.5405101 902:-0.147347 903:-0.71537298 904:-0.42942399 905:0.205337 906:-1.087 907:0.26142699 908:0.279176 909:1.00236 910:0.010581 911:0.695382 912:-0.28413999 913:0.445122 914:-0.15600599 915:-0.24869099 916:-0.77457899 917:0.172406 918:-1.38669 919:0.38535699 920:1.5490201 921:1.54239 922:0.77859002 923:0.46688801 924:-0.054972999 925:-0.57318598 926:1.28067 927:0.80015802 928:-0.284062 929:-0.27603501 930:-0.50555402 931:0.149672 932:-0.096317001 933:0.111467 934:-0.85827303 935:0.73116797 936:-0.23978101 937:0.68398303 938:0.971219 939:-1.20959 940:0.154275 941:-0.487528 942:0.14910001 943:1.90685 944:0.696325 945:0.417624 946:-0.107987 947:0.62314302 948:-1.06249 949:0.348573 950:-0.097603999 951:-2.6830101 952:0.45015201 953:-1.19322 954:-0.56594199 955:-0.75076997 956:-0.87195599 957:1.45775 958:0.470613 959:0.115305 960:-0.53261399 961:0.53474897 962:0.701958 963:1.3194 964:-0.236764 965:0.471459 966:0.215565 967:0.52450597 968:-0.53026801 969:-1.37207 970:-0.124402 971:1.62043 972:-0.55763602 973:-1.02016 974:0.60411203 975:0.503501 976:-0.033085 977:-0.95577198 978:0.83784401 979:-0.594109 980:1.09381 981:-0.104398 982:-1.58544 983:-0.381239 984:-0.494634 985:0.17922901 986:-0.737104 987:0.31560099 988:-1.50348 989:0.72120303 990:-0.65944701 991:0.087920003 992:0.075030997 993:-0.149178 994:0.35154799 995:-0.078598998 996:-0.31064999 997:1.5841 998:-0.31213501 999:1.31999 1000:0.308662 1001:-0.89267099 1002:1.2584701 1003:-0.33296999 1004:-0.394748 1005:1.74994 1006:0.14579099 1007:0.107812 1008:-0.52987099 1009:-0.85649699 1010:0.69934601 1011:-0.767775 1012:0.242277 1013:-0.10059 1014:-0.18726701 1015:-0.66430497 1016:0.50078201 1017:0.35911801 1018:-0.830715 1019:-0.33955401 1020:0.49603999 1021:1.0686899 1022:-0.36368901 1023:0.77060997 1024:0.47824699 1025:-0.36489201 1026:-1.39836 1027:0.096492998 1028:-0.99023199 1029:-0.32813099 1030:0.681732 1031:1.06494 1032:0.524665 1033:0.039804999 1034:1.38835 1035:0.197676 1036:0.505162 1037:2.94295 1038:-1.04942 1039:1.40915 1040:-2.80145 1041:-2.41084 1042:1.4576499 1043:-0.25465 1044:-0.403005 1045:-0.88178998 1046:1.67067 1047:-0.67959398 1048:-0.54341298 1049:-1.46067 1050:1.0126899 1051:-0.53827798 1052:-0.37730399 1053:0.026315 1054:0.86740899 1055:0.50453597 1056:-0.27450201 1057:0.81206298 1058:0.097544998 1059:-0.00057199999 1060:0.170895 1061:-0.195876 1062:0.528265 1063:0.59790301 1064:-1.1717401 1065:0.130263 1066:0.445838 1067:0.71142298 1068:0.74499601 1069:0.41666901 1070:1.10274 1071:1.2836 1072:-1.9565099 1073:-0.91680199 1074:1.27902 1075:-0.81620198 1076:-0.425955 1077:0.96195 1078:0.1691 1079:-0.70786297 1080:-0.76920801 1081:0.041878998 1082:0.247486 1083:0.25679299 1084:-1.1555099 1085:-0.52576399 1086:-0.50542098 1087:0.130418 1088:-0.39200199 1089:-0.194646 1090:-0.22451399 1091:-0.101329 1092:1.08137 1093:-0.71976101 1094:1.30923 1095:-0.73873901 1096:-0.614663 1097:0.32508501 1098:1.36905 1099:-1.15496 1100:0.536497 1101:-1.73007 1102:0.103027 1103:-1.70262 1104:1.3158799 1105:0.573614 1106:1.40538 1107:-0.33658001 1108:0.60576302 1109:-0.939183 1110:1.11183 1111:-0.20800599 1112:0.44519901 1113:-0.80521399 1114:-1.19947 1115:0.642919 1116:1.39302 1117:-0.157214 1118:0.53281897 1119:0.363325 1120:-0.41280001 1121:-1.3248301 1122:0.71877599 1123:-0.135885 1124:0.246563 1125:1.56738 1126:-1.24687 1127:-0.15697099 1128:0.64975703 1129:-1.3124501 1130:0.72695899 1131:-0.488673 1132:-0.19309101 1133:-1.18042 1134:0.042597 1135:-0.38389301 1136:-0.93476099 1137:-0.35065299 1138:-0.60659099 1139:0.71708 1140:-0.78113699 1141:-1.07883 1142:0.93072301 1143:0.043853 1144:-0.63677698 1145:1.3049901 1146:-1.83204 1147:-0.88514 1148:-1.04318 1149:-1.4509701 1150:0.20142099 1151:-0.103354 1152:0.31792 1153:0.413872 1154:-0.63813603 1155:0.56147599 1156:0.202178 1157:0.69458503 1158:-0.47757301 1159:0.497628 1160:2.9637899 1161:0.243624 1162:-3.47664 1163:-0.066339001 1164:-0.0047240001 1165:-0.47772199 1166:-0.17796899 1167:0.175625 1168:0.26046699 1169:0.71475601 1170:0.13803899 1171:-0.59452099 1172:-1.04254 1173:-2.26105 1174:0.179497 1175:-0.261902 1176:-0.71901101 1177:-0.551211 1178:-0.403413 1179:0.573349 1180:-0.234751 1181:0.493027 1182:0.39664501 1183:-0.345523 1184:-0.61304402 1185:0.392667 1186:-0.21198399 1187:0.12673 1188:-0.80071598 1189:0.97497499 1190:-0.46374601 1191:-0.063010998 1192:-1.05887 1193:-1.41272 1194:0.086488001 1195:-0.045170002 1196:-0.018665001 1197:-0.37726399 1198:0.095716998 1199:0.59340602 1200:-0.385461 1201:-0.15222999 1202:0.197053 1203:0.60262102 1204:-0.65367103 1205:-0.165507 1206:-0.022159999 1207:-0.017603001 1208:0.1446 1209:0.120791 1210:-0.42319599 1211:-0.494149 1212:-0.56209397 1213:-0.46112201 1214:-0.94245702 1215:0.395558 1216:1.03101 1217:-0.32492399 1218:0.176772 1219:0.52187198 1220:-0.047423001 1221:0.53824103 1222:0.30356801 1223:-0.75811797 1224:-0.95688701 1225:0.31063601 1226:-0.79856998 1227:0.47545901 1228:-2.724 1229:0.18183599 1230:-1.1332 1231:-1.5839601 1232:-0.88701999 1233:0.79105002 1234:-0.060784999 1235:-0.83179802 1236:0.71944898 1237:-1.08842 1238:-0.60636097 1239:-0.28310099 1240:-0.35817 1241:-0.46755001 1242:-0.78380299 1243:0.66633803 1244:0.088712998 1245:0.25965199 1246:0.166719 1247:0.47537401 1248:0.117666 1249:-1.07753 1250:-0.88595802 1251:0.692002 1252:-0.37942401 1253:-0.41503599 1254:1.12906 1255:-1.17529 1256:0.68799597 1257:-0.43424901 1258:-0.074648 1259:-0.98680598 1260:-1.45296 1261:-0.150298 1262:2.3466499 1263:0.121864 1264:-0.317444 1265:-0.006916 1266:0.94009799 1267:0.73476499 1268:-0.29049599 1269:-0.177595 1270:0.150613 1271:0.94532299 1272:-0.52583802 1273:0.083742 1274:0.31479901 1275:1.20218 1276:-0.37608701 1277:0.32817599 1278:0.110081 1279:-0.57330102 1280:-1.27308 1281:-1.93275 1282:-0.0052780001 1283:0.50058699 1284:0.88331002 1285:-0.98409498 1286:1.38565 1287:-0.81012201 1288:-0.82328999 1289:0.166641 1290:0.17911001 1291:-1.01872 1292:0.186405 1293:-0.76953399 1294:-0.37265301 1295:0.50650197 1296:-1.44554 1297:0.51810002 1298:0.67450798 1299:0.50813597 1300:-0.64025199 1301:-1.31723 1302:-0.012737 1303:-0.31621599 1304:0.69797498 1305:1.06222 1306:-1.13676 1307:-1.15696 1308:0.34772801 1309:-0.84796298 1310:-1.3249201 1311:0.34947801 1312:-0.884893 1313:0.27998701 1314:0.76268703 1315:0.77332401 1316:-0.39416799 1317:0.830742 1318:0.512155 1319:-3.1749001 1320:1.70467 1321:1.01451 1322:-0.88334 1323:-0.56768101 1324:0.66804302 1325:0.239274 1326:0.177275 1327:-1.75001 1328:0.988397 1329:0.010977 1330:-0.87064803 1331:-0.79655498 1332:0.046110999 1333:-1.06723 1334:0.702272 1335:0.026148001 1336:0.90936601 1337:-0.45421401 1338:0.202885 1339:1.08821 1340:-0.150934 1341:0.242649 1342:-0.082160003 1343:0.92109501 1344:-0.401824 1345:1.29159 1346:0.80577898 1347:-0.320333 1348:-0.037668001 1349:-0.174815 1350:0.045419998 1351:0.825849 1352:1.16807 1353:-1.7696199 1354:-0.14487199 1355:0.39784399 1356:-0.63222897 1357:-0.15846901 1358:-1.59618 1359:-0.55397302 1360:-0.822528 1361:0.427405 1362:0.19454899 1363:-0.50481498 1364:-0.095737003 1365:-0.633609 1366:-0.223938 1367:0.76111102 1368:-0.52477098 1369:-0.57065099 1370:-0.56884098 1371:-0.44038999 1372:-2.81002 1373:1.1689 1374:-0.65343201 1375:-0.73687702 1376:-0.73484999 1377:-0.34361899 1378:0.87527698 1379:-0.64187002 1380:1.84118 1381:0.97714102 1382:0.832699 1383:-0.68239301 1384:1.0217299 1385:0.82099003 1386:-1.08367 1387:-0.642079 1388:1.05278 1389:0.95721602 1390:-0.67969102 1391:0.034352999 1392:-0.038013998 1393:-0.18828601 1394:-0.73099899 1395:-0.35965201 1396:-0.87771797 1397:1.06365 1398:0.948578 1399:-0.028902 1400:-0.019951001 1401:0.57307398 1402:-1.39094 1403:-1.1492 1404:0.99608999 1405:-1.0473599 1406:-0.69603997 1407:-0.107067 1408:-0.065892003 1409:0.32775301 1410:0.46741301 1411:-0.62174898 1412:-0.90638101 1413:-1.42749 1414:0.448843 1415:0.30604199 1416:0.85929501 1417:0.066802002 1418:0.32489401 1419:1.29232 1420:-1.32166 1421:-0.73541498 1422:0.37846601 1423:-0.29878199 1424:-0.75000399 1425:1.77147 1426:0.43018699 1427:-0.27444401 1428:1.12722 1429:-2.52494 1430:0.467859 1431:0.63094002 1432:0.31502301 1433:-0.10311 1434:-1.25931 1435:-1.3479199 1436:0.54170102 1437:-0.640571 1438:-1.15965 1439:0.123466 1440:0.32263499 1441:0.18156201 1442:-0.153817 1443:-0.45377401 1444:-0.146935 1445:0.045097001 1446:-0.47342101 1447:-0.307677 1448:-0.70536798 1449:-1.01893 1450:-0.82941401 1451:-0.368065 1452:-0.369625 1453:0.21283799 1454:0.47577399 1455:0.87263501 1456:0.090042002 1457:-0.26911101 1458:-1.13792 1459:0.39935601 1460:0.57086301 1461:0.81047499 1462:0.63802397 1463:1.03573 1464:0.27426299 1465:-1.48655 1466:0.731902 1467:-0.30289301 1468:-1.58753 1469:-0.53608203 1470:1.6238101 1471:-1.5113 1472:-0.882707 1473:0.19971199 1474:-0.35732099 1475:0.88233101 1476:-0.449525 1477:0.421426 1478:1.21176 1479:0.64221501 1480:-0.064139001 1481:0.89767998 1482:0.439533 1483:-2.34478 1484:0.39589199 1485:0.39874601 1486:-0.72900301 1487:-0.35119501 1488:-0.206991 1489:-0.20303901 1490:-0.77714002 1491:-2.1695299 1492:0.75179398 1493:-0.135809 1494:-0.066241004 1495:0.46936399 1496:1.5400701 1497:0.30363199 1498:0.76653397 1499:-0.79741502 1500:-1.09321 1501:-1.0699199 1502:0.313115 1503:0.88628101 1504:-0.32531899 1505:0.52293998 1506:-0.81463999 1507:-1.20171 1508:-0.63640702 1509:-1.08907 1510:-1.7546099 1511:-0.93156701 1512:0.228204 1513:0.65500802 1514:0.42796299 1515:-1.73782 1516:-0.323753 1517:0.198617 1518:-0.44674301 1519:-1.79062 1520:1.2987 1521:-0.62456399 1522:1.57803 1523:0.2579 1524:0.35098901 1525:-0.97257799 1526:-0.38972601 1527:0.844127 1528:0.35208401 1529:-0.033528 1530:-0.73840302 1531:1.6776299 1532:-0.895684 1533:0.984891 1534:-0.0057549998 1535:1.02424 1536:0.39200801 1537:-0.76594001 1538:0.27634999 1539:0.91916502 1540:0.011381 1541:0.29687399 1542:-0.25355601 1543:0.317633 1544:-0.277219 1545:-0.140644 1546:0.352238 1547:-0.853392 1548:1.22251 1549:1.72876 1550:1.21371 1551:0.50594002 1552:-0.338586 1553:0.701047 1554:-1.27004 1555:1.2793 1556:-2.2063401 1557:1.0415699 1558:1.05724 1559:-0.208869 1560:-0.44192299 1561:-0.12957101 1562:0.457075 1563:0.50938803 1564:1.34833 1565:-0.85594201 1566:0.087807 1567:0.501701 1568:0.50525099 1569:0.130376 1570:-0.37595201 1571:0.47968999 1572:0.75084102 1573:-1.94241 1574:0.49229801 1575:-0.62413001 1576:-0.35666201 1577:-0.291529 1578:-1.00172 1579:-1.56046 1580:-0.373642 1581:-0.566019 1582:0.355867 1583:-0.124133 1584:-0.30328199 1585:0.342926 1586:0.355046 1587:0.410503 1588:-1.69399 1589:0.30392501 1590:0.128794 1591:-0.59821099 1592:0.27632701 1593:-1.1622601 1594:-0.41216201 1595:0.44649199 1596:1.36357 1597:-0.25915 1598:0.71675098 1599:-0.395533 1600:-0.098007001 1601:0.41313601 1602:-0.75731599 1603:0.15661199 1604:-0.28108999 1605:-0.66672301 1606:-0.31606701 1607:-0.16485 1608:-0.061151002 1609:1.06084 1610:1.2029901 1611:0.46572801 1612:-0.48097 1613:-0.251237 1614:0.107297 1615:0.35609701 1616:0.27995601 1617:1.31004 1618:0.469634 1619:-1.49654 1620:0.076954 1621:0.19121701 1622:-0.374542 1623:-0.99833399 1624:-0.191236 1625:-1.18353 1626:-0.0065669999 1627:-0.225769 1628:-1.1583 1629:-0.89807999 1630:0.235981 1631:-0.85246199 1632:-0.56353903 1633:0.81525701 1634:-0.69099998 1635:-0.42375201 1636:-1.71044 1637:0.68150902 1638:1.60019 1639:1.0714999 1640:0.201883 1641:0.014931 1642:0.45366901 1643:-2.18501 1644:-0.72278303 1645:0.769023 1646:0.34045801 1647:-0.030044001 1648:0.44729799 1649:-1.08331 1650:-0.250462 1651:-1.12078 1652:-0.20568299 1653:-2.23721 1654:0.78776997 1655:0.47458601 1656:1.27174 1657:-0.79213101 1658:0.73539299 1659:0.450275 1660:-1.07063 1661:-0.001206 1662:-0.78846902 1663:-0.32723099 1664:0.207801 1665:-2.7994599 1666:-0.25923601 1667:-0.43284699 1668:1.18501 1669:-0.32248899 1670:0.44911399 1671:1.09874 1672:-1.07907 1673:-0.968894 1674:-0.148625 1675:-1.70825 1676:0.16308001 1677:0.601008 1678:0.71778297 1679:-1.94542 1680:-1.65689 1681:-1.25868 1682:0.105113 1683:0.78118801 1684:0.62595397 1685:0.52984297 1686:0.902349 1687:-0.47627199 1688:-1.13238 1689:-2.12023 1690:0.114747 1691:-0.46094701 1692:0.56100303 1693:0.56849098 1694:0.54727501 1695:-0.54918897 1696:0.725124 1697:-0.51405102 1698:-0.75873899 1699:-0.32623801 1700:1.0289201 1701:-0.019482 1702:1.12444 1703:-0.630898 1704:0.53208202 1705:0.204427 1706:-0.16902 1707:-2.73102 1708:-1.06644 1709:2.8247399 1710:1.47602 1711:-1.3237 1712:0.48079899 1713:0.460789 1714:0.78106999 1715:0.31201899 1716:1.02535 1717:0.578825 1718:0.39511999 1719:0.196932 1720:0.320297 1721:-1.05949 1722:-0.953794 1723:0.69051802 1724:0.27985299 1725:-0.191103 1726:-0.67684901 1727:0.80392402 1728:-1.9995199 1729:0.66029 1730:0.34172899 1731:-0.81100398 1732:1.19473 1733:0.50483501 1734:-0.018409999 1735:-0.045607999 1736:1.56823 1737:-1.13223 1738:-1.02582 1739:0.025536001 1740:0.68025702 1741:1.03008 1742:-0.70765001 1743:-1.47447 1744:0.63935798 1745:0.48066601 1746:-2.4114101 1747:-0.64162099 1748:-0.83863401 1749:-1.06233 1750:0.21733899 1751:0.90673 1752:-0.15609901 1753:-1.0407701 1754:-1.67111 1755:-0.16410699 1756:0.549532 1757:-2.4500899 1758:-1.50137 1759:-0.57235903 1760:0.54630101 1761:-0.17668501 1762:0.100556 1763:-0.221352 1764:-2.10641 1765:-0.592668 1766:0.59504497 1767:0.73394901 1768:0.04507 1769:-0.74913198 1770:0.53911602 1771:1.05626 1772:1.29685 1773:-0.048193999 1774:-1.98088 1775:-0.44742501 1776:-0.76730698 1777:-0.34446299 1778:-0.75937098 1779:1.3534 1780:0.88429397 1781:0.93359101 1782:0.506073 1783:0.415672 1784:-1.13604 1785:-0.93222499 1786:1.14197 1787:-0.322602 1788:0.86459398 1789:-0.532893 1790:-1.3692501 1791:0.068512 1792:-0.42594999 1793:1.31011 1794:-0.70745599 1795:1.24909 1796:-0.30585799 1797:0.072097003 1798:0.82889003 1799:0.56467402 1800:-0.515957 1801:0.72474599 1802:0.024797 1803:-0.53437197 1804:0.47712499 1805:1.77721 1806:-0.86890799 1807:-0.365224 1808:1.07235 1809:1.03057 1810:-0.54586899 1811:-0.33563301 1812:-0.59375101 1813:-0.977036 1814:-0.168376 1815:0.78434002 1816:-0.190723 1817:-0.84828901 1818:-0.017928001 1819:-0.30695 1820:1.09631 1821:-0.624111 1822:0.149367 1823:-2.6904399 1824:1.17381 1825:-0.790609 1826:0.31558999 1827:-1.9295 1828:-0.30403 1829:1.09264 1830:1.0415601 1831:-1.39493 1832:0.13470399 1833:-0.97522199 1834:0.79134101 1835:0.674541 1836:-0.118606 1837:-1.26833 1838:1.25196 1839:-0.050005998 1840:0.114039 1841:0.440891 1842:-0.82767802 1843:-0.061154 1844:1.35352 1845:-0.006875 1846:-1.19504 1847:-0.91172302 1848:0.44025099 1849:0.27252701 1850:0.32192099 1851:-0.251468 1852:-0.52946001 1853:-0.355708 1854:1.2358 1855:-0.0072499998 1856:-0.67850101 1857:-1.4872 1858:-0.461584 1859:0.29561499 1860:1.0782501 1861:-0.60023999 1862:0.90631598 1863:-0.205542 1864:0.130079 1865:0.53267199 1866:-1.5932699 1867:-0.66375601 1868:0.50945801 1869:-0.394429 1870:0.95583898 1871:-0.43445599 1872:-0.81774402 1873:-1.44921 1874:-1.52134 1875:-0.31686401 1876:0.13936201 1877:-1.24484 1878:1.11729 1879:-1.06567 1880:-0.066449001 1881:-0.93113798 1882:-0.051141001 1883:0.375287 1884:-0.045139 1885:0.16408101 1886:1.4699 1887:0.019796999 1888:-0.66792101 1889:-0.45937401 1890:-1.54212 1891:-0.354251 1892:0.096454002 1893:-0.101764 1894:-0.98706597 1895:-0.45453101 1896:0.29025 1897:0.099831 1898:0.66096902 1899:0.58488601 1900:0.133958 1901:0.029960999 1902:0.28048301 1903:0.016890001 1904:0.56668597 1905:-0.62756002 1906:-1.38911 1907:0.29117501 1908:0.59531498 1909:-0.26843801 1910:-0.32241601 1911:-2.5086701 1912:-0.213461 1913:-1.6799901 1914:0.25832999 1915:-0.18421499 1916:0.346127 1917:-0.422701 1918:-0.043334 1919:0.054196 1920:-0.576958 1921:-0.80830997 1922:0.71908498 1923:0.45344299 1924:0.26429 1925:1.13264 1926:-1.91039 1927:-0.15291999 1928:-1.14022 1929:-0.094873004 1930:-0.31773099 1931:0.071350001 1932:0.000163 1933:-0.141234 1934:-0.23642901 1935:0.44493899 1936:0.613451 1937:0.188088 1938:0.54395998 1939:0.17444301 1940:-0.030605 1941:-1.77323 1942:0.37674701 1943:-0.562985 1944:-0.16981401 1945:-0.119901 1946:-0.67696899 1947:0.80874997 1948:-0.69646901 1949:0.54668403 1950:-2.3345301 1951:0.67708498 1952:0.48370701 1953:-0.053222999 1954:0.81166202 1955:0.446444 1956:-0.62908101 1957:0.940157 1958:-1.51305 1959:0.155246 1960:-2.1124201 1961:-0.97562301 1962:-0.396402 1963:-1.66225 1964:-3.6126101 1965:-1.37993 1966:0.12747 1967:-0.44388101 1968:-1.64516 1969:0.30938599 1970:0.37330201 1971:-0.52700198 1972:-1.3266 1973:-0.72553903 1974:-0.618756 1975:0.541637 1976:-0.67397797 1977:-0.32835901 1978:-0.605968 1979:0.55403298 1980:0.34313101 1981:-1.339 1982:-0.130431 1983:-0.322137 1984:2.1990199 1985:0.82795399 1986:0.97290099 1987:-0.31307101 1988:-1.11127 1989:0.196003 1990:-0.94569403 1991:0.22711 1992:0.497628 1993:-0.083921 1994:-0.38273299 1995:-0.91338903 1996:1.12293 1997:0.834571 1998:-0.283786 1999:-2.8603401 2000:0.280871 #
